function preload_7_5_3_5_7(){
  return {"id":1708125244098,"layout":[7,5,3,5,7,10],"layers":[[{"weights":[0.4432331695205376,-0.23968598129370056,0.012707330329292943,-0.4853016991092698,0.18545712358145694,-0.48634504883303087,-0.3225875129296736,-0.35863265475380857,0.016606915007668865,0.1121912889780855,0.44405063219492036,0.07777266981580344,-0.4431217204251575,-0.3280805972068097,0.19913662748639838,0.4331947171595646,0.34608715096214127,-0.2611242930247819,0.46557268346156633,-0.12503693145526618,-0.33891282710904413,-0.2525616255299742,-0.06573629622591648,0.14048689841015638,0.17245481589767853,0.02562707230713701,0.41727918374430484,0.41725906013,-0.0031784193645977288,0.3923793642318104,0.37905762134739385,0.3082943977610094,-0.46586254633705204,-0.17964892249916134,-0.4403003160643101,-0.12026661711255558,-0.18171330755844883,0.018222735665349737,-0.25146519471393153,-0.24685134904491812,-0.4034243448901818,0.004804629605782638,0.07511140046059359,-0.11924261049866897,-0.3931439242293713,-0.288710659728446,0.34084755431702746,0.35058249101802313,0.2192618432287395,0.11460932874920615,0.16855682449232068,0.29738644637427514,-0.24630389093967242,0.13157300423298235,-0.33353231923262616,-0.0743252566433058,-0.11322349311297508,0.16128566998395077,0.26895108950413105,-0.12442044768762206,-0.15186119754668226,-0.41936107939438994,0.1882140867456572,0.1052846271333651,-0.33144742799234905,0.3294356926133756,0.4809214475015878,0.3324022478079426,0.30447308217773517,0.24277155212230772,-0.06685024260160308,-0.3231514936861632,0.37886970407020903,-0.13317797518094474,-0.5413092697625007,0.06331508034562237,0.18254206825773497,-0.3433957522816742,0.22265393093817878,-0.08670429020382513,-0.17536060561602737,0.2843561486660333,-0.18038535619866436,0.2859224744819753,-0.35370159187909733,0.4274849133783556,0.28636527896763453,0.446965681022376,-0.28036703235988614,-0.05808813675660714,-0.060969947578082585,0.137610541848785,0.25890883236691653,0.0684419596796145,-0.09735408480036542,0.28211117121492807,-0.24178703291336587,0.4859962833670417,-0.13576070153126846,-0.36384373357597577,0.3457116602861442,0.0290738847077595,0.04323761038976016,-0.12879089666271692,-0.23762230670992543,-0.21143084508175133,-0.17863293079205217,-0.3030498212579515,-0.4982289969039461,-0.3291524650581308,0.4715478606613033,-0.4954915273906727,0.09450061124114373,0.3515635370243876,0.29819597123440156,-0.1003629214439767,0.19384922894576595,-0.4478771300078895,0.2251451623601423,-0.3899363613307688,-0.06254921654777934,0.5987828265677108,0.16142452719437542,0.040983301239910175,0.3279474339191088,0.25191194650259785,0.0686091021174833,0.03433166921659279,0.040424174820964984,-0.17344321944939198,0.16237412071072588,-0.37016192914704327,-0.06915233175422711,-0.04817357474562678,-0.2572851126172626,0.07457152112237467,-0.12173789139714251,-0.47266280109693654,0.3116980338448019,0.19484904586185714,-0.2150840238491416,-0.23872646971101213,0.04739654211781108,-0.38928913729739834,0.36506468944403464,0.05420342853610376,0.4345997264989971,-0.123624536336742,0.6882792441124266,0.4001498315545533,0.47651942532668423,0.47019274230963076,-0.04873593630156978,0.21531207048542297,0.3459121802935935,-0.18175722020898805,-0.03278936763860833,0.20985017757139193,-0.14184179915666842,-0.20300299231073,0.04009980733636729,-0.34979475327487985,-0.11318270209980406,-0.2796962115375157,0.031228826477833968,-0.28258430609174456,0.15122231079372261,-0.19893006134450297,0.21909485341427948,-0.2643960694612967,0.11871899813565491,-0.0615893337709064,-0.25887222236478036,-0.040512391682401616,0.7018150295965855,0.25930960150642923,-0.39212899247676103,0.1885710346389918,-0.09185011116525915,0.23628684934553362,0.0037461072827588687,0.24568170279303783,0.14455296754710426,0.34337709961085455,-0.14451407758787765,0.07994027051392422,-0.2953355581645933,0.08303406396609161,0.3157486318998531,-0.23023460687050593,-0.5805736859344612,0.12311987727238642,-0.28648134827676836,0.34865699430594993,0.06360093410025898,-0.30424256034337355,0.2728360227018848,-0.31875029041232195,0.3238600013098101,0.20429566986529674,0.18169385608381128,0.43105950964757755,0.4166104391927354,-0.1160303496106158,-0.20327935630106359,-0.054989281456075984,0.02103289294162558,0.2627047355953133,-0.07474371333726848,-0.019279703356066605,0.06237888449038693,0.1719250286412985,-0.07018233848208856,-0.06927628233186782,0.18762358283033517,-0.030472434812359294,-0.3840575012999774,-0.23214646478241083,-0.46606990495488343,0.045090171056545544,-0.29087645782401056,0.17324192189067567,0.03023502610906001,-0.18450577849150052,-0.4188782854675268,-0.053416642388276016,-0.4304293157290474,0.4919051654934398,0.0204885749606495,-0.1485185434980454,-0.13143878871957182,0.02214428866120225,-0.04396717637347168,-0.39694550426165265,-0.04878990243236116,0.2545466220547182,-0.017440215298097816,0.176884286384349,-0.14051817551871285,-0.24741943514587653,0.15067549512080866,0.12069964307432648,0.10141909348303689,0.14643419146759085,-0.06178353215273422,0.2462781477246053,-0.31837500885578135,-0.3673958210318337,-0.3889448131713274,-0.22738760249227227,-0.07976553554430497,0.32615119398059456,0.38448731646576806,-0.30869911430503283,-0.39467100882408135,0.04437715448768954,-0.21568783801472546,0.06379970201417483,-0.2653184724672515,0.13854525281776756,-0.09804039600382394,0.21732245432774036,-0.3609217016117179,-0.6793826417167158,0.08633128748181844,-0.3009522959576962,-0.08377774056675734,0.2110513788773769,0.2748033655649745,0.006059077069061749,0.18133679358159088,-0.05368963484092852,0.010643872033547865,-0.09548793407940509,-0.027383791463577126,0.07321407652163216,0.02473341891849065,0.1727549729501438,-0.25721646746942983,-0.23247695843378058,0.44240481835961765,-0.38547220784811026,0.22529806076404868,0.279104693604932,-0.35466260447371317,-0.24931956918721,-0.266814223615351,-0.10831225483230822,-0.33349139017971946,-0.7399584498958622,-0.20964209382943258,-0.2856068685932726,-0.40572636734188355,-0.07174471920279048,0.6573849891373438,0.37368153342465704,-0.07264611829143987,0.013413254076436346,0.2200471183099984,0.1898317379105863,-0.3845232480576044,-0.0779779312890354,-0.50453803967008,0.0016104835782706612,-0.39016694979595434,-0.28885996559352745,-0.04545823516597214,0.23646701721954203,0.4265055129659361,-0.20109701989948164,0.3590851587943435,-0.28193370449933075,0.3539693779964012,-0.26348936585759236,-0.06855554436210357,-0.7508657702505097,-0.12852211793940332,-0.3286969411665181,-0.672519516124629,-0.7409184769720141,-0.21372737593411673,-0.35941913788865115,0.21091152271536184,0.06879391682674667,0.17770818395276022,0.48903561571625215,-0.3858638741173094,0.2776016133856117,0.2134065478100771,0.2436530103266269,-0.11209890051116247,0.16588567418187833,0.04969221017552046,0.436117568191236,0.18512030516809333,0.3049773670308446,0.3648459962165288,0.04639756223853148,-0.026397491226119514,0.3779282584929521,-0.3639442293003058,-0.28820836233889474,-0.5283541618514481,-0.6076520815215288,-0.2267048633564601,-0.3571536900769065,-0.19218638932099005,-0.03658345539086944,-0.36517312364842663,0.2673844396825923,-0.2182677159765189,0.38902904094833984,-0.04669092318638986,-0.13624072720180425,-0.15181600253492336,0.09671695290894478,0.045649556908732014,-0.3189833786924184,-0.6139786649045845,-0.36112648298270206,0.2998047337688015,0.059697382642966104,-0.11744999563806435,0.10217533831639347,-0.2961381967630389,-0.2855246586026545,0.25499364271609415,-0.158235147767629,0.01998860741214978,0.15975655948679457,-0.6720246228491866,-0.26095739754493064,-0.03913843253663515,-0.43422964930752916,-0.17509186385249284,-0.06247751834549487,0.1937085351267166,-0.09427703506907353,0.6451616031520258,-0.3778940343986331,0.036630136995271644,0.1402820631072808,-0.011015047927757484,-0.17859612073382744,-0.2358927134398659,-0.19008567489991157,-0.5573415977604094,-0.1729130594273674,-0.24272306908832672,0.09603046479317759,0.4100623801945266,0.06380310643930365,-0.0773203395456491,0.11132044827517606,-0.32193944467925056,0.4447546616525815,-0.40177463361552235,0.07462219372484968,0.08295362010359325,-0.4753938614918294,0.1317718031498263,0.040287031342150025,0.538983593874086,-0.3153086314475122,-0.06725946306948757,0.14258860498532458,0.45951454974616734,-0.21967713931404567,0.03618591469931871,-0.3165450548335956,0.25859458912068434,0.19751059447058092,-0.2666296796450038,0.21933077639196732,0.09515248086630643,0.018132925796177802,-0.5679234841621996,-0.21254380991314684,0.2971900125009779,0.22024682068719814,0.4327741140219039,-0.0368602450227723,-0.3090472896963267,0.04874273751049997,0.17801400206784823,-0.19078934077554793,-0.07044908392261938,0.16356818035599863,0.07857406972038924,-0.2289827522406775,-0.2928882550048495,0.0361346172530559,0.22225955623870675,0.4079446378211881,-0.25719737833853906,0.1798704584751716,-0.14292160558500355,-0.045382436995597374,0.11794600164569706,0.009662085696288823,-0.10310273356805108,0.03971384467729624,-0.12104495192454709,0.04041418353654871,-0.2353944268658879,0.37338047915022815,-0.27254116541451295,-0.2362666595667149,0.4890272209589651,-0.02029517166175235,0.18441593261158318,0.26475358412124433,-0.2025366790779233,0.31723724848172546,-0.14075904747356704,-0.27802114339758716,0.09510102217048151,0.16094631184226063,-0.37875283667889653,-0.23265700914545315,-0.32475631904485125,0.4783472365204507,0.22302293087991823,-0.20046899822592912,-0.36523800507467785,0.3595044269187651,-0.23181042853386552,0.0202540718644552,-0.15292996466406422,0.21594009307424644,-0.08752019113877402,0.49523414337070676,-0.2509327629050734,0.1692966436746163,0.4784785602203044,-0.40367560072377084,-0.4582256371053771,-0.18841880084010776,-0.4882192586850162,-0.24601868811183902,0.6192592466721245,-0.12907044316893232,0.0789716950197447,0.09233239292108156,-0.3361690265083181,0.13297188759670409,-0.3714419310987132,0.054857250938804156,0.1736659639134475,-0.24336098007872875,0.33741054400308923,0.2989722981290789,0.31507336081146053,-0.31303364821389246,0.23790761771621086,0.261076696755457,0.04814111841858303,0.06729763309719226,-0.08674380458407037,0.04563144914945404,0.14274625107588104,0.09433190211581241,0.42239588548648266,-0.3939471891508954,0.25421587325477935,0.2802387462121111,-0.2579576161421936,-0.32499535531668916,-0.12423848593147296,0.22321908285088518,-0.022666420709747045,0.21606704659041603,-0.07910839063963146,-0.1603830724779805,0.04705897237234902,-0.034264983765312305,-0.24812348588381303,0.16764264836041776,0.025132138672393313,0.2526045300480438,-0.2570899347601069,0.08446692560423309,-0.10181878683943482,0.3107059314229253,0.5943985289438893,0.011956544536161346,-0.16404329236843498,0.6157433172770299,0.1004450483387418,-0.40689024592564926,-0.2572856443833856,-0.29063285668211414,-0.39557714316297987,0.46342922745459836,-0.1889592878945259,0.443017841111202,0.3425268918692835,0.0786633474189455,0.33061077057125143,-0.039332551508943624,0.27854133103649653,0.034088184680924775,-0.214405457837751,-0.20545325080866522,0.09215538010175445,0.052303235958319136,0.16987006596909157,-0.14511486756473668,-0.03772241519621644,0.35150321743999524,0.23342115091079518,-0.021818147836090665,0.17070975778387562,-0.032150885811702515,0.7095581447208231,0.1662781715766337,-0.16131062891097264,-0.026740474383185848,-0.4565999947615086,-0.16448933506779956,0.05258089124855825,-0.24164620592418753,-0.282052670595763,-0.23141546144450004,0.6255270797693088,0.44643308604475157,-0.14215381492979817,-0.18743221831700058,-0.25294095876123596,0.07638592845206768,-0.03728623058346822,0.03760694614119156,-0.6360688079512322,-0.16791434974909755,-0.22871631059119313,0.21602221291869822,0.2264413842138754,0.07212983893478583,-0.14322346671130717,0.41975239293451977,0.17272540731566066,0.4563449712982936,0.2050306639740739,0.08914066159302676,-0.38621554629559784,-0.11028385199806104,0.18234088268968296,0.1932904624083095,0.4521713990073162,-0.3151707364974571,0.3507880859013214,0.03831006132972492,0.09983441593092912,0.31034540138914174,-0.05483497538107496,0.29243396321438536,0.45784156766339307,0.2142680222495417,-0.11619048166538126,0.3289829638125215,-0.3360637551274202,0.12752333830145135,0.09512382497627034,-0.24857225407771738,-0.2890076034569325,-0.09475571943268034,0.4043569376417739,-0.13853437642411884,-0.20753880948851108,0.28069658690961846,-0.12831061989718356,0.1216024580264157,0.4118786517211239,0.44352223775602556,0.29856993701929296,0.13430023483683717,0.3598181409852268,-0.24607421193055612,0.042111129928813676,-0.3042544720542656,0.6554012308729688,0.27367864610881704,-0.048060768042582004,0.5586408420887109,0.2900903407618644,-0.14575624080141797,-0.28357075711838153,-0.6412360218205821,0.05994752669728963,-0.3265630185996453,-0.544046657114502,0.23620624661121886,0.16128438483505458,0.031042639691037755,-0.04043710548040458,-0.1489275768603984,-0.08572367619726562,-0.24237045363950063,-0.2406476316690363,-0.00291673352655854,0.27398609708001387,-0.0882361455008602,0.43961455327062743,0.4454386449358676,0.4634732256075871,0.34023867610379627,0.10457144266979138,0.01860237324610051,0.23785417537569387,0.6363046455696986,0.2356064238447558,-0.42270085150833553,-0.18609215028879028,-0.02627136078135164,0.20370878923166932,-0.0020858411648639187,0.22225368137997148,-0.09299874502867,-0.04411196203389097,-0.5598652073479377,-0.32314290367884263,-0.1555428045603679,-0.4160910765006803,0.08598628751020665,-0.08713918104513377,-0.042348992358013475,-0.22145672050299378,-0.4548790321477336,-0.35780871220237204,0.42911831053455596,0.2211329591861393,-0.3034482538795422,-0.20655141630918472,0.1412714914105696,-0.1385188222778716,0.2774529468417653,-0.19638853354240854,0.45977087732883454,0.008838768556275203,-0.2668786434192294,0.2243133901844652,-0.21990790455734158,-0.3919831119595059,0.32887892985802997,-0.18307675098275059,-0.04949913916472606,0.09585741672483233,0.2554331675155835,0.042813974760375295,0.04560638202432872,-0.01784377961693544,0.25088781962953116,-0.41966150542192693,-0.023875608403029346,0.21890814938758685,0.23550476587367464,-0.10034781546733008,0.45603399918891235,-0.1323374144182221,-0.22364852683040404,0.2360013588344939,-0.1775227791421602,-0.2915772713016568,0.38251101126725107,0.3219437739208839,0.12534011409706775,0.1330792704800646,-0.20998290200982947,-0.6016365362558127,0.037324393150423164,-0.4566656817129085,0.35880938962885195,-0.4057677127737562,-0.5815564353454132,-0.20662458553905166,-0.3629361263157619,-0.0552773107225462,0.04980186194430137,-0.0768584563957129,-0.28714479216609956,0.0015461865112748206,-0.08417639786872809,-0.3476171259619194,-0.09664332105351338,0.11326772547122191,-0.05530850603638898,0.4920019943696452,0.09794388241592511,0.06370842512698294,-0.4772256652920288,-0.03883866792446633,0.15847973945980054,-0.19087722176781646,-0.3854382752934002,-0.012573823870832208,-0.39777820212045223,0.19926383733042596,0.3048474490849044,-0.13495789081651813,-0.49153319540860174,-0.21906440536973315,0.4425013994462544,-0.26632788237476046,0.13652406585532312,0.24972218137318922,-0.1317529944096696,-0.19712186753367078,0.42663643850830896,-0.1265178844049312,-0.40648539136959166,0.06987063394102346,-0.37629716023112736,0.029877766792874183,0.3495356206685122,0.4471437969314863,0.29733585736891965,0.3149367622856838,-0.39923592612340486,-0.043969571307222566,0.18283087611926385,0.2981712489068863,0.18085816444020686,0.031346116246455225,0.10318823163967393,0.15028793616399594,-0.49052707778791727,0.14030067754656694,0.08173293713354696,-0.4385751903051973,0.32342984994905416,0.41358873190242385,0.16071032366157284,-0.4673423072057359,0.14420150272161103,0.10186053328487707,-0.0035033749541858615,-0.016196025420310976,-0.07678752750524546,-0.35899426284060587,-0.08261850121842573,-0.37296650135117204,-0.31599997738785457,0.3342166905160625,0.1999585068150198],"bias":-0.5214674426146846},{"weights":[0.1853798310677256,0.086621329436811,-0.3669138574974572,0.41848956045799546,-0.17303130113682463,0.2801203306378326,0.20442081685453506,-0.3573508497979011,0.10219707621822638,0.2686617063447183,-0.008121729105439845,-0.4267607641594199,0.08039266806773726,-0.23288562043211558,-0.36083296739316806,0.04651036807180908,-0.40696052490781975,0.31779444886681407,-0.0884039521088349,0.280335905657326,0.023303667793176164,0.28161121917883114,-0.02873442675545701,0.31136047907187003,-0.19535047168548714,-0.024653185955381574,0.20345676881546848,-0.3179432932747892,-0.007701239690014683,0.46740418323057453,-0.3389474017003947,0.15838804409775187,0.09922012037281469,-0.23624980541081048,-0.040172828080081005,-0.27521031857242967,0.0816480009353026,-0.5029446702145679,-0.40554075421235086,-0.3401996358931451,-0.3771546846863288,0.11394775110606693,0.15522989203168322,-0.40992548690074254,-0.23614910066395797,0.24934467763270138,-0.4595553694756517,0.494039967359007,0.31544273076725426,-0.3947040921006385,0.10092749248958333,0.14433186375257678,-0.4345085760648886,-0.1410870883604758,-0.2870973992094007,-0.4797976096017045,-0.11303732540935618,-0.07355217232651157,0.23285336684287639,-0.3592410622802751,0.023289747293774088,0.3138229792158026,0.3332981565928342,-0.22077875957009904,0.47865952437019166,0.14584635925492695,0.024971184782314918,-0.20206998135061768,0.13918144093345003,0.37914332292880304,-0.2490239263330162,-0.054442832913137826,-0.1707048484099923,-0.4171523413799017,0.4454629107094957,0.05696275766329283,0.36423810912366944,-0.23662582910537594,-0.09002046789130082,-0.2741741243033338,0.41584243892421985,0.03504270427428702,0.05318897872304729,0.04168616243385681,0.004036646503396413,-0.40488277275477547,0.30196930255024257,0.35487860223091017,-0.36964589889929506,0.2994436604589561,0.3170351832518047,-0.2563587955265014,0.36372556193248795,0.6399414175913737,0.07567686077115843,0.38195564601189896,0.5193684041267032,0.7557867774642775,0.8018987006914038,0.6554278833259404,0.5831746371426447,0.22889719686715707,-0.20246973081934289,0.2788842749870218,0.05746336577484261,-0.10828859674400043,0.35698329628400716,-0.3738325912006932,-0.48709644969491694,0.4179041962029372,0.17229203414039737,-0.10239507144283133,0.3782526085376998,-0.15350840707969116,-0.18077031525764553,-0.37765311694745674,-0.14529079522337232,0.17003419004925005,-0.4490195367454083,-0.3826826526229984,0.022542883884296948,0.19141306800657515,0.592620737719368,0.13080903652221326,-0.15643832112809838,0.23120053558697432,0.2828943819800889,-0.03668350808885839,-0.011789869941708286,0.41808478655969933,0.26956839973445085,-0.07575418267959742,-0.046848626783733,0.35054115561659427,-0.1991244450381054,-0.05827178356437839,0.452790226756523,-0.0027803885272119134,0.3494315179714054,0.27643381511186516,-0.23368604487749767,0.03517411450274949,0.40060229145198,-0.32508983638954353,0.15881299193651244,0.16738324301540536,0.04998945593845301,0.09194438867175815,0.3376858358003527,-0.21359852687736047,-0.034973089670577454,0.07891697687751667,0.26159575768207133,-0.0916368372734467,0.22529145561702738,-0.3036512580036201,0.2711866913289074,0.014261730359208453,0.4149461045915051,-0.2456537259654815,0.07138577528307005,-0.2758404442190847,-0.3256814145672515,-0.04349889940854834,0.3838276572727862,-0.2866186667767966,-0.44417122331948505,-0.2522159660468838,0.46555196463834025,0.08311017380251617,-0.060376499343890055,-0.20020147293479865,-0.03193180269666316,-0.5209898989574634,0.30188903733232664,0.12306070679949974,0.08145357235643269,-0.24984072167097163,0.23560339336044397,0.02894565933540722,-0.05400007084519078,0.14774015108587937,0.25432719724229075,0.21399320522496362,-0.25554688972139883,-0.20163149007994688,0.03507975967606246,-0.33277657737909555,0.16583031010809152,-0.2745394752106061,-0.577984299584376,-0.16531065004382586,-0.4889524089772787,0.06321264539878094,0.07063308094665036,-0.4899703332741301,0.4583304557273128,0.07985840067903101,-0.3505026029989542,0.20467820672513418,0.4208174708412223,-0.36083536003582994,-0.15535214630752203,0.06994389840567275,-0.24747159732936613,-0.1645732812419784,-0.03534244780011835,0.0617003446849925,-0.3069339940126297,-0.1119866283049542,-0.40421287946618617,0.09935051034591458,-0.029526111476918075,0.22685416599181799,-0.21515338673479423,0.11383633703302971,-0.22391676603345317,-0.3809606079580493,-0.1789196083679162,-0.28653385535284676,0.08605604744357655,0.263537660810088,0.19599085636152416,-0.16079499457611263,0.2796790103351168,0.32446302283257056,0.0849377459835184,-0.4851309854335066,0.19699290167289626,-0.23195360895002556,0.3431021197478779,0.020501820722829734,-0.03220255282134048,0.027830106602767003,-0.070756352813982,-0.08238679235227625,0.04431140740558921,0.21536131096339617,0.362554410837738,0.1886100704690269,0.35692066843257764,-0.21854416016937483,-0.2945438173712544,-0.2244244257241259,-0.2140122698231012,0.023530345935889433,-0.13947205345960825,-0.5248195773662445,-0.7563423605716832,-0.30498668481099933,-0.2856827403673568,-0.21413051162307398,0.09976633789494316,0.3537960491044675,-0.14948713447262832,-0.09300299974787715,-0.27308483448866644,0.1392007994727267,0.023460480188482298,0.01172775040514109,-0.31596733452685827,-0.04608704523309047,-0.3429324883452346,-0.03367989104606492,0.07685857940108919,-0.2450958242331197,-0.16525390328383943,-0.15581259392522326,-0.18593118561276276,0.10990051945093876,-0.0745300758242684,0.49002750457962346,-0.18488662405045297,0.014009190715619563,-0.189809236095501,-0.3621243307089724,0.07045879250817708,-0.5969617999476722,0.36955634804240106,0.2108789747986757,0.23998130877802237,-0.38100643486990754,-0.11865402811084765,0.04216932893055757,0.2616176497679346,-0.2335156491593,-0.45833506612834773,-0.41907874008912405,0.1842539669317403,-0.3324905864291828,0.3724793252413528,-0.0913015978649512,-0.040507643323548816,0.4855864065254865,0.37905673641717313,0.10304819967484077,-0.2561734432929288,-0.11805716677284182,0.1531956382513882,-0.3966748602390403,-0.05982457278448856,0.0544654043445496,0.039714099169059325,-0.45922636533531164,0.2926901688580318,0.12275891399317396,-0.1385357669031155,0.024924413487897232,-0.1523324809270678,-0.04794300283167009,-0.07910065420911574,0.3023517041741625,-0.3416693332431614,0.1851570392239815,0.1717019602314569,-0.6001604150685624,-0.1292398347590963,-0.29932417611094847,-0.23999374420669226,-0.4562134023190995,-0.40286737679962586,-0.40826811038010385,-0.715325068165106,-0.20969863039620915,-0.31107359813418495,-0.31997843862584624,-0.4109942017854636,-0.09192184001047672,0.06473837064387293,-0.017694085480927473,0.3340077654202718,0.09831919565818391,-0.46835785368579563,-0.4680554516761982,-0.15354041531001666,-0.06069401448139538,0.29799427493125974,0.3283552579606035,-0.3825609211534654,0.3986326061034635,0.2371410913433712,-0.22487904492593566,-0.21669057020193552,0.1759739669053345,-0.41873004801943414,-0.23138921128642057,-0.1286041068815337,-0.3542291002969132,-0.45102456030852495,-0.37420767888563067,-0.3671915192935324,-0.32739032570724547,-0.18408044095051082,-0.011279992955510632,-0.18625677394200849,-0.23053293221168408,0.07983890965450127,-0.2863563326402601,0.18371454454228547,0.054051197865587375,0.17897012478976193,0.03993735829467176,0.12625882762502016,-0.3909163660003727,-0.056113992697952586,-0.0035277044402500083,-0.1573839280130322,-0.23135395644719317,0.17767377005577395,-0.04553562609045659,-0.31327678715136126,0.11046577387515562,-0.34583063176074336,-0.0010061923431992036,-0.5212489867556416,0.037973235646949675,0.17356921057556915,-0.5666808305888129,-0.20875728828281762,-0.6841154892766831,0.03514166240179599,-0.1471301806647257,-0.10739825826527999,-0.0005128479345017529,-0.306172232921771,0.3934106412487226,0.027474553275899177,0.30019849886214417,-0.15861911896041903,-0.41484738314069675,-0.2766339138725447,-0.4011500590375059,-0.4059813047475438,0.14266576929195374,0.06745097523742768,0.18796812909682445,0.2706744333558849,0.285797922502376,-0.4041860561064032,0.21327823517468336,0.04319943480779003,0.45511055677120904,0.22948516200748778,-0.2268160430195126,-0.48712979236545856,-0.14490120878831095,-0.1188871083344991,-0.014606198598930894,0.035154114861788294,-0.5700347658582012,-0.1520377176326516,0.024008765206075703,-0.14793425013349262,0.03208669379405796,0.17890580421782995,0.1524466358821799,0.508443129873702,0.25665981751898875,-0.48723415886667565,0.14094943778235547,-0.13303261425113544,0.40554252048276507,0.49152525242119627,0.297599684607232,-0.3066815011603393,0.20477618204495837,0.2711031705640947,-0.003395354594482976,0.2191328622593703,0.518697153200493,0.2344914862811232,0.216187225525187,0.20139237240336177,-0.06775391365464513,-0.3694981529459525,-0.29668459256484264,-0.16088427570927502,-0.7377110561538317,-0.062345368061674726,0.3904267636965631,-0.2587787737000286,0.24587189860658665,-0.009173506259386623,0.4397057963700934,0.10166643985404998,-0.12111364561295054,0.1305913302209153,-0.37757265050032085,0.013998224857874941,0.31465107162765577,0.19149634661165293,0.03732881899138865,-0.30756926335598733,0.20442642877823836,-0.1484532501661101,0.49340133018546634,-0.16203627405203125,0.24173504447850228,-0.0925957790495545,0.30785956319072205,-0.2350107199635114,-0.3707048602932738,0.09442050025743813,-0.5522253182942354,-0.3749002876066158,0.015814864133938872,-0.34335407036593296,-0.22491067128010536,0.026275589466030765,-0.018455141732410082,0.01856957565630368,-0.22878486353765132,0.40263546765372876,-0.07922934919804325,0.4250500054066468,0.14396880762849065,0.4243410382306325,0.28834219648109805,0.23741344110813314,0.2145417472353293,0.08441485479291864,0.5033392048549289,0.32196282903779777,0.2563638286586208,0.46816625438432236,0.36265255657305967,0.34195454842577644,-0.051937705913958875,0.34687351746200856,-0.14240811268467393,-0.12223495926635276,-0.10948817081252557,-0.21318990447425187,0.33394507450739674,0.25249499703113615,-0.16048061770329614,0.2034708663809423,-0.16444474290741878,0.38347310449516087,0.21270645335902313,-0.15798511287881759,-0.15783698845448144,-0.14391941605306954,-0.41759017168139473,0.13113726662650227,-0.43698650109689324,0.063035569188267,-0.44429148020453796,0.251784829630786,-0.09415242401033087,0.15752361529952913,0.3554470294427285,0.27542858658438024,-0.15252671158766107,0.2528309143280018,0.3282122162472148,-0.0560375737725361,-0.21629408578825868,0.11754948450800547,0.33563407973104653,-0.18474746116230417,0.15299706258547824,0.5617962757826255,-0.1994409551126841,0.10728306832974803,-0.24595725348736416,-0.13963031106539456,0.479752356164522,-0.3509149713300065,0.41027056485277125,0.4913756488292253,-0.05571237090133995,0.22315171487028795,0.027796767089553396,0.0035384264027440095,-0.1597359487955698,0.28972150850967326,0.21455518711816032,0.4906450989854539,-0.5284639539525907,0.2654215791160366,-0.018333694104999455,0.362707528979091,0.5044083023174185,0.5486325719058057,0.030317823148897898,0.10704554278397391,0.28447762689671996,0.03976171761915375,-0.19062312352561397,0.2170426424545132,0.3442083601679423,-0.1769257286325474,0.13017079518534438,0.032243324726624015,0.29702246302402463,0.04937164585989728,-0.4288125822130452,0.4806173871990425,-0.3033273328401399,0.2983046817699724,0.02009963663111032,0.10852793100233597,0.36956405459486075,-0.026364205452984117,0.2703715161420931,0.1415198914508373,0.1493893158929666,-0.06386386231064824,0.31035920142031276,0.4973450422232392,0.11615475689554886,0.47717466200341835,-0.05807470937608008,0.5194264250179396,0.05033460153532471,-0.08315218753843981,0.2200389177556167,-0.2752755976284927,0.2915668207185357,0.2144498539698428,0.3379587528099046,0.2536546059114969,0.06727371140091967,-0.28373422677474597,-0.003333226684220188,-0.053498986433048075,0.29102848372472867,-0.3276055443647117,-0.06958052804475234,0.18193366912064096,0.014373868037550279,-0.23511837983466058,-0.14674250751729043,-0.3008294674084095,0.1666684342696988,0.1888303749884865,0.25923268423919643,0.010832117462086576,0.3845004130069442,-0.08799320936089494,0.44064174636498943,-0.051736626366215725,0.04844780180190872,0.6229306396270519,0.2552378406739487,-0.05610990586013143,0.03843495411474521,-0.02533377507810847,0.31397030410334725,-0.49705597585387057,0.23154234232820106,-0.20931125397872719,-0.4509599103568116,-0.4149725543254825,0.1507435383951321,0.39182530178383823,0.19880027586613092,-0.14248484770962264,-0.39458720608963255,0.435663884572869,0.41954546047551544,0.1672802875615757,0.43156474221236596,0.17671722510957577,-0.033491494365219907,0.03945534914735733,0.26375670350880914,-0.20100217456197364,0.32604197459088763,-0.2182099935989855,-0.2369203369684462,-0.0730225579755246,-0.05226541461722927,0.33970290006112364,-0.133733627685175,-0.026794386984805862,-0.33028013630750286,-0.07400683048755365,0.06416019946117966,0.20178124485893212,-0.4920033293872025,0.18953013337088667,0.3279267509710405,-0.45125861209971807,-0.24300631328335884,0.31467945939454206,0.15983591530830799,0.07978397611658061,-0.05648927807422268,0.1393423669007573,0.08615867032431607,0.13090401324460443,0.04006600605270594,-0.1476098138487206,0.16738702284323137,0.1591523814506341,-0.48037005838578767,0.18851760958399916,-0.2952692954265921,0.13851179717915268,0.008515809369912315,-0.20855785423443324,-0.2625455227100795,-0.047568739489940004,-0.0358815387375747,0.39828220674871756,-0.20316176820044207,0.501367703932544,-0.456319530896061,0.24560610263299937,0.3815451457468666,-0.32661068864689535,0.46037652434048426,0.23387022312350358,0.4627263067755193,-0.17036192364553795,0.378372382375656,-0.2312900538679901,0.4616755775179069,0.30187111193457156,0.21930949770019237,0.18718536030950853,0.22246816999147626,0.20009400421651383,0.16100377909591299,0.009347138964373778,0.07241035119052244,0.04758894367156354,0.15450692088332268,-0.4484326639492076,-0.1695734859547244,-0.057652423301845036,0.052631619467737575,0.004760324248656977,0.37933853545743584,-0.41748420193064584,-0.14507704961674808,-0.17356008821053193,-0.4211995558666095,-0.05083936203278783,-0.09088332499260776,-0.0077163746672582745,0.2598688032795942,0.38837255510990687,-0.36527432675498545,-0.4273554979628025,-0.5371455027633195,0.24940859053172154,0.1704162654706474,-0.6955190878918966,0.16153222321529587,-0.06874851845064206,-0.5415485335533734,-0.051941964948429495,-0.2906869321491667,-0.03548478340125869,-0.22312130297178515,0.28386867031062185,-0.4776715318572719,-0.09719335560539355,0.19542062545358085,0.3913676633930925,-0.47154157914568773,0.3712680055495509,0.1713979687214736,-0.11080357842265576,0.10026821970925082,0.06287445035922357,-0.46143497476213535,-0.14903089676927206,0.18943180737817378,0.12611720338800303,0.025180105833568858,0.48792756062172166,0.022097842810520376,0.09848824900527957,-0.2724696013734427,0.16977111188433228,-0.35649381085259996,-0.43153832785946233,-0.045168528299163124,-0.45406840151884265,-0.4371543638282977,0.26392320068792985,-0.2449207254135262,0.1083984824401983,-0.363965044794845,0.35001506131780985,0.06261482899270576,0.4001476882221234,0.1268916867172769,0.10345773237669309,-0.4517044426082274,-0.06135100966972895,0.3772367016639344,-0.4903043063170932,-0.18528607700335342,0.42058844011083096,-0.22759413476397805,0.37108677675731416,0.07928524107989832,-0.29535038753234527,-0.3019018089051731,-0.44935282682414107,-0.09723776506097048,0.01298609442101622,0.4951003955824304,0.47546279141205466,-0.04826675769703587,0.08851756780794039,0.22848221065154936,0.2852587704460669,0.34305515777662016,0.36109131788054627,-0.4285527408500957,-0.2716906583157367,0.419277873194129,0.13464201952142096,-0.15366511960306772,0.33111143187252157,-0.4759171343762636,-0.30901881051350877,0.37888636028701195],"bias":-0.2932519335013324},{"weights":[-0.3479989541288656,-0.07813691729383565,0.3248753986009071,-0.0077103226869319474,-0.20941659581056105,0.1714518823401835,0.1967211432316166,0.16892416447751624,0.03346394065478664,-0.05131776672308941,0.2969303065812735,0.4769304410887065,-0.08989404117049893,0.47881221478872893,0.2056233834189909,0.25630493369789265,-0.4020462766999394,0.4658744443836814,-0.01880895185298026,-0.06907502511212626,-0.41232322923058295,-0.40737513085071886,-0.4253819202597454,-0.23639931307732853,0.36588666263036684,-0.4727329192326244,-0.06252897165910343,-0.31840631640520634,-0.34732882838098655,-0.32917380532555496,0.06403292035507202,0.0498690098941984,-0.4529942264832766,-0.4218872528261202,-0.4593983687779122,-0.17469216166657875,-0.3626115670302503,-0.04392967598433588,0.15415262559107556,-0.4822015807176509,-0.08340449100100499,0.43702208136066123,0.06207473020197446,-0.36259791646583994,0.26597324371052244,-0.21224220916019085,0.3311054099104709,-0.39457612150028665,-0.49564130930717487,-0.3044865934361667,0.26489617301854784,0.27284538611930087,0.41545172668777564,-0.37910032015471484,0.280670274799688,0.20763494042091657,0.02620188282786373,0.24722314840992354,-0.08303627712626505,0.031940944194777776,-0.15762776382137145,0.2033603889121675,0.3229408427409376,-0.4454983638924557,-0.22383691212296447,0.3161263888582515,-0.16422818364882003,0.4361645895573218,-0.48121936815722643,0.3777499874781828,0.3754741984982622,-0.3097042396223946,-0.011557287293916184,0.2237446140024689,0.11810676269510456,-0.10173659238365945,0.08789517360070996,0.2178046760027234,-0.34412447473551744,-0.31752479366309555,0.22159943801790719,-0.20869434718970914,-0.4152284708755897,0.2417724717306351,-0.4580393155516157,0.25611791725896227,-0.019749577725567735,0.4229791407062574,-0.45704650731252655,0.41181768726339246,-0.12586425431442036,-0.2511485696666699,-0.11597092850499127,-0.33642758076013873,0.3642751500281476,-0.2550027392609211,-0.1139403731301585,-0.13399739788762088,0.38853196423154673,0.11820989383006215,0.18328685470402545,-0.08247066847586557,0.03459685521406961,-0.2591277810442952,0.04412396381459537,0.3502176534890423,-0.05778488518127853,-0.07726290083906913,-0.3877682246032426,-0.23764844166025542,0.2811529577791372,-0.3053957928287351,-0.10969366152891358,0.4932605991538216,0.2272824325264885,-0.09749672662211417,-0.10387924511175416,-0.400917224221958,-0.47586596362888817,0.3981289026948302,0.3014336507852314,0.04231287784300208,-0.39269342670781654,0.21529050120497112,-0.01626247917184054,0.32176469397522794,0.19229013727609826,0.25116360325924997,-0.14048787722593128,-0.1053979583430295,0.3690945552094007,-0.3261549634831532,-0.45958629814473506,-0.23128535277732934,0.5039614637193676,-0.32231960882133665,0.4019697329795641,0.11247827697950386,-0.06331997756532147,0.4633349266219772,0.4308567799807368,-0.48093893211832317,-0.03687941184346455,-0.2063034083841372,-0.41599636605192275,0.4814334380944249,-0.35855858943821917,0.18622341057100159,0.38127294351720065,0.11334517747722433,0.22523832524773404,0.2413218128310102,0.14219536098704003,-0.035535261172115314,0.48262684386495003,0.09438280074603374,-0.06746035682705137,0.0776389186862393,0.20490583060148515,0.42300000186651954,-0.165287319720327,-0.24686675290598026,-0.41860108420625614,0.023213467198948706,0.025895441258405618,-0.03760267384571711,0.2663643461868527,-0.24786945396168192,0.24865376814557705,0.1734636406582113,0.4263014867840004,0.2712659636258521,0.20157667138410465,-0.0930695777626491,-0.17588071171723454,0.015394901028131123,-0.47094061747721916,-0.09199371512741096,0.3888661506975599,0.18016183095371213,-0.15097235580808266,0.5216466956108224,-0.1271474684788399,0.20917094304824083,0.19579673575255732,0.004847862342437132,0.13681202613828347,-0.27650171209432983,-0.08216472827889339,0.20810723221830163,-0.1436988553857402,-0.07465573975325139,0.15535013656470587,-0.32329188831052363,-0.1342156415802628,-0.44138249733306456,0.3582543808384012,-0.14239980001596808,0.19835500614874488,-0.20433753399808768,-0.5129523113780762,0.4169888053301444,0.12932232304087882,0.3032896443602436,-0.05529455303030123,0.2037205883614537,-0.051773976988123464,0.41237257667711635,0.6507360429441252,0.6734653027284081,-0.041706661404318786,0.7719434037084641,0.5356932808253925,0.2281015446157787,0.5155963909124128,0.160822991978663,0.24905797536448435,0.056602705622019384,0.1949865123302329,0.13283596741491976,-0.5060356545091677,0.43490355062126795,0.0647795462717639,-0.032286060984775274,0.3613338510005345,0.000558862348160304,0.07994915185505626,-0.2166540981979986,0.14083608508613332,-0.2719281978970843,-0.1045583370728465,0.430280452101633,0.10620219237896229,0.2504889206927599,0.23814518093148393,-0.048408588048208745,0.2647241237539037,0.4525842634047469,0.30944409165932085,0.601673898743624,0.12822140466552812,0.4627359231765246,0.2289534451998807,0.35775242905744015,-0.018621879808707966,-0.3003405784965266,0.06324795925569683,-0.5295455213086244,-0.2018123360623103,-0.5143820248370433,0.10284255013403314,-0.474269113295228,0.374790180835287,-0.1161333889455261,0.48085107496539703,0.24713580206091493,0.3102165882476761,-0.14431858622970808,0.45245728453807443,-0.45290013779102695,0.053024578824359694,0.3799132976414346,-0.13081993029894556,0.3868798049717999,0.1390321478944604,0.6358699497487118,0.5297070964951435,0.11338987023185185,0.1092624482139107,0.40940882224580427,-0.12942914215323276,-0.019602565401717034,-0.010299247730599032,0.02463841530986045,0.31185435342790363,0.1606896737797715,0.15699057667326521,0.006957455023075138,0.24983818452580192,0.08065985702621045,-0.4983954393721228,-0.42326985052179456,0.48147420404263824,0.1467722667868254,0.3083220115881741,-0.21266398370810585,0.11095080563677115,-0.12281675321395584,0.23720328560127685,-0.27954068355717365,-0.14850429321846736,0.2731507684008195,-0.24615767190434695,0.33122777196490494,0.14644784021616805,0.029600196023457478,-0.11838729401527215,-0.1271682016671276,0.1766259460413238,0.2832828477644639,-0.1009955704181628,-0.2635403264681898,-0.21022454665246246,0.08319620899428111,0.29731377907894857,0.4087456027837189,-0.07691378239867708,-0.019931979821989528,-0.1848209052933618,0.3054521405630161,-0.32431946808113343,0.1089143329206876,-0.36047343604183923,0.26546350991518974,-0.41533854335034703,-0.046759763122918976,-0.14627341992473986,0.030612887166209475,0.0827091630391399,-0.3210625127587353,-0.2075999941558961,-0.26241486404456804,-0.08223477907526967,0.06003160156735739,-0.08677277157345115,-0.2965623187680012,0.22393528853319428,0.0722228447207057,0.595378177533036,0.20062093869399766,0.5717738111526237,0.43180217651238034,0.2186274180013808,-0.22632214600764775,0.24332542641018773,-0.49360909843031414,-0.25272551659633835,0.1748989319690496,-0.39995687707304084,0.2626500144358694,0.2529511842258523,-0.05387995777723679,-0.28509700104544855,-0.11050160700710322,-0.2248467281851426,-0.37487707670824283,-0.23808040329267185,-0.28341741696674383,-0.1688112506354192,0.048304466611355804,0.10733485608941018,-0.012472494822233865,0.09639207347041874,-0.06626725585563902,0.2593900891640712,-0.037786869824497006,0.2075425970628218,-0.21366278199912742,-0.24802462874762832,0.3336076437058343,0.004323870623509984,0.40819006778835204,-0.1931978294702005,-0.03381051808632374,0.4736457768899516,0.19540642266878572,-0.024275706294353203,-0.055530752803761546,0.09837830584084181,0.08373714623038675,0.34906330222468507,-0.28004142500453083,0.2584444110975405,-0.15205482348926214,-0.4337154814393535,-0.33486468200314873,-0.035758104168476655,-0.08105189030814516,-0.07365262158756423,0.09504958355041083,-0.11194842767208044,-0.03123395659710407,-0.18005270988415736,-0.009970153832885744,-0.2266875405104955,0.025594218123684828,0.338139287166535,0.08150592392176746,0.3143144247293622,-0.15901906034341962,-0.31837204886433385,-0.38882346302019677,-0.11458241825949655,0.12776659727811623,-0.2622777029606999,0.25504364778999616,0.3263868405408531,0.06522738868816878,-0.3481719698669822,-0.24601505098125007,-0.33425362835101385,-0.09579395876554563,-0.5473669727105092,-0.3106973120633647,-0.5442261910282071,0.21514199334118012,0.0819282843753872,-0.23106828729649714,0.21205805452185822,-0.34669640918947525,0.29783413166521405,-0.24326624411717984,-0.06935581231871503,-0.5003664873415954,-0.11392342925477028,-0.31431259188544086,-0.016439891103527646,-0.12575920680336114,0.22119149035919436,-0.49189464858644594,0.39231779866214067,-0.23789087701437572,-0.3941506512500959,-0.134445074687588,0.20944416809708785,0.3148720439728394,0.0012961637308277923,-0.05735965467966357,0.022500154295606374,-0.036181485705694516,-0.3025212045364804,0.06548501814739809,-0.26427134346713865,0.308919181874114,-0.3373822251594166,-0.03398669967861032,-0.3336693327982292,0.04207635925830391,-0.2699149988640405,-0.12492911090936741,-0.37383594088642086,0.2066490079690748,-0.5278569855586044,0.4913885651280321,0.12789982445907927,-0.24613913548779354,-0.05452673634394183,0.12577298396198686,0.46255133735517084,0.18316117683061844,-0.008667120833446966,0.4670308776536766,0.2698260960647403,-0.07671157006688405,-0.05835499575668542,-0.21890688360302413,-0.35115004542642125,-0.3307324198008653,-0.06828197021025773,-0.1683571463955606,-0.11873316206637514,-0.30971464510830365,0.18316274185023115,-0.21832184349207923,-0.07831341309404398,-0.37258012413952235,-0.46429259875075113,0.1340903336599307,-0.4376402932642325,0.10395873562323192,-0.041957120601430274,0.015116747746034404,0.17684937913347978,-0.15974961380781572,0.057561156812061545,0.05652291606566684,-0.4154854110349887,0.0898472276963278,0.1763807220801417,-0.0013074775879194655,0.3786107850338504,-0.3049892038117378,0.1616579528980903,0.3681901993531154,-0.5678078067468815,0.49028774000274,-0.3141843804354456,0.03390635071525045,0.5023250374715068,-0.2539760788347806,-0.28893550077434976,-0.015088619296700792,0.1351021987316102,0.27742057842647055,0.3921279800446978,-0.3629455372335805,0.13317260519011245,-0.4514757522137612,-0.44330254369928745,-0.18021004563845486,-0.35419267623432615,-0.059617060307215836,0.23843732171430634,0.45279363224682123,-0.1502441883271327,-0.4745719317072144,-0.16113901846794104,0.32930940732065894,0.17142543870298793,0.34440119333926156,0.26819726274048566,-0.12298540815687346,-0.29616403579394684,0.08526511430944922,0.2334176238529391,-0.3175956693738105,-0.3227671597263505,-0.06323615141324969,-0.14777645787753066,-0.4429258943425763,0.27152316427987583,-0.0006621038121581687,0.22323351351991896,0.29676906899832056,0.34089492762653023,-0.06401898097368894,0.37397609472831284,-0.30135125996897194,0.22667857863333513,0.37552255636799287,-0.09638916664822528,0.48955381681507304,0.08249284107482324,-0.41844469490400676,0.11128638699063019,0.49413185938343107,0.19447453659951433,0.22684065766182115,0.48202866316334025,0.1383503733009332,0.1668700233710175,-0.42486449257942976,0.3276713876125432,-0.48723429292333575,0.30770028120736276,-0.060835135588521855,-0.22746519219553316,0.005357248765208403,-0.09791165490132207,-0.14314088124896912,-0.44184356581806106,0.09239502452415765,-0.1620364236104724,-0.22311041718204092,0.24820094478416324,0.2987488133037099,0.1858531118403957,0.1621967735879085,-0.1715089962542824,-0.44959681039993293,-0.210806607287923,0.05812941819579074,-0.2272984069881266,0.35987743640663694,0.40437437690878186,0.10871609332348897,0.5496700123511876,-0.07085741902504726,-0.302824040288676,0.23284351666699893,0.32895828596143567,0.27704951225751173,0.02648687837378145,-0.32147958564440215,-0.05642200359071175,-0.021203616134487662,-0.09690486328040149,-0.2817748826805041,0.04790954154018971,0.22821312556070497,-0.019787226931717652,0.284699142429067,-0.008088628062512692,0.275534184179049,-0.1824233651377017,0.4134316490908846,0.08806695408520976,0.03122588915751856,-0.42196361792485426,0.2826225441413871,0.10729281345871731,-0.3884726064361916,-0.31817014666866156,0.5596338564303034,0.3023519205371613,0.35764920933882205,0.4596352036028048,0.12774759283079826,-0.010886899015266398,-0.24629040242293687,-0.009989280105468595,-0.049704473219339664,-0.060960656451588754,0.1652089809241769,-0.017109529435333233,0.34528253989439767,-0.011888921312482915,0.353347500292982,-0.30904933856038247,0.29965410288646854,-0.20754261147890748,-0.07361464146983394,0.20093145288006448,0.47661856100917355,-0.351383855540521,0.39072387532101993,0.11621644870027514,0.13451210760739685,0.3239626088409302,0.2469695625445671,0.005629403979848114,-0.21905657450317065,0.6886065536145816,0.09751501044941246,-0.21210441530375,0.10684587528738303,0.2828969777418973,0.4625689207406215,0.3991406220929831,0.2763984343426219,-0.011893546743890737,-0.07293773105701494,-0.10508569689091093,0.21811060493450415,0.2113499783414722,0.12290274712422751,0.031087371730595073,0.08767761912523594,-0.2116874231450107,0.3312841834378154,0.5012257620571795,-0.3519301662777654,-0.03863748277701876,0.09017455827990695,0.415687480834129,-0.0001682594979808855,-0.24071053540905224,-0.36232446342362934,-0.22556681559957012,0.018563449392764962,-0.015975664705491187,-0.33448143049508017,0.19105627968190375,-0.03210107237122879,0.169862804615651,0.15892649346597337,0.3850718649344328,-0.25538655133324706,0.11540850219651523,0.08710638474265676,-0.08586018168744727,-0.24245671170577024,0.008638184362870375,0.13703944563956452,0.24595813439119316,0.15385352194803356,-0.0918060216318877,-0.3347277168090426,0.10274001272883672,0.0686523587511067,-0.4035103082875793,0.3442215519093277,0.4098962630194458,0.1939396308247312,0.37561421968802944,0.1383277720414474,-0.45426553189272434,-0.1758759489398375,0.21992012502134115,0.4216364162003616,0.20504894820136235,-0.045580808526878125,0.09989006023277773,0.3696727088625916,-0.2963311727387905,0.09684324951382597,0.41675803523030347,-0.09263172215149482,0.5541949630115423,0.10303649160847606,-0.3637251762604902,0.024707689809259005,0.04621830336840224,-0.49338592112452756,0.1719918276655145,-0.001056257012589731,0.11374545678479521,-0.2806822058369077,0.15616945830445383,-0.1366852034364756,-0.4171081964795603,-0.37756135237489896,0.4395430932106026,0.48436340617805373,-0.23975522976418825,-0.3863800451367811,-0.25537853988180387,0.38297192650786177,-0.17921287663216942,0.4057801340919589,-0.05471458061362647,0.2150056054334174,0.6002473277270003,0.5840823178628028,0.08653722142098319,0.06686597330024444,0.2908057563337154,0.2938918574994883,0.1939766314214165,0.12745201165300085,-0.27674072894368273,0.13912107997001472,0.48347833266035956,0.2389957628054288,0.06610092640962056,0.4784089446346815,-0.09057972970840988,0.3007245944609017,-0.009044268656513421,0.4421396460468989,-0.3528632410884496,-0.020128320955073553,0.24055077006518777,-0.16429017404704144,-0.3439870404712229,0.22768310955570964,0.01945995515233894,-0.247288716753908,0.03724575212843505,0.5253816672856197,-0.1698875684684198,0.47011072182967356,0.3936726781646146,0.5410970598422,0.011201759535597456,0.4881831084095448,0.04861788182516182,-0.3588805918033612,0.15277172800730254,0.46505140457774274,-0.21917165099736405,-0.4472507567452392,0.4528209302704357,0.3460003393975879,0.35142413439710496,-0.27749045112899584,-0.4320625577695948,-0.047515470086605394,0.4565797167211395,0.3486365125389461,-0.3676340704125737,0.0012368638877831017,-0.025965605012666905,0.03289477113703832,0.1978323086966859,0.10845832200476793,0.08679689398500677,0.1234342438970463,-0.10663462119473413,-0.24773898910939393,0.2338730611352095,0.010126434756104408,0.13322370407236678,0.4426234177254058,-0.33810264512606775,0.10869515456622943,-0.4596628583859222,0.34773897956559324,-0.3751398165227178,0.3686081174634146,0.3788916598410246,-0.48699485012276333,0.025060574386112422,-0.11623995153530275],"bias":0.07857920000715249},{"weights":[-0.22809922951993877,0.24932854443616503,0.019730554882045448,-0.17705187193006566,0.415422575387542,0.35168002744089344,-0.44169458454279154,0.10425590178703636,-0.1625022943583685,0.192499676100517,-0.08842411930498861,0.09057833957608386,-0.040269921926878394,-0.3823305440742748,-0.17267718964548695,-0.0986744115621686,0.3106073869196947,-0.1211684277667302,-0.31291129937136086,-0.13719745890692847,0.43588422010730177,0.40025754673967207,0.28459352657349424,0.10508989700444415,-0.2175494844705893,0.21184633212504111,-0.1652169248233546,-0.010093141701418396,-0.3732371136122735,-0.20640474956081212,-0.11360828740970452,0.05639038891958181,0.3177330063288277,-0.35190605021271265,0.4735306753129044,0.2906926974672469,-0.027357386606858092,0.019309033908883874,-0.1539459344265895,-0.41152210790493243,-0.21222651314629618,-0.03129085686484358,-0.022827978406266682,0.5030308052279663,-0.3822582550280165,0.16136902875735498,-0.3766490136059226,-0.28309227798310665,-0.3251627207930306,0.016838165448103903,0.3463905266415509,0.13207318426845893,0.43758831288009536,-0.3578710447853909,0.2790429148950294,0.22923495272883831,-0.17699337989867447,-0.06929952409778861,0.05963965462417442,0.16626954163293595,-0.10371352618733154,0.22445242879442695,-0.06109613427327555,-0.06691006838512013,0.22464990202198204,0.46826951939681366,-0.049457996599018506,-0.1047475450130271,0.24920897932414277,-0.3481737248911448,0.35861368515069786,-0.4293480460510951,0.5121788342794175,0.4475484578360794,0.24890413962514377,-0.47662287565396416,0.3494500190415408,-0.41287736950540616,0.3319365532409101,-0.022301759502943445,-0.02586395032604273,0.09178912070528666,0.39935633625851796,-0.10593533940786615,-0.2447612944305917,0.4131543207013645,-0.14831856084447015,-0.4429109553584496,0.37370436637562043,-0.03670273665729221,-0.14974186563416705,-0.3524886217461624,0.02900368684531084,-0.4088889161895959,0.0005322291810892902,0.13100651179614606,-0.03766134425018908,0.6758029081579643,-0.2916675777360092,-0.21430294997428825,0.36924552972260316,0.23552412322252456,-0.29051952782698637,-0.14702228728433434,0.011496591333929398,-0.18418448515589267,0.4354735870444584,-0.05093758278308693,-0.3831204129151626,0.2761619990622073,0.19001580824000772,-0.1400887767934873,0.4813014368618047,0.29838364793242633,-0.22418540819339627,-0.4291943418315711,-0.21416807870275356,0.3442295752115238,0.09062051098773757,-0.14472919961160025,-0.13420646766344063,-0.08866962946642713,0.00447741595459482,0.4106029119177337,-0.2049689290161119,0.36674509391007504,-0.31346605592692856,-0.1789823779490361,0.16712386279614708,-0.5236569095869017,0.05938951989331465,-0.24433618257145495,0.18529083523773754,-0.4898755493856968,0.2056126266631995,0.02082416781451975,0.018840242938399088,-0.3246125153122121,-0.4799115886062377,-0.47108110699080896,-0.32315036676690134,-0.08325177105666665,0.48409716969220284,0.14227196934502376,0.4091212501169328,0.32423289620588097,0.3724506921965447,0.01859303263433828,-0.27488553117139103,0.3908837857004454,-0.25875475540736614,-0.09256813877707752,-0.4058814771215647,0.169666023798622,-0.22136259223107124,0.2455631571102183,-0.4495758302399984,0.17557961435592673,-0.29543036160734754,-0.270259373433483,-0.21361333660623258,0.23005302913784023,0.09642559549627894,-0.17376167300778383,0.19989180251068914,0.037830393148205355,-0.09341803134925493,-0.18361131218776616,-0.33679937258437453,-0.07029568029687816,-0.2570091405989979,0.41751374099751126,-0.3955519477493158,0.049018524510998064,-0.11203125534677445,-0.34491419427999614,0.21956305489563796,-0.08919791473634425,0.31156810756908787,-0.1637880972383363,0.3004021034013681,0.35083070116275333,0.1727601061812489,0.3245756172394067,-0.343701215271445,0.340489509829413,0.23417512011803726,-0.1598153564341939,0.2551218880771616,-0.15932924375736887,0.11181682742165415,0.510888342962683,-0.17799368576751937,0.11838606347798449,0.26876892795635987,0.41522513597579774,0.3242695820771855,-0.18873884012973585,0.4518427541797721,-0.3946930586300757,0.09869285843983806,0.4001481838648743,-0.23147105613740482,0.21098161021042897,0.1793814424065152,-0.28738098260033507,0.05119085641847004,0.08143682355674986,-0.2374742587147956,-0.32348401394622706,-0.01522923345335355,-0.2350325478751725,0.015988536660576393,0.12158538786926538,-0.1194111189843609,-0.1332122593062742,-0.2092802983399107,0.2699057396294254,0.017101212713909197,-0.03706668134153379,-0.07415560522096373,-0.26891634632779415,0.020498843899226998,-0.009318221020065635,0.24496057887487377,0.36654565191653243,0.3494644847082948,0.1773640460671979,-0.17925582856625827,0.11934392030770233,-0.2068710133726886,-0.3636849237004242,-0.3282026210592603,-0.17646777422474139,0.2368720781432082,-0.3710050598656331,0.32911703475894166,0.47443380058166823,0.3415692663771352,0.15144933715252526,0.12428018037109581,0.46849456565209346,-0.5369031079136706,0.21409549446446344,0.23443029003181784,-0.1522418467561842,0.324248026438523,-0.3523289568490103,0.41296382656330055,-0.028063420897764865,-0.07024623398486204,-0.24246392331419037,-0.07454846165939802,-0.3388957705711117,0.14487133109909514,-0.09298709397447996,-0.37315597310058485,0.10138911229669341,-0.40893447950340117,-0.31994381745308104,0.2561742925360446,0.17840341505006932,0.12177062592368962,-0.1708188042555863,0.16118653754541237,-0.4574399400342229,0.34735399738662315,0.43554104695309187,-0.01404778934305137,-0.1642962295122977,0.19600791724631395,0.2852744443798879,-0.37912306875125573,-0.20589120688047435,-0.4426165505977227,0.20794747421273965,0.06539924913289802,0.3524407122857807,0.384482187177997,-0.0015305344070793761,0.3004680957617256,-0.47340536484456897,-0.22780149192993737,-0.40634856593262847,0.25113716366629935,-0.06867369850631966,0.196262892374325,-0.023901631243052574,0.18410026841949825,-0.15898559576508903,-0.37222050945360613,-0.059742046988029276,0.23756439229581172,0.06148583277703335,0.22924166726277684,-0.10680044887939391,0.16992643698022086,-0.3844703895752913,-0.28675920932688087,-0.5082272054210538,-0.39450765516221087,-0.22234019358427995,-0.2305963178129331,0.20608278385558812,-0.4432292123797918,0.25245212757644775,-0.46277743075263333,-0.33861489388593197,0.19169855719289425,-0.34193679080600287,-0.06257495834484589,0.23449787406170022,0.03352281784009646,0.40118279455480005,0.14573842841330506,-0.092055524580783,-0.1814873343436028,0.17242196474903668,-0.004100844524025472,0.5444221208214408,-0.18568562911671438,0.39639455030851434,0.11461760917718282,-0.08140309925815163,0.16445319331047928,0.1456907317699152,0.3704440474617523,0.25817740215336843,-0.4304496369785752,0.2771883937982883,-0.4841104085497943,-0.017963277953895945,0.40503723497022337,0.0986024893573414,0.4165261342442715,-0.17598538743298753,0.41818670579550465,0.03336449608099063,0.4522941039398456,-0.22024344836839985,0.4208790217228239,0.03691176131460398,-0.3612355792406316,0.08446711084319221,0.20681007218961203,-0.3183057838247411,0.04679146528974514,0.021850996949190255,0.09662886586271617,-0.031711322575240904,-0.20806764217787455,-0.14985798136592948,0.3782440403232266,-0.32316287398990573,0.17159409386446942,0.147635669217011,-0.5484207835720531,-0.11035567191585184,0.26306646504860903,0.4175034362696939,-0.4107795654913983,-0.35206987560304526,-0.31019512309767094,0.028838765300804647,-0.2327750013128035,-0.29793991754156696,-0.3175164765502843,-0.2239020029209613,-0.15872436598642917,0.48750667079014964,-0.18332490771161603,0.4697807492859043,0.3598045397372917,0.4454679643238939,0.18605155082398933,0.16272538445682075,-0.06014080052428928,-0.20457648840958093,-0.03385071617926738,-0.02835897608326598,-0.09796445040288282,-0.19240470915465868,-0.041653940981850095,-0.09605616199563442,-0.3197590448920383,-0.16734780899361681,0.42698494570901946,-0.34919333143247516,0.12962243072791332,0.12042496834721352,0.2285511849580354,-0.10088698561180354,0.4092274107187853,0.37390957679682735,0.13661140074769706,0.13372698186983886,-0.0319164961162702,0.21067769551616933,0.30881970637648976,0.13926569297213642,0.17217932323743407,-0.15322646291915876,0.16083329811581465,0.09424515041472627,-0.1488789966669669,-0.513813618939373,-0.6736418879183506,0.3100195937294355,-0.431876820641772,0.2788259050992961,0.25506815841077446,0.27452851230815534,-0.11650936810397106,0.1847958574699825,0.08107345949820341,-0.14709519790381567,0.08926834614498917,0.15767089348651028,-0.4521860742129992,0.30236834566635096,0.4697095400075132,0.152365375288661,-0.2520551278584578,-0.30579423982928833,-0.0023817807827647363,0.1774644966414672,-0.010455180381302687,0.2598492351494583,-0.14579124205826663,-0.22584804395493815,0.04956132793743009,0.12125036866569062,-0.30489246043391477,-0.08595185739202753,-0.12208961025644463,0.1536969736763822,-0.02884524325426454,0.10634359859137424,-0.3162008092616356,0.33724455594295133,0.5013584248459538,0.6860783953837319,0.6176456151774007,-0.022269128962639575,-0.1451243683509185,0.2607515311948467,-0.05430935489935962,-0.27783669242461806,-0.13474629394685855,0.005085060075112805,0.4827312672826252,0.05210805692963163,0.1101548690132605,-0.26959925904641246,0.09446986664821883,-0.3138804729645013,-0.000451911906437462,0.12570777670507677,0.04200074818786645,-0.6246751129419957,-0.04579333149502357,-0.22790021245873787,-0.2277239537538066,0.01233959883786834,-0.43572308036079116,0.2531179705763643,0.33053798829075604,0.3908892336808193,-0.17232175764168284,0.2086514553432141,-0.14864583884514465,0.5830505029554994,-0.2078078105487733,0.0009556686936930754,-0.18062916853465977,-0.20577981803878007,0.005971015015980963,-0.39469164501545184,-0.39897508800363946,0.037974253326058915,-0.2043059069138096,-0.21182359926973032,-0.3842787963969134,0.28013586257741047,-0.16906060372238582,-0.5340922139287193,-0.03739537289158501,-0.09666677913756998,-0.37339012296521995,-0.2704613618794608,-0.4644843528639182,0.33172891880479805,0.27717739361847055,0.2625826252609662,0.23096832355432026,0.4509725424532717,-0.19616520990102115,-0.2870928854909527,0.5282061358986131,-0.07243195825169088,0.3470231763380275,0.20279386030232116,-0.34563478337045916,-0.0985488625918569,0.09865983717147031,-0.07626015896149628,-0.3522328876883664,0.40986239353100246,0.19514219870363275,0.12122395980900734,0.31222084544568907,0.15588263293273782,-0.2998610746425932,-0.33047393061122016,-0.6039560372038764,-0.8400631844171388,-0.3334346027667306,-0.621926555394555,-0.027843094247101727,0.16977717216496432,-0.33062740526917406,0.5993728595128789,-0.22433536321154698,-0.0373365619036448,0.26548214025335076,-0.03574527161239613,0.24472829811956429,0.08261813849177889,0.43583558942307027,-0.2854916856470528,0.02869205115008936,0.41887077511921006,-0.3137525023729115,-0.2072672053414508,-0.13268328872788582,-0.20241179260520561,-0.0134284092062168,-0.18251670248655064,-0.3307201205133446,0.30072404594575797,-0.10888104620201536,0.166999859963616,-0.3068826493510888,-0.2979104987613589,0.21791350027275874,-0.17657258725850716,0.20421183084811131,0.6490191282554173,-0.13601109380563095,0.47922709693378696,-0.1981939040649597,0.4607710850825714,0.22721842404753978,0.30227807347758806,-0.2875499818766543,-0.20595770385272277,-0.25047811658917246,0.1664257015527586,0.1418673755776649,0.3768947976585746,0.32394889903671464,0.3003267384058899,-0.20487108992225234,-0.33282512680583565,0.362428444918551,0.04674808264628186,0.04266852285004841,0.16463460645034464,-0.1422933052873162,-0.25995421719011097,0.07036088945948496,-0.5057282256444856,0.011065330561122735,0.49739394028769535,0.08535898736287756,0.4816607598561354,0.10551696945094599,-0.03261408280948889,0.10020437778390728,0.21076603118515633,-0.41106128435429923,0.04040291267470843,0.27026930819179146,-0.5329478516799305,-0.22527731588832678,-0.10535637059772163,0.32405467977842684,0.4109675476128726,0.31074785880529665,-0.0038604705014864127,0.25226404443446876,-0.20962951497055776,0.49854690978528104,0.29410026758178187,-0.2574936820459083,-0.05151179932902032,-0.4485973964497927,-0.0650859364167937,0.0173825431375228,0.21174486056569844,0.08394303455715944,-0.10823146336693361,0.2826845102732306,0.20987548183785742,-0.02459825223687392,0.07732366903950351,-0.16287778417677262,0.1561375143105564,0.03488232760258278,0.15913136420922874,-0.06665497820058157,-0.15880958806349854,-0.4542623071339889,0.02511798816037853,0.3860067566607322,-0.25080961226639653,-0.08285573493294984,0.1501197706683871,0.01048233088359627,0.4783098684784115,-0.14629485120201746,0.4557566581903627,-0.20024911895428352,0.016433173009612632,0.17564715403709916,-0.40076936531286966,0.2779048959256684,0.06704163629691828,0.19831893062235792,-0.265854277502234,0.2736226466597876,-0.17331113543297152,0.1289548926702751,-0.12439864478798139,-0.13810504891911093,-0.29855462319357623,0.17376524346615113,0.3735358668011674,-0.11767404194782691,0.47973828824033465,-0.4744171482350005,-0.18968923967085746,0.15511949044025777,0.2340675260187678,0.3100576106118976,0.3620266947497897,0.30544917565363355,0.0161160442110818,0.40698985854550646,-0.31405355893058257,0.2807308226134916,-0.32670439252068734,0.15582237913994773,-0.11359794417545437,-0.07221097755868779,0.067497803143749,-0.3549831759500202,0.2940256826834611,-0.2675181164476307,-0.15261600463198374,0.32416928422081803,-0.3517814858848741,0.30042541877810774,0.13497094412741126,-0.2818252647193651,0.4118667649893737,-0.14926553403677226,-0.14040352788585295,-0.4318499449783025,-0.16561673635010132,0.3755566109587502,-0.05942669938853484,-0.1346760716697597,0.12867894860570628,-0.4472519061372946,-0.32669328975425765,-0.10324808341427405,0.16505091121742596,-0.10914033548945452,-0.17624917458748735,-0.02515014052085094,0.7113260287107062,0.053614955234629356,-0.10190534898324492,0.16954239367721965,0.16983221713909458,-0.046127657709034514,0.17946800017315934,-0.2366611682819204,0.04400310152308225,-0.5298865938408215,0.29651114645682364,0.3222493450533563,-0.0159834788426858,-0.12611716941060644,0.21406919531852844,0.13560115928380692,0.28952494413789426,-0.030572332164988225,0.455252670172936,-0.3369304436224838,-0.10617947097498259,0.33769950847865804,0.09749260612649875,-0.3593980558375496,0.31176853828862594,-0.15264872234882815,0.07578000013513084,-0.3028076550258338,-0.3351574027819537,0.15842396786602375,-0.04915058715382741,0.5424532175175487,-0.07413495312563745,0.10114973263123718,0.2807935263979129,-0.12074087008891678,0.4100092105377613,-0.027357774685571806,0.27715944610692483,-0.3937760443403727,-0.2504078502032041,-0.03105445135735212,0.49043042474675397,0.08085030247077754,0.04430814786610135,0.4626295927462475,-0.12114074857927748,-0.1470763202521187,0.2097724089828118,0.25614551377289785,0.0611910428637964,-0.38610782275466465,-0.4034576591964698,0.1546376583287723,0.40299418642215884,-0.44167966389384833,-0.41414772406542333,0.434030775347047,0.35475284659044753,-0.328725063424023,0.0005945737808028794,-0.39587775285844345,0.10583150063850814,-0.43038399341482025,0.08612961668815192,-0.4322986189240411,-0.11999752454599685,-0.3601335843531955,0.06469378878205391,0.42791188028859306,-0.3212301894851401,-0.19016024481152968,-0.326133133641735,0.3803721882814991,0.20546577398603927,0.009085346455772414,-0.49432728251985614,-0.34269134497704146,0.19122725730491352,-0.11879000860809719,-0.2998953478196159,0.131355989318815,0.1975200775644194,-0.3154010585803124,0.03341989089606139,-0.19539754328180903,0.1996711030236862,-0.007610289047966203,0.004082775102947058,-0.24493474007866797,-0.13758931624912432,-0.443145266733167,-0.31804371694074796,0.18901416031102686,0.3113820952093738,0.04902903038394801,0.09133035208372506,-0.2650768682646284,-0.2464914068184496,0.4547248135187534,0.09608648807692577,-0.24653190888173937,0.2608501153031827],"bias":0.49396379140970187},{"weights":[-0.4603426230130093,0.4099238946455317,0.10113056561921696,0.059927790489026744,0.041580811029955256,0.16073861920098298,0.48138035440617155,0.46642411436210884,0.3358190397483525,-0.45522661763335415,0.4370595749624082,0.16401018925740807,-0.3497362700805422,0.17683183878398578,-0.49747815905260995,-0.14709309206721632,-0.31982896599398625,-0.465522836976036,0.12159951346517806,-0.3203083944488927,-0.21986819578870953,0.164986668178848,-0.20480309701890265,-0.3802196049191411,0.48525587343176046,-0.37460060131761497,0.34356313981860276,-0.37132572448285883,0.2742698270623274,0.0743961973784949,0.3680769467052042,0.2686308835547211,-0.38704830004943025,-0.3465196212310842,0.18310568517948195,0.2453889204927578,0.38764827343422786,0.22134350218731877,-0.3093510807937377,-0.10250107491848205,0.2758451548173748,-0.020771830506111918,0.25915744478145547,0.21881999137558372,-0.10842575750572175,-0.03892485194543718,0.31969129267291657,0.21268816773351934,-0.17935095294611295,0.20218192705549154,0.37090461774979255,-0.2703781619337441,0.42401606351930987,-0.23138528225036936,0.32409960271342564,-0.35362596349198705,0.3335684107859066,0.284090021161833,-0.1267439429353192,-0.4849699806573021,0.39267815506145465,0.18625911012269325,-0.2976391165028423,0.4904591409322911,0.07548013746256071,0.4424467963804629,-0.009676631810584875,0.04318916097847647,-0.12504384727517168,0.20193769309497023,-0.37073190491854063,0.23813124580740438,0.31123288917648145,-0.08191329965303251,-0.0541411341139041,-0.4609296834977388,0.27809914579393863,0.10734457164131778,-0.3307862621393751,-0.14318974632574308,0.049036237373702676,-0.21366528530433337,-0.10670311715892489,-0.0756303628380689,-0.09148865513634619,0.01926989473924723,0.1455141212231411,0.07877652619011377,-0.1605979897637469,-0.3826784430409519,-0.2623275394616799,0.015354855280876522,0.01457145458537131,-0.1260952335461429,-0.19305138821827308,-0.4650646164832244,-0.26767288190200045,0.0862658153532071,0.3391575077313645,-0.24216553207214384,0.5356864315397389,0.38070591893597,0.1735060971765525,0.08559080885198665,0.47636385249235985,-0.36844405754371,-0.2344407516661069,0.2649061978816222,-0.3553460516113032,0.16362371847760548,0.11780926752541769,-0.4373319111428877,-0.13818657357087594,0.33339102087872874,-0.017687806174635834,-0.37229322800163683,-0.03470701943845797,0.08263654539084049,-0.44320393037586553,0.04904191521663987,0.52211045113046,-0.09306802260093598,0.32758369529164194,0.030166892715540065,0.06383783866082994,-0.05861178628556299,0.18029904442978623,0.23444663085648604,0.1746206320443287,0.18870546097254418,0.6960197773781934,-0.261987790097383,0.5793746770397079,-0.38973823804638946,0.42933022697093864,0.15231932094737802,0.27529530381202405,-0.2883377990221387,0.22595217346277252,-0.15123013653400585,-0.41012111825218056,-0.11203849354669505,0.30438355520109317,-0.352234936332828,0.3518628541491618,-0.21880749408076172,-0.189823930693689,-0.37258280729466225,0.17099066909216493,0.058984177661806005,0.49775936101372875,-0.05869678876407747,0.144110686195641,-0.0045591792169269035,-0.4161198112589232,-0.21240288138332208,0.09380460834408748,0.021202336757205682,-0.07654336209755647,-0.5435371080266803,0.048688855031324606,0.26944166027529814,0.3182018263605164,-0.35441178318893585,0.12774132903739935,-0.1957147750355939,-0.08094396526874718,0.13811342445487984,0.3293331823567185,-0.19483492375876532,-0.36314869378491554,-0.4826861183127313,0.21212939015867024,-0.18185629714553772,-0.08342962432076252,0.46685717457090575,0.37632132965019816,0.35389679304016275,-0.07132784244978614,-0.18408249967910875,0.06662853908200403,-0.08026068259717414,0.007258636271874175,-0.16581668871421676,-0.006072020688398229,-0.3240075719615183,0.23973069941321387,-0.13631030785929013,-0.13949269880187115,-0.6360829590260012,-0.38400456977929726,0.24103349663405566,-0.4135027410055825,0.03956210747813896,0.45445402951131536,0.019431700876861722,-0.3275401353701186,-0.09582963053647299,0.341824686783054,-0.07947583053926299,0.4466579954207712,0.11969885430000582,-0.3391256586062391,-0.15959714697718613,0.372598632415895,-0.15256824762130938,-0.022366500424071224,-0.10939024730812429,-0.020198995320145,0.021261450017322405,-0.23049061434582518,0.361666914524152,0.10746998915178592,-0.022209135895306684,0.12165648848053563,-0.4349384099703615,0.05096011374974966,0.04960691468151499,-0.2587949179443439,-0.1630617058662426,-0.34841559832640473,0.15063297837965844,-0.013918696320450265,0.3418336258614477,-0.13768807377979475,-0.3734674172096647,0.03704538109795077,0.30412654288052177,0.1719527398183684,0.3367121950652521,0.1556455074976243,-0.4164748538725726,-0.4253205750528861,-0.22126923363719686,0.2675499537119096,0.17959200236289163,0.041222436959979555,-0.1617250978979762,0.3870250020382167,-0.06634189629514615,-0.12643017266934686,0.2112465204269704,-0.47159038210027254,-0.44739126097004295,-0.17763220648565897,-0.017733390949611808,-0.5319241258098223,0.0015545255522204202,-0.6501703968885142,0.12875763955616532,-0.20103293891657353,0.3061868270349314,0.4856890833404256,-0.054531925920641176,-0.3299587767055342,0.12558917211239223,-0.16936812073556431,-0.010245791513827329,0.07298466377542001,0.17881939551125206,0.15008005554729795,-0.18045253807191808,-0.513911774324721,0.20999545754083992,0.24360109329395682,-0.2587058080263151,0.4494076685164995,-0.07618402612700079,-0.34511180104536426,-0.26318170415954373,-0.01588662232362414,0.009370853870645872,-0.26978638272506383,0.014975641659835922,0.09127586202530677,-0.06519830049873365,-0.39547095866188336,0.111515098720623,0.03286995365579984,-0.021907226837693063,-0.48387779758049126,-0.3206282614781579,-0.15624046364543712,-0.3219662932268775,-0.08899171006728822,-0.053201538545873506,-0.3719908883954186,0.22633691848041107,-0.2485690939118257,0.09140379952991469,0.10176600725095393,-0.5640095517333908,0.18431462346213404,-0.4632515844907091,-0.14123245321152003,-0.44719732085713465,0.05703320562810551,-0.026626230387396695,-0.22504459148498226,0.022860009097766053,0.05809030459323644,0.0036410523600897346,-0.47162885934136006,-0.574337095100539,-0.3503241820401849,0.29886699936107064,-0.059219949237268234,-0.3177120867767796,0.32648310488702215,-0.3854394100815653,-0.2968514633222115,-0.30028635580098717,-0.22636272653814152,-0.2527923302604139,0.26574353103402215,-0.19043102080308916,-0.22256952977497502,-0.11388111619203962,-0.15293601486111655,-0.19145532188383296,-0.2482868750917085,-0.4388509568646573,-0.04996688506086329,0.06788755817429802,0.05258889985737309,0.428755320692866,0.013844722543896364,0.05343725657856351,0.3722585902668422,-0.12974578829247987,-0.07244305119002473,0.040573439546873744,-0.2701084567131849,0.3549666863997477,-0.4687492568374438,0.24133894451910648,-0.3542425037121373,-0.15949789406055717,0.19810364316458462,0.3863391669905683,0.3883025791764995,0.16649472103801666,0.044942551729453495,-0.13738430165737217,0.06631359327745746,0.01575922596956353,-0.011199552754761729,-0.20592209682024648,-0.05568207303943164,-0.04141186724422874,-0.579176258307092,0.37999761904835977,0.15724722963398757,0.3249785844659048,-0.20623706348358326,0.12920410002790392,-0.1664009204580906,-0.052632012515361454,-0.4982205255196515,-0.3587375561000153,0.21581559222970917,-0.16549664353700452,0.3362177708750529,-0.44760533935680713,-0.10877053188113572,0.11628276138098413,0.37119110447142234,0.15498234030329966,-0.15153406643652326,0.4486490092695869,-0.10555046662766215,0.28957397721797795,0.24001311436641912,-0.3569068810683572,0.396608550005172,0.02031878855102466,0.16938228758756416,0.26990143261828387,-0.40945870349749436,0.3558797763763632,-0.008389421422509844,0.3081530869813573,0.034164942387667034,0.10063545330056216,-0.043758176997471185,-0.16861007528810554,-0.3260669715875094,-0.3984332077833623,0.14941948913788758,-0.09156486512487827,0.11711770767356014,0.2928275828444957,-0.42873648544602516,0.09159714892136228,0.2090138090050334,0.4297801750366495,-0.17422829434648288,-0.34754872423389377,0.14988557684199275,0.18639100777995454,-0.016324568886457943,-0.13070131881443195,-0.08626468872566867,0.4131111709331459,-0.28544821980315194,-0.13460740270982344,0.38284152034228,0.493353146520711,0.37442867950340014,0.5493034599889913,0.45340555266317617,0.1229339452167115,0.6181972214827038,0.30634745489831633,0.352758762782253,0.2524371016221392,0.03631800225425843,-0.2958984868135769,0.4331631235256847,0.05528665403540267,-0.03751858739225533,0.2464250360676724,0.008717512839276997,0.2389981123201316,0.480544308241098,0.2657669211992359,0.32235162139651746,0.44638633319781834,0.3903731504356876,0.1021516715217365,0.21915887799987327,0.1696546124315046,0.21847283916554677,0.04624209598131735,-0.21990155070318343,-0.246208225080895,0.21091636303833322,0.02373392518629156,0.11170091810253217,-0.0766433904744774,0.03908726966037373,-0.36578539554751577,0.00040510705630809494,-0.25557840802193965,0.21380172569016015,0.28367490485792635,-0.07982291089338675,0.3591507670396884,-0.0866949460284051,0.059050517950327334,-0.44269991548202614,0.25143701986446726,0.2801415496416227,-0.3190607414878568,0.5335269910507872,-0.07388410386925845,0.3781345964345001,0.3249087152531929,-0.0018363998257311328,0.05266860710343478,0.25452587159585777,-0.07281106124830018,0.6437681289462139,0.3560736877705598,0.36683647077969717,0.12439924075824356,0.171210478878817,-0.0315090441531656,-0.17042618393069345,-0.12508305732957054,0.07718004779506969,0.30578410746967605,0.17453954559649784,-0.4448734744987698,0.26497466628949473,-0.017257388297508412,0.15801062567166202,0.07545109587061705,-0.4062327989233355,-0.3851968064616169,0.2625339558103528,-0.20666936951071738,0.2584419075092552,0.04610510599424265,-0.3131827746383113,0.6357467588409484,-0.10703942057855056,0.11972039843697321,0.36483788839405634,0.5294929590989205,0.609463796307498,0.05488230344150513,0.8115023230908237,0.2488867345100663,-0.3018694024960778,-0.3426052102275889,0.08988632441209889,0.0598932515729457,-0.13294827349069593,-0.07766939789106474,0.5325072110304181,-0.12053903075217334,-0.0019584202410421313,0.004358692592475975,0.319437974287891,-0.3902916791179027,-0.22467638750838062,0.3414201658011079,0.310632507905866,0.049084431196443463,-0.4528763227210681,0.3790032822187046,-0.4508190832751474,-0.025794049327795006,-0.15112735196529745,0.2851428948635947,-0.24963119164528724,-0.17792722203781494,0.5680279940707822,-0.0036825629496259346,-0.26588907506074916,-0.4330288642257267,-0.2858643327148771,0.13920514701494693,-0.011832746038685994,-0.29995708362167733,-0.06888565710192875,0.30717246171192725,0.3479916686783507,0.5144961183948333,-0.10522804636775676,0.26170582246945345,0.33608499979931883,0.24630899076690574,-0.4183971487370775,-0.473894255875332,-0.4282461772455009,-0.17109710033983486,-0.14163504862868243,-0.011727822376932309,-0.29752001198604316,0.23553960228217166,-0.16202766306190072,-0.3095418228720363,-0.24544066960010294,-0.035671819746260394,0.16867173412300587,-0.24443248844478493,0.2537769153474085,0.3000380718370342,0.3813940810414217,-0.059196993785698336,-0.07762285632833758,0.5800455958476006,-0.22522807094745972,-0.3782959212044466,0.3161889737822284,0.4948606424275018,-0.3130764409210721,0.40264843450492177,0.1112635066440607,0.14857533249482155,-0.4236883009873098,0.07208487790849087,-0.17168838929541147,-0.010855596798606973,-0.12268163034792332,0.19925727144169433,-0.4814693721010906,-0.05954624221052444,-0.17694939862892176,-0.16578429046391377,0.27429522686163077,-0.24774153988735886,0.15608123001408583,0.3270560298074643,-0.02510569740026322,0.08712103711428501,0.3697376415390486,-0.3795286629645244,-0.407195375990409,0.5048344411412399,0.40658696037703707,0.4893079856609012,-0.36331264295341587,-0.005787063853763464,0.08875167717508496,0.19646118910299615,0.3550529612493487,0.04653613833305492,0.014656622207188654,0.09022007846823399,0.20614251123839872,0.3432739525525762,0.01906791021301056,0.10121700260459751,-0.3003022773345109,-0.17156119509376586,0.42406704570425097,-0.2687311598369806,-0.19701311022414617,-0.04291630714690905,-0.1783003003911649,-0.06484331513726228,-0.14210688871892355,0.031585928543341364,-0.18989450795652804,0.4645011051151467,-0.01513468439989478,-0.38087020767032315,-0.28642443244159954,0.08922996798609009,-0.25675241629331735,-0.30868525477939696,-0.29232416187816135,-0.25302061328194714,-0.20022971449841354,-0.1939695633282934,0.15497114879802884,0.2085169285214096,0.4030695443658971,0.37815316650763164,-0.34966171708248683,-0.27209752393023745,-0.14804367703436092,-0.5655766009915792,-0.47406549741141873,0.3707591842592481,-0.29685835534039695,-0.3813697769082904,-0.059382711744455106,-0.5697699724057553,-0.08255194111470358,0.045199898417108725,-0.21255865153438594,-0.1371605332611169,-0.13747892638728004,-0.1585161207412571,0.4334559369894726,0.19632844759549295,0.463794057713044,-0.17667363627474755,0.42595820856527394,-0.26713595986877037,-0.12266144163596437,-0.2031908717487627,-0.33789914477823707,-0.3270188911880384,0.10594239687580534,0.13271202666822615,0.014823541625512512,-0.21658751729664585,-0.015252204309199503,-0.22202612350654563,-0.3266503574231932,-0.22039119284336167,-0.5103553688363254,-0.44833695546288255,-0.731778850619012,-0.06996384378545598,-0.3771776636920102,-0.4801923520921657,-0.4019000264625566,-0.20667080769976534,0.06864376092447441,0.28091483509349185,0.2943354217992687,-0.18766794860944336,-0.30782336255219633,0.346042678026425,0.18081448051254959,0.48002991324130695,0.4529755939994152,0.3204156351254476,0.1577078577755341,-0.31977116837906694,0.4492749205760859,0.48417843353310525,0.13813251044740008,-0.02545681464422118,0.14233333219183425,0.002730465700673123,0.19085673841565773,0.25935292768673224,-0.1409384978388061,0.06251477652728116,-0.24458065731871995,0.04292949449655157,0.17558466111525772,0.10048158576399822,0.21102475989802408,-0.0805462518585852,0.4099997793560552,0.519722537148679,0.09636790320334408,-0.24913359305768887,0.13638429679259528,0.44382372062313497,0.22321738455428597,-0.2971637919754547,0.10871033101849725,0.47128063026523836,-0.4896243012478635,0.06838002839553246,-0.3610640110669936,0.22730762306706667,0.41488480717581755,-0.1966743696937518,0.3412385104526511,-0.0612837770773396,-0.22192609642677377,0.3847351028917652,0.03193775922426418,0.6144152607924307,-0.12125704384284895,-0.18985741135885276,0.11020711006948833,-0.17132297393999557,-0.06993231075811562,0.35791921369050195,0.07122230179420277,0.19546749524945475,-0.31032711851626366,0.24683022160105614,0.37943120875923864,0.2821049386132383,-0.22578674690352318,-0.3289018779207794,-0.05370001415777037,-0.18492396310835535,0.2524555974061379,-0.4150265634538186,-0.12663653163361813,-0.3012114831136634,-0.3431383270217794,-0.09205730096641848,0.20200817179663186,0.24562123444356948,-0.06139544873033631,0.10502000723028934,0.20034015337355632,0.12283368049151941,0.005499459861010175,0.2632767223172208,-0.11147707224315384,0.5100657387465258,0.41795210732339577,0.05267679366804469,-0.20450618298796594,0.49840324903303235,-0.14445626680369983,0.03540347702575733,0.42118150116077324,-0.13031635573762745,0.3697692829056525,0.32837590425110086,0.2585146569006773,0.16477889850339422,0.28082354947863886,0.21122583516103366,0.10169876573247216,-0.39504238084056376,-0.039575856203563096,-0.47244195886300616,0.2456951917980528,0.05729861364886127,0.029117436455290975,0.08048316785188325,0.4266916074558875,-0.43767917993598954,-0.4706496888150032,0.08232507849839865,0.4553199305223009,-0.21942191439304334,0.003750794955056747,0.27639575968498725,-0.4198659517235571,-0.1918354613271088,-0.022586716329028644,0.251349089809377,-0.11669633786138756,0.13569524537161926,-0.21374773301202954,0.43632606486567793],"bias":-0.08303656861019851},{"weights":[-0.044593697000191446,-0.4678450988590771,0.043115037970901327,0.31435161707751935,-0.12344880010224146,-0.4250483094346831,-0.3887743113290971,-0.06586868242770139,0.2588063028970943,-0.10943145302735002,-0.25307887781590266,-0.08841614611041981,0.16975342706561014,0.3579184741641577,-0.29933857275522424,-0.38503600146026284,0.3381475922073004,0.01545606996864557,-0.23143227018586277,0.15789513070644912,0.28986823427053166,-0.009369882038916644,0.19198381913402662,0.45969569473590366,-0.21915148168834686,-0.10886072847600858,-0.2677597016302452,0.3067676734988922,0.3856836427442316,-0.17267754656588308,-0.10208625454171538,0.32961970282739406,0.34754374312247993,-0.026499972922982295,-0.18361568172472317,-0.056046156228592374,-0.5106316545373811,-0.3171001358619786,-0.11929283700594334,-0.01155658446158731,-0.38808683869790084,0.002671832123049109,0.13278507680637383,0.3619051199618835,0.4603012584146565,0.036197856414171704,0.24907496827142597,-0.32711486090216957,0.1102168943653078,-0.2431167232604351,0.28152806961838284,-0.08063211410348525,-0.2494385611293375,0.04573557369764336,-0.010499600899355754,-0.39373262525424624,-0.10622326055994924,-0.3718440927883735,0.2827049598344661,-0.06778323177755563,0.04520540549496266,0.15452988987673152,0.057411146976647585,0.10864384653947166,0.03256179121359551,-0.2547444894896726,-0.4612298477489156,0.4972690942134976,0.03278166715257638,0.08659553516571644,-0.33439004150572754,0.2140998790390401,0.3457902457960262,0.290420058073617,-0.3151933377512806,0.3733610066201089,-0.3651425559685103,0.07200290618894302,-0.4359027929730078,-0.40469188423690294,-0.02998067560437237,-0.49781725556495093,0.07923449518379444,-0.24013426121640746,-0.4586313830376989,-0.40599682491072386,-0.3005329837081958,-0.18905429651731898,0.12792418125898294,0.44067102704304967,0.13093298984133833,0.23700293908833034,0.056170580307025444,-0.45898000663527644,0.39641032889062017,-0.4295513497588047,0.4648150818294257,0.4807114613504281,-0.423417722157889,0.42363413599940014,-0.23435843682302054,-0.1488115553791321,-0.35950628882193236,-0.32420280577426286,-0.3635432369644415,0.2886689489025033,-0.09910732580719624,0.06493474535198498,0.4838006358934029,0.2047261528505066,-0.28182178443102107,-0.4919832261611726,-0.1740633313048211,0.3955508045935605,-0.11356732419569726,-0.34980348516934157,0.014084897661956803,0.05449086921916579,-0.09657805514979953,-0.35853846324170746,0.036946139108665746,0.37453338143155723,-0.09919841653871288,-0.1470598698836263,-0.39303475676966665,-0.11556602279599806,-0.14031844305649763,-0.4167393319206707,0.2354164346993842,0.1811924983643458,-0.38382447812869325,-0.29962456460847847,-0.3289694559381931,0.08513601332994569,0.03676993084036075,0.004255524740290407,-0.3816211759873375,-0.2410614392337392,-0.46906011213937016,-0.26685247309508187,-0.14599136315618066,-0.34592898069418593,0.23437377592349262,-0.42454038849070225,0.2827039898158996,0.47514559206618495,0.10582744471387864,0.3537382240060225,0.5667897077687719,0.49031811094070293,0.4163303249797328,-0.09360236740619367,0.7098300863047811,0.0014084695299676718,-0.01335578034910026,-0.12713996727621404,-0.23885366721142673,0.2319501632169269,0.28708202282988643,0.1416814784507123,-0.39521271981088263,0.43959280285856445,0.23587441541091236,0.14512534449095607,-0.2783369168170386,-0.37428208238864713,-0.1722985310367543,0.2982166350558485,-0.46964596515304924,0.34132556391106494,-0.2940749539640028,0.22430644568259114,-0.21501626826542924,0.1957329337407888,0.1568880027459895,-0.18606050841879837,-0.14688289165081872,0.19894425301182367,0.14669898389030955,-0.1744130292865755,0.11229351789417097,0.19416406020688312,0.23904200540201143,0.10785316061538204,0.3050391452560306,-0.17986705634623829,0.1372472827486789,-0.14803978561592782,0.010070144269332282,-0.1374419737897486,-0.30990907485680597,-0.015455545580243504,0.4082291329254528,-0.009681578689500397,0.06526576346857293,0.001800575244622003,0.28751120610348535,0.43664077830192227,-0.29880447392663073,-0.33057170036044964,0.3332121607282155,0.19235861641929125,0.19035135911484385,-0.48943038386939747,0.17029269484650894,0.2839535578187553,-0.269512362333917,0.04504308783483757,-0.4106619947466273,-0.18792625595522028,0.1690373414044463,0.5082965013640471,-0.2997558182896608,0.14171972065683416,0.44125998094586677,0.04848278988859316,0.3347161097845362,-0.0966599500481021,0.4265557310942791,0.5853165689249554,0.34621559411130254,0.24288046550787692,-0.08275450913006205,0.41442706545802105,-0.4323407289451122,0.370966114509254,0.43594348350499185,0.00953445582699538,-0.43213781743648516,0.07735040763930835,0.13381054933140427,-0.6090964222062886,-0.3354563302965154,-0.2776095314032988,-0.044777094001944,-0.028106871747711072,0.05877859316382595,0.09121439757222605,-0.20249578788461736,-0.18549037516555467,0.035052891946899985,-0.12228266674099246,-0.13756446115956475,-0.23443908460670712,0.23220541886361742,0.09545890404269236,-0.14412756391063694,-0.21316126011472503,-0.06205579146937754,-0.1997917338360634,-0.21567639785014892,-0.4152987956838986,-0.32679967780526087,-0.46817089729907807,-0.2994162420792183,-0.013440391095300597,0.031061368104245743,-0.49138357385795634,-0.6928783304489919,0.2135183002370865,0.057419196402176326,-0.2762471136820039,-0.1448971589875838,-0.060805567879577395,-0.37993074776902697,-0.41406245149997317,-0.21119872142267143,-0.6667599845470291,-0.1698708497891367,0.28706895774901303,-0.12322060853366744,-0.11729488105877428,0.19509909387273625,-0.3402096098431432,-0.13089220789433478,0.44745294336655533,0.3364517110115799,0.35155549115585,0.42500080915305816,-0.177748253428292,-0.12033671866956577,0.3522451538161669,-0.015570548933708227,0.012865725638848306,-0.1803031196510892,-0.04788760681606687,-0.40871236200537947,0.15304063546111296,0.081086392334319,-0.21973298717287634,0.09185666475729952,0.3818934323249088,0.21525368737789116,-0.20940396357120036,-0.46302387440528986,-0.04138878538024471,-0.3820507891750552,-0.4093915935083123,0.17941727571879437,-0.0703459570293615,-0.5637307586784803,0.3034420553342683,0.09187094914099156,0.4398851795072183,0.4205418387358389,-0.3582337033816311,0.281846780945413,-0.2755007265549609,-0.15301667610207764,0.4339565148164719,0.11318799913566592,0.15616327148122872,-0.0210824998361968,-0.12750487658193185,-0.34882873420749344,-0.3317799374421818,0.4365692713475135,-0.02251833189384031,0.4236397795956442,-0.398288470396159,0.3206101764044097,-0.4386835367181197,-0.5117770987199038,0.36657161568722696,-0.285872356874943,0.003325741175673214,0.2866203071626466,-0.2326825562831077,0.3624799114720882,-0.11956953814189326,0.099542109737621,0.07406110290591333,-0.03604145220773988,0.2441608075935102,0.42714292581156565,0.08147673301457319,-0.006244923333750818,0.23998135931049996,0.38633989130761814,-0.38256019782928763,0.35561601055284414,-0.33159069415420694,-0.16832670697645594,0.2433564495448659,-0.06152302860979097,-0.08356481333339386,-0.10545253829283498,0.44780108840153826,0.2861835765447256,0.5327463228911354,-0.21906698764881463,-0.13203998040381046,0.33585449813064805,0.3146160807583117,0.04547495865349843,0.004039972088446589,-0.18298844479494672,-0.3512900025794593,0.2543564659812503,0.51729501522726,-0.07932744912935923,0.01376446026762586,0.47682662143029664,-0.24056109001235138,-0.007541555266181832,0.4214606563430935,0.0208498387260751,0.4339606353846158,0.0117584457235313,0.227666689288509,0.3463063841680655,0.32225528918785695,0.17483162510847597,-0.1963268028195274,0.06632202027953214,0.8087149635412378,0.7169781598973353,0.178290065656537,0.2594721044354169,-0.05359758355321152,0.23864634605663163,0.23675245181089458,0.22993610076242738,0.3536432731589537,0.21814523802080915,-0.33440865789138663,-0.29449979404492177,-0.3897381011650191,0.32964530115991975,-0.27065533614897896,-0.32340460099323576,0.39146769702979567,-0.023057870654257573,0.025476055560722632,0.11987050714118086,0.2390149302386603,0.05059150942718846,-0.0970128720731467,-0.48442463377025036,-0.11610718992926684,0.21914544236657252,0.42803560253278566,0.3630152068978833,1.1570877533004331,0.1848212059488069,0.4915642048279066,-0.2394090916358943,0.30813063822750497,-0.2184702842618971,0.02904239407535362,-0.11584457040112264,-0.33206908882043806,-0.10691838289198621,0.24050240624349692,-0.3027342164963882,0.382571583832603,0.1222843883656896,-0.2868338722090651,-0.040338185454205956,0.2713530140277396,0.005332860690897445,0.17363322598446773,-0.10535350513865896,0.0589877441068421,0.03702832734248594,0.29728470641910765,0.2055898549032956,-0.29784847443464874,0.3216498136662893,0.030776557003194073,0.41736955053368335,0.1737245108464998,0.12766201794577375,-0.2023787741170061,0.36016006942119144,0.40261084925433754,-0.16357567418084862,0.3196573734978161,-0.12243415524076931,0.033348328361650977,0.21397233243531483,-0.04403394511134685,0.36338637834498017,-0.07542109863314728,0.07263674179788092,0.1414798493479173,-0.5118558404836986,-0.14142006663011833,0.0882865363803933,-0.40771950785589184,0.17830791100144508,0.18512892809058354,0.18226107481161574,0.5721206098904987,0.24866293400734782,0.5771119511841333,0.26408579645628133,0.3882481392306163,0.7774774524287242,0.5185241342930078,0.25318057234605695,-0.22069114075314603,0.08313003666645948,0.2439268953481132,0.03366497135938445,-0.03794849069284976,-0.32960980784460986,-0.04639376506030849,-0.21401512095484795,-0.30842057825363695,-0.28066541158260017,0.48971594627998527,-0.14428067185006507,-0.19371669349393594,0.08698415762852005,0.19867459234270848,0.14912699658341477,-0.0772508086164887,0.22823509740073378,-0.43429503134889913,-0.3159488119816268,-0.010413262441637754,0.17379000186076884,-0.12769208788945052,0.027118459922708144,0.13746142239209844,0.07124653695117321,-0.12773079267978463,0.012473139079584902,-0.012500995434491628,-0.012012949693163305,-0.17963967254266602,-0.2140390901498191,-0.13115519543695559,0.013251789572549478,-0.20643365310930942,-0.17727001705794887,0.4505617598138177,0.3221492252405771,-0.29737546261655784,-0.11282943516125551,-0.11317078746309507,0.46420824380982156,0.3071662954412046,-0.40148836711984615,0.06123694617156775,-0.42091423457411914,0.13144166437799512,0.5114437694624917,-0.22022204087035546,0.11978359279873282,0.3576757344980064,0.4015177018414646,-0.077318068993114,0.03518643302927136,0.1206820892802344,0.07109997838266678,-0.7144164068762383,-0.21769918302653682,-0.33684703059657223,0.30329731068976656,0.20379051378084176,0.14129007126526838,0.4726988294389153,0.48567463260335697,-0.2321512134320178,0.0815221182640312,-0.09822219744342184,-0.30072515355272095,0.12973078045900613,0.20501005718406673,0.13532465489997975,-0.006808996998168615,0.14165350660808088,-0.34640939117995967,0.11825910576233123,0.13192027858657762,0.22972369049433694,0.34306114321010517,0.19354957362844988,0.3835120217540702,0.0697575607106875,0.045626260994926296,0.1792047476619828,0.24134899743586888,-0.48019896764569114,-0.28404506194920925,0.1100869319760318,0.4006873191256662,0.10286636156269252,0.11423215129647309,0.21796140036977754,0.5288198625325667,0.2678434570512116,0.5067543459448469,0.5664468601090591,0.5730201214318039,-0.41098930546244644,-0.06783762247576935,0.19385935618722325,0.3987143169369083,0.4019692425845648,0.150551457751939,-0.09006707606974951,-0.08136814078374131,0.17418313320672282,0.011425564393267243,0.17464423140641253,-0.06386055852927915,0.3635982416876077,-0.32764841568222164,-0.0643405444418622,-0.15395320746621535,0.1632030868190694,0.14054865500718586,-0.16282829647220418,-0.25795462599817454,0.2841543532246655,0.23795276494399345,0.5448635273708946,0.48705123610782425,-0.32486341858531087,0.2515392462896339,0.48325448668611226,-0.31497121329448896,0.2635171691618774,-0.4913973360177939,-0.16462297047177532,-0.05903332120967186,0.04929790159926828,-0.028527809217675358,-0.3746886735871939,0.25538169423562374,0.23448648647783918,0.31788577898816767,0.38063739817005765,0.35577246344717545,-0.24843140690782675,-0.1592080823234116,0.1105302177339923,-0.2549894820419795,-0.0781162719336639,-0.36102960521707156,-0.07134513065608811,-0.153964335586235,0.2578359152604293,-0.2137629876902228,0.3931996329217426,0.005808799605917688,-0.26346756317973447,0.13269744480662,0.46204982059042987,-0.16504934137740415,-0.37634566347087406,-0.3107907429382157,0.24214105749550974,-0.09381250384729267,-0.42800996939460856,-0.402829858228015,0.4407954039724244,-0.03986501831343246,0.22227063612856623,-0.21883472491080977,0.5083841570129438,0.04760226327817272,0.30099543262243295,-0.0392408104376074,0.2392829601560483,0.11368629150163745,0.18119837457449744,0.3788617201954739,0.32810383440434016,-0.13457612809396222,0.0019359100488376608,0.22918090913214648,0.20816047127141443,-0.24172576592587897,-0.17787810820451588,-0.20067345423455735,0.45541321570011195,0.3906481703896862,0.007457269848534401,-0.25356847598913834,-0.369871950520297,0.06723358376175348,-0.3729750154468569,-0.11095455494623258,-0.1691350002427163,0.43284969894392844,-0.3729639032583443,-0.2913383940790013,0.03416361884806635,0.47441714988850353,-0.21709482980094297,0.2663739914056594,0.1191069721249137,-0.07754469646507232,0.2039658311270853,0.014215402440259518,-0.2344600220923676,-0.3873051891921725,0.0008029679535285464,-0.12262002735421078,-0.2642552815861237,0.5446213948138046,-0.10277867834181217,-0.14336264380626546,0.3649791433238623,-0.04977545035151127,0.09696206276559804,-0.2886620388065813,-0.2841361437171377,0.0601990983516546,0.1932747488330251,0.3426763279208751,-0.20239334645609067,0.16474790099884343,0.1802148973929813,0.06043676273494962,-0.3642071561017612,-0.11047096641256812,-0.10988858330070779,-0.13248409398915784,0.3429291629953072,0.25647015119067723,-0.30016527283524014,0.21659257276367053,0.19696315141538123,0.2502353291487406,-0.010798593382326135,-0.3616294277498234,0.21314260213565753,-0.08071983864916522,0.5008042490677231,-0.4274360686624911,0.16555126760087688,-0.2939639784218718,-0.27030410280656836,0.21842036324213232,-0.44939533082236205,0.14140009464996972,0.33173562929233313,-0.3297400374786985,-0.0012444769824345222,-0.0643957909198554,0.3049576329434879,-0.3028862957545322,-0.3824005543608991,-0.3736193401297939,0.08622999053275678,-0.11822968032288614,0.1985813928885745,-0.3028430216172572,-0.1199208613170394,-0.13400182920336903,-0.239394161735595,-0.17215591822854506,-0.12929444788784153,-0.03207986003831892,0.4386596186336259,0.201079873141918,0.4193171442853266,-0.10508639167788224,0.06522785267664104,-0.4481101113006709,-0.06855746483605343,0.43932886245699954,-0.039569225845717426,-0.34843677408930607,-0.03902463794019628,-0.4826785033455032,-0.4665505683156479,0.25688327551432505,-0.5002466127891261,0.41236860435636785,-0.049711641735947915,0.06815330277271887,-0.2735736664899804,0.06548489999489822,-0.25880138763262045,-0.015832467120811138,0.15993806841415834,-0.2985151216182848,-0.27822977509586255,0.38434430646388074,0.058726063812916424,-0.39059546018277713,-0.19611630199431307,0.07721342792862944,-0.02617058825075297,0.00407433886483022,0.01061118059718013,0.3356022538590577,-0.1584842677541738,0.4452759142000845,-0.3836349927609729,-0.4147717827599007,0.2815931698729567,0.28467928695859446,0.2210528254978028,0.4137229075088322,0.19472635870653787,0.49699466846729357,-0.2783491154118646,0.21344138684895494,-0.1344369004225508,0.35450623840482076,0.2477739146935177,-0.20273351664974948,0.5114048623213103,0.4426225150665359,0.2885524634541334,0.41645828022409087,0.01521483639063179,0.045419761835890776,-0.053895376056492375,-0.4532615849222383,0.24379792682488033,0.33539699944363177,-0.03708491579627604,0.07903283765430602,-0.0716889363944252,-0.14559003960587902,-0.2219886338115138],"bias":0.010561437976614399},{"weights":[-0.2297047714301328,0.23093724285117645,0.1763160177460218,0.4689242791594582,0.010980964476801969,0.12914928168543593,-0.35950490098482646,0.33338676842108184,-0.25173708528051886,0.0208860828967391,0.4751530503799104,-0.39293438566871686,0.49105694370198294,-0.07906294159709715,0.13839593129213357,-0.2623150337281267,0.381765005437148,0.2862812588674315,0.3878661287755032,-0.14576590999274186,-0.19758497414262655,0.27922953663625416,0.0541521362909102,0.40193323248362023,-0.23655378252341497,0.06819591036790862,-0.14203881869381974,0.4810114276853116,0.08929575449176308,-0.0847161068445127,0.29698512801324306,-0.3183966270483417,-0.17103674385992418,0.17244988269338787,0.15555634696832774,-0.42837520007671176,-0.4834425479788675,-0.21070805222528835,0.21114336719983817,0.1198871814292005,-0.16869191988499435,-0.04879665749716382,-0.37894677713173164,0.3493582556458078,-0.3644404961561892,0.31789742217147265,-0.10461490066715777,-0.0702623052918848,-0.20562588733865028,-0.023802113828237936,-0.3409176475365855,-0.44573305870553104,-0.056921083885767665,0.04029397238218069,0.204947699408359,0.31353020369552076,-0.4273986344730806,-0.2684046161697188,0.22564357356231446,0.06652841533190146,-0.1705858809543499,0.05894353637102518,-0.3504471861911942,0.14176233797675636,-0.33451725325591775,0.0556623093469579,0.349112845282631,-0.08272266867745509,0.4428874877677545,-0.22926743705860725,0.1059702132658476,-0.46560696432118964,0.2810419020898965,-0.22649962594488685,0.1694195279844059,0.3244247388092188,-0.2054458919461614,-0.010854130614455771,0.4168178317070259,0.04180770717315859,-0.20207151820440902,0.04080348865476957,-0.4871207891091085,-0.49638426173064254,-0.14882053686102448,-0.16233897628062044,0.3343052906580758,-0.036453148854993955,0.13902956303420325,-0.12883647892024383,-0.3316863244877974,-0.15767973488983236,-0.28576567599398917,-0.2857547830756163,-0.13482043061105195,-0.06788087050693532,0.39141417291515745,-0.10144475545898747,0.2044309640055252,-0.29748827554910123,-0.11795883306420099,0.03981100377486621,-0.33041280352887126,0.4446333803370926,-0.015200848269730857,0.2809335857914726,0.4851647103583947,-0.1553047232314789,0.2861232969411289,0.4203648712259498,-0.06302581314484577,0.26950422629274384,0.3749376725409149,-0.2007656589965785,0.015085314283380558,0.29403641252789775,-0.49989269428467187,-0.22452677313860117,-0.16754528430758858,0.1679739396547546,-0.19905155813831532,-0.4970390219715732,0.37770222637549017,0.0638633542332844,0.3964124570135263,0.19403143090190814,-0.02707328131110657,-0.2727271354693845,0.4658296346087205,0.4882651035275039,0.46837660686216415,-0.3508032274665771,0.15124247096080973,0.3480290125309174,-0.3670300303775071,0.21691263081963658,0.3769234587955038,-0.09567503549074655,-0.08478202793284621,-0.39872214136983053,0.2347098552193717,0.4022896558292272,-0.3610712933893698,0.015320323756715642,0.4899864332040712,0.2352185051388656,-0.022118564635224984,-0.0837758449499072,0.3296343378078249,-0.2267870221815252,0.20877291643750137,-0.07353902112519745,-0.3490216785533521,-0.4503638851400608,-0.3412301545757472,-0.4270490931172253,0.21826842676811195,-0.3108434944860092,-0.28842385321632485,0.0852678234301823,0.4466773399078259,0.3225501476600901,0.20615480624178625,-0.1588689242450033,-0.3551152387705566,-0.266833288708257,-0.4430211410504289,0.33097900652716816,0.10009727989505945,0.4086207038088009,0.02965126199681818,0.27767990204824333,0.39909962839684987,-0.38785357485621547,-0.4856502713636863,-0.22865144195523848,0.13662112233588944,0.2017019708069865,-0.15897984946122645,-0.13201689857861937,-0.3705955402143717,-0.41208596915585205,-0.38813535533361965,0.033626552198710094,0.30921302798744255,0.021968748793452206,-0.0670751977154982,0.40263337069575017,0.3762185690363927,0.315424412308698,-0.040676194839021594,-0.14520430365102638,-0.11795614331080875,-0.3815400115403083,0.08144313688926855,-0.39601864323624236,0.09116625842333148,-0.47374350051670605,-0.07525228981884553,0.44611362310108543,-0.4334470766435397,-0.1672627483784617,0.33940258038764465,-0.18112015444761567,-0.18188331477805716,0.39698333496460153,-0.05328498415088876,0.26044075183533144,0.26856946521603947,-0.4860008778921415,-0.42665251857436337,0.17351842049768385,-0.056673009791247224,-0.3528239088516981,0.3041755048331192,-0.35739729838068995,0.36198841301190054,-0.2529063277924532,0.04822504629013349,-0.19652575776452502,-0.29379287431035617,0.21985999793793878,-0.36521401982668683,0.1864978179123287,0.2018375557925297,-0.2448780861576916,0.4098841470952299,0.22006011882731386,-0.28597921526098147,0.22231803866767172,-0.20820267204565332,0.22120900057592655,0.20239136138202732,-0.06714910882418476,