function preload_8_8() {
  return {"id":1707962343836,"layout":[8,8,10],"layers":[[{"weights":[0.35829575636602073,-0.37873523633810247,0.2269291275480667,0.4115721342671739,-0.3254892230464108,0.2363484471302426,0.4353656169728224,0.1694019998695795,-0.23662089962998878,-0.10137360625019975,-0.09716555371315949,-0.46029793702903277,-0.22632000827058896,0.35907311355208127,-0.0544893816415426,-0.4497646516017446,-0.1756552244319236,0.06307945397871206,0.36540092465145535,0.09535060347082625,0.33993537113596783,-0.4948465459756366,0.4293645898524181,0.2880913193717358,0.29132591874585323,-0.2643731539028207,-0.4881652641311325,0.3977056567191932,-0.3241447453270141,0.05537036385877614,-0.09078278582776123,0.06633167997252509,-0.31805791395375915,-0.05400161926364516,0.48816767951827544,0.23920384838163514,-0.1755845350580655,-0.19901674522292312,-0.194702301476582,0.36965299280142744,0.22426151040478542,0.18614965821517424,0.28173712614792623,0.2478653819037339,-0.47518193312527973,-0.38829822347815063,-0.10173072371083666,0.4546119626685433,-0.26284470214874334,0.002786789273164114,-0.18259001651240547,0.04912535724809497,-0.03438142925718801,-0.33136060063734263,0.4502334219203423,0.19335966273845973,0.18306612042796,0.15183993871980284,0.3944245488284348,0.2820714162991078,0.381527281088033,0.21851699308778924,0.40119861138556095,-0.09295992624046186,-0.1891230997917622,-0.5311071313888349,-0.4935807200776771,-0.1103606904148682,0.2830817686785786,0.27508839554701675,-0.33004509272823623,0.43919343388627785,-0.1247716460300108,0.2672018365227119,-0.22541124282341307,0.4546104390703314,0.4178000906231598,0.23043486842540964,-0.4718970614031709,0.26093969457771926,-0.07413541122310291,0.17412936839542925,0.3375961892199342,-0.4710326802063378,-0.13081901543023888,-0.3834235350384778,-0.36476106858307156,0.36284028164657034,0.19363842921486144,-0.3364814641120614,-0.3887562472644648,0.48941223612103923,0.39330470399109585,0.24166397819565757,-0.03667801009031982,0.2507845850340622,-0.19358105374200468,0.33604460247013584,0.14085305921189062,-0.243762943998245,-0.4595987590108893,0.2603452991431762,-0.5021035492093961,0.016765043653993637,0.3486840251657719,0.2497355032584026,-0.27135692840537756,0.462346393441587,0.1299841858254368,0.08373514841443513,0.011201718439343426,-0.04687376166549706,-0.32999862853502737,0.23499106041948492,-0.31530621978669915,-0.46204512376932555,0.24768463458244347,-0.4096518743475145,-0.1313202677629121,-0.4476099176955973,0.09780440121197977,-0.0723379889993048,0.31634878196980076,-0.19640371127764686,0.026991509603416293,-0.13448930292979352,-0.21290755755869548,0.11028906225768094,0.33401971602783487,0.05390206611978539,-0.18475999744330088,0.15221254439930315,-0.2023029500343269,0.17198423296672033,0.3259770482073418,-0.08972177006396971,-0.14749318703262193,-0.20183026929108588,0.006345419147770023,-0.2985075709367089,-0.12762545633834388,0.019681904877721992,0.029348044188562915,0.011411852279588547,0.421272354825063,-0.4820183627781573,-0.059227453495468096,0.06391086205532166,-0.04075676810169812,0.03420280815878418,0.05958826625046464,0.17756347055467037,-0.039794830548458636,0.05215527970275099,0.5343190750836613,0.028563360272321668,-0.12307360462529446,-0.13232052263352115,0.3780122873718064,0.4614744531904652,-0.33189706652292267,0.24694024489731417,-0.024225300115307265,0.3647280376576285,-0.09872261822341229,0.4683799688771955,-0.4884116091516081,-0.16934852118797417,-0.27090985360172115,-0.38591141104386084,0.12178155505701296,-0.34824064015546324,-0.12386975236735265,-0.37325197375651586,-0.020151705039185265,0.30228227024923826,0.48480762964717833,-0.06776693683421275,-0.23998492280149733,-0.1906350133659422,-0.144326686636682,-0.19054030129134164,0.5570290449140449,0.09872796972146612,0.5383707655457312,-0.1619688672560113,0.4608094184258578,0.14259422803455368,0.28716547432213,0.33779039009332706,0.5929309210058684,-0.3346346730911751,-0.09480145136859534,0.2381068269244727,-0.2244821682432793,-0.07352456160671808,-0.4364750106224893,0.10435134710473998,0.03440363529130069,-0.15126483101647692,-0.19122094441480644,0.2792973683513092,0.23512555159149065,-0.14337535078812091,0.23789535799946593,0.5154604534148103,0.31466544537570673,0.2966774013231679,-0.06766695460728496,0.133383095824753,0.27371673572009714,-0.21618562573516156,-0.26119895516799974,0.3299345274230198,0.23169730151297516,0.3157215238263297,0.0322949908275429,-0.05557954925480316,-0.031051800375810557,-0.012310457304061481,-0.0737580353510322,-0.1312832668282033,0.30300775930979085,-0.24311531135105283,-0.49400084502079,0.049582008818224235,0.09989430846544578,-0.47359825945807693,0.23793784837632606,0.20990336013763117,0.3319776633290965,-0.2973136088184524,0.41812676213132927,-0.3136496967550344,0.2966121469162066,0.1550560865529975,-0.0460497335502898,-0.22113350653500366,-0.21735626162543825,-0.12807125435937933,-0.33789794430274533,-0.27899448448217784,-0.3853795823380209,-0.3996767857948461,0.3062701709160501,-0.3128232806164463,0.1649701048350641,-0.4051887501407728,-0.4086581059060804,-0.47531800716577505,-0.40239644942248065,0.30748285935641256,-0.23830959758316417,-0.3310381247272045,0.22391978609792693,0.4062525120376131,-0.2707347397754481,-0.1404682278835613,0.050867887479559934,-0.2724683557534072,-0.039368838046711915,0.2800180346093597,-0.09644974607968891,0.12326545156891863,-0.08292269582547962,-0.24143399606104463,-0.04930574834513672,-0.6120409243849105,-0.023034949648535537,-0.29781176547566024,0.2881468704348395,-0.0875672799765386,0.12560760721988284,0.4151046382102456,0.04985408563935558,-0.3425701579880084,-0.08519836123120436,0.47733526232202417,-0.43270637214474983,-0.03399734902271362,0.4835865810363195,0.4846994639157698,-0.4322580760991844,0.4648390559941103,-0.15945376166453865,0.2693905984607645,-0.21676800831952336,-0.22310008589314137,0.39058488799647245,0.3312264267257074,-0.0551656422348192,-0.21400381859108406,-0.21742274972550032,-0.450290565885911,-0.7195143586474384,-0.39977912887671646,-0.12902188172331455,-0.1422380112115561,-0.2587458001728842,-0.2499836717336277,-0.34557837551641424,-0.32796084919019625,0.2920025294719335,0.2737819973149364,0.4006573898659229,0.1811969267769145,-0.3942239609930848,0.1840123318491837,-0.07989259378821603,-0.10497835660148705,0.09672130538382519,-0.1131806286553623,0.053296192605398966,-0.153741545272687,-0.24477406008130542,-0.2267563876659779,-0.1609438353263568,-0.043123374663085995,-0.296029314434024,0.38986960540153587,0.15806906147721259,-0.508013771391508,-0.4157222259388512,0.3739893044347563,0.04339531583759735,0.05566934354364635,0.25304397615555535,0.20398155604856116,0.34721864833379223,0.05839760591811052,0.06583438524563465,0.11868826365285416,0.08659806668398633,-0.1841114981150233,0.46733446186664107,-0.41396497605364274,0.43091404864513927,0.22074124827441977,-0.4616150290003743,0.3257059745100037,0.11221470656756029,0.3911427142907683,0.13727830583160833,0.08101610928648796,-0.12758997309729467,0.03962872898631182,0.2095580240305725,-0.0769507079644172,0.15856064991199637,-0.12556838884002455,-0.5049831591102476,-0.3113160817651085,-0.23338094433950848,-0.3869386767816355,0.027542005826585236,-0.5789708256391577,-0.40636342273095377,0.0942201709547575,-0.20431644429064427,0.44027243805221067,0.39684191553953,-0.2292841860790963,-0.10821886284908677,0.3932218261656748,-0.01796031191563019,-0.3382218717140945,0.409657293465358,-0.09013603460332043,0.17152771134556588,0.21974620310364948,-0.2814783636659396,0.047029615396108074,-0.0175392238448333,0.4265860148090171,0.6499777124339436,-0.1545269993732599,-0.15007442779561198,0.11610253272632379,-0.21616839604701635,-0.12465323753544655,0.18264400957651172,0.4191149709315445,-0.4851650378111441,-0.013030845787819547,-0.044400514424345006,0.2194573079012866,0.25922366764422333,0.3673467509401392,0.07942711549659473,0.09201026235616765,-0.06825733922795407,0.2863501536484221,0.025907532033777603,-0.4343791757064588,0.4410178492975819,-0.5009553640992616,-0.40157085862555736,0.06574734636380497,-0.10481438188263141,0.5417429939272262,0.09844227061625876,0.4462249398468206,0.2599452849060831,0.5025845511374208,-0.12046030589779705,0.3395719878902778,-0.30749990761479357,-0.11005411802470527,0.36672368757274465,-0.6182521445090878,-0.4492225342822613,-0.16917437374629316,-0.2970952871620607,-0.12124213451439962,0.2844408649659199,0.19781089121907436,0.03168916431129384,0.43671800122785676,-0.13384111799806858,-0.2514569094120265,-0.4548383459438319,-0.0406049183988888,0.0001722867040963663,-0.22092194698844927,0.4358875614924816,0.16614915704001887,0.6488297804503841,0.4324471653136871,0.331436682231329,-0.046127015003569,0.6029175867119156,0.26046939467306074,-0.08373774201130865,0.015961210246791212,-0.07745310276675314,0.30644323289475933,-0.36932169377522134,0.1874899124858059,-0.2852854658168,0.15246654910632867,-0.17768464116454097,-0.3812991022312153,-0.3464112198907479,-0.3318086042492414,0.5025173493822623,0.29580230696507137,0.49419512338700633,-0.31494595121328145,0.15147064008430844,0.11501450232271139,0.4395420100374007,-0.18065143514294443,-0.05181400617551422,-0.12044956726685228,0.37656095618575647,-0.2429539105935005,0.32847290642249016,-0.28695013623330434,-0.060576549607117725,0.5096544529561682,0.45195433208520064,0.18678383648719502,-0.373752019928377,-0.10969778234964096,0.07089413192506126,0.01935760902092788,0.21515486774205883,0.09924741117469091,0.15816924849744393,-0.09064178873931579,-0.25126479603525925,0.5887476432938226,-0.05466388106784783,0.20852301212999885,-0.39437571940206795,-0.13793664835531946,0.3610865614919321,0.31104472660633675,-0.4202110795654005,-0.3374548093609317,-0.2181429395128677,0.19590515038979792,-0.3019876176018932,0.34741053018688667,-0.22011150033233123,0.5231589341612537,0.07998577508186487,0.2855979267813682,0.06572022558731001,0.07819484695829217,0.07262601458587913,-0.23007292962695686,0.5098549546922353,-0.11471746036950314,0.13949194385391214,-0.40684790639560153,-0.3772130895392982,-0.13257683487125382,0.4117021528752562,0.3898798364822159,-0.3210896538009707,-0.25365334931691014,-0.2980300485466038,0.4224272420446981,0.32101011672539337,0.07445843948569768,-0.023801227683685505,0.31664832671884363,0.5249668107969514,0.07181267569256582,0.517366338958111,0.30991201079106157,0.15448318412785733,0.31663348250677253,0.017099380209978587,0.07855513322862336,-0.2051172982842327,0.24338324397783795,0.2505039030718869,0.41826889842380105,-0.01871685179897239,0.04378545004530288,0.06401758763449977,0.11447689864484856,-0.42137089980878695,-0.04362921307421211,-0.1306231507641504,0.5859826929393157,0.20193394401190112,0.14432551625272322,-0.028942683930729827,0.3547182945046128,0.23960054787719853,0.03085115502578951,-0.0436454245481838,-0.12596147417514253,-0.26967015201000044,0.22669868692509276,0.1966899683079892,0.2304273538720623,0.5435053712176571,0.3552189097252802,-0.026968835649549185,0.09186664546724574,0.0009265290452932581,0.4779377034062384,-0.28072810159692424,-0.42138607155432434,0.057245951438013025,0.15985066170633871,-0.06167257803475986,-0.20342605413122378,0.41348750384831834,-0.3038014724015117,-0.22206982800245573,0.06350502482847636,-0.1701810420970663,-0.42072490435603227,-0.20570275459327006,0.19608231370071663,0.2366807794487482,0.3013024382990157,-0.12321049353362208,-0.25667443352414215,-0.2514449948182032,0.11528729958814735,0.1430748613083681,0.6009558931719934,0.1477721546254664,0.13612296334587956,0.2666222554429531,0.38769567277279515,-0.09163692945433673,-0.09608558915287506,-0.17197956172002649,0.47872641130399257,0.10040186108660594,-0.1336838446468855,0.30816640452443916,0.32056615883539813,0.08367626084480838,-0.027770186363357607,0.2411078983774719,0.5280328016926202,0.18009868900792295,-0.26585967454216836,-0.3140851060357434,0.3820604050838663,-0.21488457591189358,-0.11049916850264285,0.10096357016016906,0.44141513418980427,0.39562522231342656,0.022994254124602525,0.07240631506463659,0.03590638970048069,-0.40714705815161634,0.16096418763862808,-0.01848485950808767,0.11013002339683894,-0.23162089271115904,-0.07713584614531763,0.0660627112392738,-0.23977840781596793,0.11406237182893604,-0.02965703814499831,-0.35309659172853053,-0.056050193470915326,0.2578051449672391,0.08960846158313333,0.46869431448919613,0.22242215255262396,-0.10468206701514857,0.34740785181309874,-0.36584770977915276,0.12010853503319563,-0.0280881206104453,-0.4395182239612605,0.03347460358088891,0.08070410359604473,0.4075557727323117,-0.407368228055201,0.054881385339345085,-0.09532909117574932,0.25042866316002954,0.31515317973609097,0.043171802199863316,0.1964496177580683,-0.3442490188292271,0.44331681959765556,-0.2558783967579341,-0.0023030235434520446,0.24116235967446314,-0.14869730622725597,0.481611512766824,0.39948525006123237,0.47209203492476604,-0.42010867661727247,0.3083576683306783,0.04035731142400672,-0.22083971139768377,-0.39240415788204336,0.23130809871292116,0.26396350672545665,-0.49253219677838733,0.1754613284354415,-0.31542126604511983,-0.13264357428033038,-0.302193503649475,0.4424733141148175,0.1491479513509036,-0.4176177490164006,-0.47061108080621744,-0.037214402870133584,-0.01815554170097046,0.18952628250249196,0.45171326318899113,0.042326197596747064,0.3501068340025692,0.07660969912686967,-0.2592733120044055,-0.04820281196709649,0.23194479210853708,-0.2558480763687496,0.06694043046860734,0.09461676339394848,-0.32942377869023964,0.15181166541486765,0.41663531398514675,-0.07746950078469952,0.05760349701155212,0.07294707770668629,-0.187014663569256,0.48983278863063107,-0.23592294059793262,0.35335000206807543,-0.12714885857856403,-0.3667630376949792,0.15137101159748947,-0.32233675839094683,0.03279826906806758,-0.5427013977933877,0.023656754485950574,-0.3169351892291324,-0.526224479057124,-0.39598448214273985,0.03671582496825896,-0.5327605530128949,0.026085425053325857,0.1158501578392062,0.2804293937443789,-0.3825523043892842,0.2037372858723529,-0.16983511976771062,0.10562048098651647,-0.2361369505399915,-0.2209657186695925,0.3480464524473064,0.11506414551733313,0.08751962428773674,0.44932245839613905,-0.2228969169929329,0.19619262582095098,0.018411531253623138,-0.06792515386491133,0.3930368527750758,0.016244615145474463,-0.4281113767741103,-0.4785887212728984,-0.2140569963235337,-0.6011156832128902,0.08049468689682804,-0.024240722200240854,0.06968430851703716,-0.15357720903278263,-0.32114907009163646,-0.10060717646010985,0.22709626751095524,-0.40938147773049266,-0.0897763762949315,0.2684741904723004,0.4368412521988391,0.4059078193919972,0.4498681269274116,0.2583426741106323,-0.37482231159997575,0.17344466518729074,-0.13707854574997924,0.3121515807723019,0.11604226320556021,-0.30536027087127837,-0.46843461484985727,0.4391579771433145,0.3671088663223353,0.02535189813168876,0.091568680958815,-0.11826829813634863,0.24221447965894713,0.31341071827463723,-0.0325501224221046,0.05132317673498589,-0.5202086233420742,0.2714180112306148,0.2955943362288993,-0.18877851262227038,-0.19817243741618873,0.04313147143157184,0.35679383136906445,-0.06660943825088307,-0.49952447893753005,0.15248157549648986,0.3112543009027308,0.2762510279279638,0.2446218320050355,-0.14054404005879673,0.10436838500996748,0.02162984164038484,0.020213437300874437,-0.13669510295459397,0.27876891169617357,-0.4208574825351512,0.43153217313969217,0.22356732148821448,0.12130902016592646,0.18639086038166253,-0.17360630961929144,-0.4475414852891646,0.08914284368304273,0.439584590341128,-0.44740882263279147,0.3246586837481824,-0.01788444690186089,0.35484943483284276,0.3785645910790873,-0.01259483967800625,-0.216356003259941,-0.24451250819028286,-0.4184685298456686,0.3151600983534686,-0.43054332326159894,0.1557344676546879,0.23451984397429948,0.05002958658218537,-0.29453944956404543],"bias":-0.19830047227180136},{"weights":[0.07114221639052198,0.2947425161748778,-0.028545483038582065,0.16518343684617287,-0.08921209172464506,0.22379773583585982,-0.1398274245011173,0.28495182727854096,-0.3219123215791173,0.38524806870976813,0.011840736520982942,-0.2857360433512155,-0.3279895066129521,-0.4809363939790021,0.37810764095416194,0.011759090776005232,0.47629816557959015,0.3116260418511121,-0.39488063158736164,0.05037085422886678,-0.3616315473912648,-0.4487712818299534,0.4167196475309154,-0.14961305353433607,0.030586624881898672,0.49042429212282634,0.2917585004623102,0.32514153607325547,-0.21127542089924867,0.42388432768030504,-0.11128785884553394,-0.28910985822279023,0.2881265430419613,-0.3837999217803459,0.1004738663773973,-0.1547273064023732,0.36657616918403707,-0.012229094712476551,-0.3519516765699405,-0.31731822501723356,-0.3406419666086903,-0.03824416622412447,-0.1899172013525503,0.14162092199855916,-0.012776993434704733,-0.40586114305021137,-0.11314658289872219,0.37093519553395554,-0.3697014297561645,0.15154950017556135,-0.10434092448350696,-0.35128737726974624,-0.37431485789573027,-0.29068491437045574,-0.07525545683655466,0.07068309709171339,0.2169645173394521,0.04353734046143187,0.06131025548830027,-0.4652585925294497,-0.17531134733804188,-0.11447875399031238,0.25870732705613364,-0.4622345518491133,0.18228966467243457,-0.03859928058253993,0.13352739456106874,-0.4490774643746696,0.07246547734050895,0.4835914307727575,0.051780526270624516,-0.27079345089424206,0.046249897949561206,0.013177220626283783,-0.3868340361391627,0.19910928996719537,0.10245461959320347,-0.3492595870417192,-0.2922698999438846,0.3570179459450753,0.002460885020343819,-0.30830676346036334,-0.4190032905609402,0.4334562771693047,-0.3237091491831279,-0.2933402102492111,0.2518020689910194,-0.15982775226391244,-0.013226542395195892,0.20965296324309476,-0.38678285876697643,0.07950997367105007,0.23537302967952517,0.06736232571334783,-0.09278667247457847,0.2759792035378442,0.019662020419138733,0.3235038601691332,-0.10022907439463147,-0.031398440562192965,-0.1671614914577127,0.4482669580140429,-0.3084634786577411,0.35182653817222015,-0.36475851090063616,-0.12611274562270527,-0.3356371754220945,-0.2920121705735383,0.18554367080335313,-0.2149226179306242,0.2454195572852659,0.10628879104382061,0.045765642304765874,0.4079879489493088,-0.10930776234647377,0.034109703119934484,-0.3216229548134513,0.4694101729463773,-0.4054532160427465,0.3938208398410438,0.2979954123565599,0.4535837481932799,-0.27775568233528686,-0.39102609373760405,0.4226409611854364,0.25911494009311326,-0.3226635326191398,0.053126298103988806,0.03230018390217479,-0.28188768373014295,0.0378727373143729,0.23833874055021154,-0.1281695784622562,0.04555301589584201,-0.25434192514793574,0.07219302635176794,0.5075986662296574,0.28118309053465484,0.2918750576509795,0.3268323978966363,0.32133254948217216,0.40817871899876157,0.40913068276268383,-0.14119172195486218,-0.20923415658245706,-0.4514293210689335,0.443432803626749,0.04641856684613184,-0.12344057263930255,-0.36174650544309256,-0.1664123020307029,0.01935127539656017,-0.3198654588057657,0.1585308289766415,0.11519282342410504,0.15543860292208989,-0.04921707587722279,0.0621313612776481,0.2323565455184284,-0.09336848487921898,0.0689160933641753,0.0712065674126075,-0.06115313145653179,-0.10124189769872852,-0.44632735215309155,0.3956127793856943,0.15429125091732845,-0.17927884274039685,0.40004945726441776,-0.2032124998341518,0.229579378802812,-0.15977916945947676,-0.2356600151807169,-0.0025363445597390176,0.09364156650487014,-0.3046652565294636,-0.4770112732500407,0.4726796751097258,-0.36081038331895476,0.46491516952906425,-0.22289837169348187,0.3376777216087709,-0.11234747626404916,-0.33711694834076267,0.16961510639674937,-0.06468848720648943,-0.19541476662717183,-0.12462983735440619,0.229669263372055,0.3034151369239051,0.24070559952581255,0.30857315140898506,0.18816699671213705,-0.15109186911245023,-0.3259769856136049,-0.4515997173930924,-0.04373057760305543,0.3245065058312732,0.2702860286973248,-0.09040650653926202,0.43571089087732406,0.21540866182952223,0.3576241223423259,0.19592452893716228,-0.5082842778064892,0.2052411080481148,-0.4516513176168385,-0.20568726101860102,-0.24322199220861232,-0.2635295073030456,-0.23728548981577996,0.04907429424673028,0.06240413273436973,-0.16928632832760795,0.22078992546251677,0.10956268338086073,-0.2419303920047151,-0.07208679458240755,-0.29919564215232153,-0.22593063062851274,-0.1749996488568437,-0.0721443879771618,0.3665902375607446,0.13818170288249867,0.3293003624228954,-0.06304129467407753,-0.11305794119539092,-0.08786940404324976,0.38814145664965727,-0.15841567098412002,0.10405289096041977,-0.4787536397279389,0.03518747456966364,-0.039570764001263435,-0.19016312357364873,-0.20897533028196782,0.3875972500529668,-0.11465652375317328,-0.39274109939980106,-0.38803676480131205,0.15880041779625081,-0.3488133564960617,-0.3671515920599987,0.31186918314983647,-0.250062936719207,-0.1359754292089202,0.006166405373012913,-0.35828957889447044,0.689512938838328,0.2994463840879065,0.551812863999191,-0.1608911991137369,-0.3494250141664305,0.03862214469176528,0.21907183261678523,-0.1106210732050559,-0.2159228638596517,0.39490671636609237,-0.23640290207506012,0.38379049595663517,0.3715416465430363,-0.26389403649211635,-0.28838954686531143,-0.023369021022127897,-0.20762293157704284,-0.1040063477000299,0.016563790808129003,-0.40481344947704107,0.09520132912712767,0.18230231735162664,-0.054802485351150634,-0.5655761620299544,-0.19321167921512264,-0.005588429558336376,0.18970913260732336,-0.053765246577447065,0.16216291349080236,0.2748429918496278,-0.25858953392062334,0.4619616355800891,0.18031793281117844,-0.22325934627706995,-0.038881047498554325,0.31224194217976964,0.4548155186590681,-0.33561983618103913,-0.2468713995493739,-0.004921639459797749,0.028148333868875244,0.1977409976572811,-0.31507649978757796,-0.25256390195897316,-0.40108503203615997,-0.5382452971912863,0.018723295444840363,-0.2743016095858961,0.2760294819649768,-0.23437059060678095,-0.3903167185450908,0.2496535474178529,-0.44052875565704896,-0.29328246180462,-0.4412180760886888,0.05115292690708223,-0.19894411958524028,-0.18514237515780102,0.2869747274810607,-0.10362767452062474,0.34388884471463854,0.1394090523529103,0.06685662874553346,0.10796397203332274,-0.02946825961088346,0.2516441458268192,0.07618152586718802,0.4435033493243251,0.4110929226500372,0.458787103385908,0.11419962291903642,0.24558644461921275,0.028696644176698597,0.43532306654625086,0.4098763848345192,0.2884511013996506,0.5858685116153726,-0.10327695040583026,-0.5392386308038396,-0.5483012801972394,-0.32280479002340856,-0.3335647947707471,0.14482364018392652,-0.5636034352727922,0.11681943871852793,-0.1309111535814513,0.22271029622241184,-0.2626285148177298,-0.4645362491876872,-0.4604636810867685,0.44326530012382104,0.447985669535878,0.0008565030904846414,0.051369100104829986,-0.161238285354528,0.09430577893058781,-0.11284139480048767,0.3108531104877896,-0.36111883472571854,0.4423961669845719,-0.1103342244345662,0.2489490730276014,0.2841517709675686,0.5057302147826243,-0.09229615087284762,-0.046053194558815534,0.32183622423950686,-0.18932291221356853,-0.29869675966449966,0.20171392037784733,-0.2866618393418395,-0.48653571050236266,0.2678599945783083,0.30822247404969844,-0.20554799714770267,-0.36220649237162594,-0.27206619660830755,-0.031199287917358747,0.45783638130158966,-0.4256814958231636,-0.21507031871756738,-0.16438053754895793,0.2779939775480199,-0.30391180998695994,-0.06874970537473966,-0.02327720984691499,-0.2920026109023128,0.2775503015235766,0.17455253667204287,0.4167606205752351,0.19806179517497935,0.67298987569761,0.6223847680084454,0.06376233682144601,0.4404585816277107,-0.30082604610496844,-0.07529016121504002,-0.21372853027312388,-0.26583387436600137,-0.517297318257136,-0.6225125826312613,-0.10245146587890433,-0.32762177756746774,0.48515554890499435,0.05353669710644793,0.3222766681705196,-0.37806150391617327,0.4189761026101141,0.1562750494541998,-0.18944470761690804,0.292044840296406,0.04753410309057508,0.24956664800149808,-0.055450211175067286,-0.03933083121093797,0.22746689891223254,0.25218764454526593,0.3164914676888792,0.722011419489628,0.3624178439108843,0.14762124716185013,0.29600857720319107,-0.29522168453393277,0.4493503678508355,0.032193360681077796,-0.24658445227284573,-0.09482943266218329,0.13735443845271209,0.25323994788442616,0.4178742856325604,0.33469431875979605,0.2806719504349364,-0.47525071130835483,0.20709675017098972,-0.0851157651084121,0.0880742639726221,0.48852299002761174,-0.6037438331355228,0.2526756475400043,-0.09937516408698675,-0.04115165809630485,-0.18821731631078803,-0.09462776262567549,0.01782956783589268,0.06204809034133842,0.8464989176252856,0.5094370257180636,-0.03255707895814471,-0.0054692369238621375,-0.08596951715199688,-0.2593806477860871,0.23420913597343096,0.11589047648663468,-0.36651053095264546,-0.4826286361663496,-0.15952765146806855,-0.36682363628478787,-0.15360066457292043,0.14989017713648425,0.08231771837858048,-0.1619361159716739,-0.2605774686563215,-0.22631696756361175,0.21647969135877068,-0.20089435207935316,0.024595517710811348,-0.4770806025082382,0.2064282683345875,0.06496130496804853,0.22374857927350014,-0.17017948982225836,0.4392423995374359,0.6044089624668804,0.40353653352890606,0.03366979289744892,0.5268065465757132,-0.3303336582515015,0.3603540907128225,0.07693154865805753,0.06705016158340578,-0.11757567790533242,-0.028409923790323924,-0.007812751098088978,0.2063993144678296,0.3872700730584838,0.007410897044272944,-0.11346047664648064,-0.4542280660497973,-0.30517669342459164,-0.35872469928398476,-0.3603750638451856,0.048780781904695536,0.35051308861332875,-0.22058160202146163,-0.29357209347727703,-0.3498282737088031,-0.19987530959427532,-0.019386792141013926,0.1668578450562831,-0.1254494557379543,0.7083109927354518,0.38923240773573464,0.41110721385880705,0.2989848227547682,0.4331921572954028,0.22462453054026715,-0.3595945812525196,0.023360081519835464,-0.06984850702067391,0.5526585163280904,0.40349654344353286,-0.31126814870157077,0.44956851663559155,-0.4970700770787623,-0.49883149004024735,0.23695810766424322,0.43413237650227954,-0.21448674468933615,0.10937106640156752,-0.44953825956187565,0.359563148233859,-0.047703746542992295,-0.23846205416593844,0.34020953319837294,-0.2851499162783792,0.28891934765961796,-0.10725528522818505,0.17236168030289128,0.2240051353013649,0.5405159868540609,0.053747203001480656,-0.45659414806822746,-0.40251818806260775,0.2865586762140601,-0.10995934354716608,-0.10918198419416214,-0.36510267775580524,0.16573838761493556,-0.5310542320219949,-0.3396683492241392,-0.2596978668748252,-0.11381945083284624,0.13286945169979333,-0.16536024031642158,0.35379948436311115,0.3103534491741314,0.1485341015360982,-0.11889410735813813,0.45160065499075464,0.008227042028311609,-0.06813968443514255,-0.1332429889660854,-0.1871707453505941,-0.42477869577829236,-0.12754560809587595,0.3981345060432891,0.1334030881939428,0.33523044127526,0.2215159616692852,-0.1667207866708621,0.460850950990956,0.3372975201016801,0.24657138436612036,0.3472790351605617,0.07239886265794314,0.3100348724929486,0.43124010767255627,-0.08378971735461731,-0.15905867252089662,-0.09827652223871351,-0.04174292767600039,0.2558013062139215,-0.22297829480032938,0.41779677077818816,0.3699057574907303,0.031225217698241426,0.5108053919922204,-0.44317692521933216,0.10775622772785663,-0.17603022215514413,0.12899595445323245,0.3535689841136375,-0.21961136273351126,0.19430760802533772,-0.2783444653696133,-0.37077570474702176,0.42512366741836644,0.031537965202303175,-0.011833679053616776,0.1987557935525248,0.3294351768617255,0.08697703659452836,0.2597381550688439,-0.2759414285400646,0.27677495066472735,-0.11861996415873134,-0.23314377936443803,-0.17910548439854507,0.12919606923914828,-0.27481105453836463,0.07708573879166658,-0.09980239885576347,-0.44396995890227253,0.514936894575916,-0.25179556333367853,0.32328346206799385,0.27890393548784137,0.3753649485467093,0.19216572177829422,-0.2915076008421617,0.026581882402210114,0.026481521048319124,0.1314442118800749,0.33182804940547095,0.007354165986652639,0.24565081384204876,-0.32817743702713187,0.4366338223570808,-0.24570616203175,0.34598906690645154,-0.15048822938036693,0.1540420462318794,0.5185710868266237,-0.4346498920200659,-0.12482544467989704,-0.1454200031661604,0.009716137780479797,-0.18307059543616133,0.29891957297171157,0.3761540045604277,-0.14449707350511187,-0.1022529478176404,0.23282322632285832,-0.028695827099346823,0.021531221612812717,-0.3941520507084277,-0.0662778444963979,0.1001448839857873,-0.41001002473758036,-0.14457374263050807,-0.42273202169286817,-0.11788999253265069,0.04559518726455448,-0.5139256917140114,-0.08768349469927333,0.15270995480859617,0.2310973764652997,0.3287921224281721,-0.34714983603323096,-0.000368878883033011,0.4990817645668481,-0.2850949001511216,-0.4480534289937778,-0.31725542396281825,0.013845999645713843,0.02341284446776748,-0.2604829989637778,-0.1756219535313241,0.28920121604594085,-0.029538307169375475,0.009979279193619848,0.3626954281761011,-0.3554152144651644,0.20175404663116353,-0.14317534645983537,0.2492360045172481,-0.4061881235556136,0.3480913002374219,-0.11460759097952376,0.15406871754920204,0.1847545676380397,-0.17187098222605549,0.06425034335186765,0.2036537418589894,0.20153959116260295,0.08767620526522865,0.21092278596751643,0.41872098628419013,0.06567564205272101,0.19039117897279637,0.24264133339897404,-0.4732565389079778,-0.29611545275574036,0.2865747181350069,-0.3034333217665339,-0.06459133863921251,-0.3343195359650024,-0.286860661570633,-0.033525831091514816,-0.31533586246054907,-0.04944056317741206,0.1443895586869967,0.10077633523945058,0.3601915451957696,0.42804746726387294,-0.20815159945359976,-0.053550274726828495,-0.13423477397309208,0.4088490258819319,-0.23711941587018487,-0.4016557832068037,0.18908320425666642,-0.00823230000837939,0.5490063119143627,-0.24036092710948298,0.16495555004460744,0.25296107031848514,0.11184782279572497,0.26658871001354867,0.10762317017940067,0.25198431267942967,-0.18813704473503523,0.3013847183674454,0.3851232977594714,0.4094134306064501,0.23012446975265546,0.06529394058822613,-0.07935303996047278,-0.048622020446207274,-0.006545150686920454,0.023702959615779763,-0.06663757130057847,-0.05443864161004953,0.49852809867640857,-0.14401656755461736,0.21041464945962587,-0.14025010458777792,-0.009702949676716498,-0.14704348178110174,0.15858642949785956,0.3707633783260302,0.14943030174541683,0.20956251442310544,0.45874086301133776,0.004015390803163597,0.38651074252033885,0.10322828379185094,0.4758819398894354,0.22812412396751292,-0.3874623330785172,-0.2059444273209472,0.3360002644118061,0.4368520316618476,-0.4956876967133521,-0.1904436488451141,0.08584348884960247,-0.039688413049594216,0.07185186863475057,0.17218810436983228,0.16026336464326765,-0.2797680480023,0.259624131384717,-0.4120290610211478,0.2819703069967165,0.23748327783940926,-0.26959373031480355,-0.3036159050880588,-0.5292177520257293,0.19164921227142762,-0.06566716159199887,0.3021299735774997,0.07880547047961939,-0.1747279600250697,0.3390656441267872,0.12410277545102213,-0.013705109336479726,0.3503011735547428,0.38575378389228576,-0.32424770687871285,0.0662016117933677,0.23100030756544299,0.05580134950408122,-0.41925106860840655,0.06538069731242335,0.44109956971059505,-0.27937807332181275,0.33921890392807097,-0.021124238576578067,0.18754406568338014,0.19356008027777524,0.13695175747925822,-0.3127958809232287,-0.3470302701740176,0.4450204616696371,-0.4230170146340899,-0.2427819478133224,-0.21070670098412606,-0.2563184093270151,-0.036021891569727606,0.008504313316944614,0.044572174342002446,0.15845592405253695,0.012872293915372923,-0.08197876771659707,0.4010913441405952,-0.04498815823628277],"bias":0.22923926268968187},{"weights":[0.12267470997470653,0.17902842479907677,0.04678281829318509,-0.17005760113134616,0.003219529688969436,-0.13145690644642216,-0.4446064454313945,0.44532843049036175,0.1906175971441848,-0.26751679494647096,-0.4604149454204478,-0.27445625881387636,-0.49089095657857706,-0.2284644253477135,-0.4865406431971173,-0.3841479591336443,0.0019759677144890464,0.2839566867772416,0.4564101383574748,-0.15858156466671125,-0.40369215836192707,0.24672114146535495,-0.03189160658237111,-0.4804605478493349,0.3970771541127822,-0.4274202649490546,-0.21939662801804483,0.14908623109593444,-0.36757829780788276,-0.11110104422139777,0.1440303207919602,0.050818473487289406,-0.35727767744109507,-0.34768642062534755,0.4156541983392226,0.10740442133215172,-0.4724786623686349,-0.09626981853879858,0.4072631554644201,0.079926739952145,0.4958197543802359,-0.12365821457515516,-0.4349478060086051,0.02262528460645663,-0.16228877279375162,-0.007423378743114043,-0.49761676738519556,0.229017828409849,0.08502942021481619,0.26934348599996594,0.31443721117997936,-0.32404694262722833,-0.22338572347148977,-0.2680772168022518,0.28848835282606755,-0.11132245463304291,0.48795942528657443,0.0866571707989725,0.27410527175780874,0.08214578265916073,0.2810472943217255,0.06654683715989634,-0.4405373899178983,-0.19058845586200618,0.2747936066821355,-0.19569706708712586,-0.33218252264883974,0.30532877487029547,0.23671603704054175,-0.3085842348305919,-0.1967492214561894,-0.46812152623510095,0.11523669476701447,-0.4342365871750188,0.28700418148020157,-0.03056218905699152,-0.029365207003206568,-0.24792217206062453,0.40343259794114666,0.07220984598692413,0.1719985417912637,0.1743685687542007,-0.039652888920726825,0.1038728076621418,0.48846090690784494,0.4684071021421974,0.08930082444237142,0.47474367578446364,0.14253005010048014,-0.3385684981225914,0.0997658968035289,0.003231570427007585,0.2110899439890684,0.05497990526977163,0.03627660047928233,-0.15545236469052218,-0.4773709613288238,0.10343646621049837,-0.1935838618928142,0.061979784410353796,-0.0690932365454601,-0.5050816418635773,0.10432374051364507,-0.1233718117374709,-0.18705191668853732,-0.2554443379236925,-0.22223240163339464,-0.3330009685665506,-0.1328472428032009,0.05319719655230328,0.047943302624839215,0.07006973952344264,0.4894444817815198,0.18535360871339202,-0.39600047067334354,0.10413893338846877,-0.10072189781295293,0.49644544362879794,0.15252084526260967,0.25092682536080735,0.3582828166809486,-0.042241133012581374,0.15245592825797874,0.04088298194478517,0.19750420123002285,-0.39758532236998745,0.05490805055433948,-0.35471920851033034,0.033966230212935405,0.09248945366545673,-0.1826640726700264,-0.208811586238325,0.44147667163820525,0.12374383908158149,-0.46942565698072136,-0.3039673624403549,-0.17344803332997297,-0.3596137905327072,0.3760316936076542,0.06463423821699088,-0.054083700474777174,0.3444810715573304,-0.3802979682906944,-0.43650364212613146,-0.04051074821888988,-0.17694394486930187,-0.4327851112481833,-0.34538168064312214,-0.31087667142201236,-0.03293614279777257,-0.21005134726387936,0.028661304153399018,0.308471865495454,0.051500580927027695,0.07434696671327638,-0.05887699990740751,0.3221912357698097,0.21735780643603925,-0.3334010180613549,-0.026756724196533743,0.1573341419001867,0.15865057169071442,-0.25615556038592996,0.07892853834980966,-0.15228346377083118,0.33292691967996024,0.47171480668792887,-0.004251792362910178,-0.3612926451865617,0.07594487727732702,-0.30779899648852754,-0.3544153831420138,-0.1354993836037938,-0.48501721232687045,-0.11751476781398784,-0.15576979964092447,0.3279741267197556,-0.073962497578478,-0.2303815628492265,-0.06451446611367716,-0.22674921974961093,-0.43780222533917135,-0.20945287011445543,-0.01444850634367975,-0.2605434750404267,-0.3731844881300455,-0.03199922442639076,0.19204611278704375,0.2884126607823368,-0.012381239846104763,-0.7027399352306818,0.020006457042297712,0.15338880755677903,0.34599568399705627,-0.4339758780293009,-0.09718135911664702,-0.2942455646181268,0.4810154277530271,-0.12946363653657422,-0.13083117931117086,0.3507565197281488,-0.3141881658526938,-0.4036947562393031,-0.42429277917962294,-0.20875924487658828,0.07658696080138802,-0.4733842113112841,-0.0028456364776620097,0.28615411224581394,-0.22506877589792365,0.02239714738634894,0.15910874453380008,-0.20519103985116732,0.0825881944543627,-0.18567385771783754,-0.15827100453072535,-0.3510411141665637,0.29696062957967495,-0.32889679296992913,-0.46276832464255513,-0.15322848934936406,0.28597802563030217,0.267027645075232,-0.18205278958434556,-0.3250464354824687,0.23507788804426957,-0.17657784727208242,0.1663809011294983,0.35983272698947977,0.336466579449597,0.33031606708842937,-0.3696973636206372,0.33268443783660917,-0.26030035539884416,-0.022832382184824366,-0.4157063591951592,0.03954152248718629,-0.3824203923576894,0.057258776641687874,-0.4258088848670735,0.07244466921172653,-0.1240320052494354,0.14114204614845846,0.03343719194308074,-0.20966444468581116,-0.08080808550571696,0.4373823551397482,-0.5057653080662997,-0.37304953836470606,0.24527412851540598,-0.19060390632530277,-0.4718466963213137,0.3340761569351749,-0.1482223261657149,-0.1675015007436143,-0.12088037269708315,0.012147392270989626,-0.29402443459055694,-0.06928409957745256,0.32933346397938174,-0.028171396443003212,0.3182257432458499,-0.09028333750833693,-0.08936522161330754,0.18270988680723632,-0.26313536931440246,-0.4590806243707095,0.17955348164584076,-0.16350720362926102,-0.06583036734174497,-0.0899295988432887,0.1808952434352083,0.13405131906082965,-0.3838012180615653,-0.18731261855478018,0.0065394178392206,0.09027026224593934,-0.47396365164937454,0.203393636138689,0.26651418652019415,0.011827474928411063,-0.40707179828234197,-0.4061617180044146,0.38149585393633784,0.2684005470405167,-0.3700184404819768,-0.0438930226438919,0.18380007463566364,0.19106798945381803,0.3619134707735132,0.07449691218187837,0.15900634030428784,0.3497861596792184,-0.10900606477803698,0.09153094320502744,0.3859293014739488,-0.24567142070868722,0.37725785700295456,0.4383830292919605,0.1500482569346121,0.37268921608387695,0.6132640162084497,-0.13511336844289004,-0.07305326640469031,-0.11908179434934398,0.32875930363594974,-0.021769783923520993,0.4733780493734781,-0.17321610875675839,0.3093022400573351,0.3130377068751522,-0.27925067689240807,0.31093831721684334,0.16136267081269745,0.05816392756395969,-0.12400655209582442,-0.02222423746330425,0.03333139796852295,0.4141100561129637,-0.14771059215979135,0.11440056047887102,0.09782749739681852,0.35428099871600094,0.2749221308781084,0.0378041142691529,-0.04530831002148255,-0.14585852562421425,0.4146235135827305,0.09923134082463729,0.5731848821930218,0.6274299204306429,-0.18416121230979945,-0.21399444770270346,-0.22261232044509277,-0.13721810650784808,-0.3845532676273738,-0.4364755970001071,-0.4840166348369277,0.1641899930232871,0.20191365317553966,-0.4420773615554161,0.17672028399267517,0.2795599737265831,0.2012725009152727,0.455859900921644,0.01728558653044953,-0.14646364968336,-0.0003837721933696407,0.13513119623681663,0.2731827920942586,0.09735388436392647,0.2700789415532715,0.4332789496041689,0.03329676480092916,-0.3391610029083275,0.5083155768861598,0.48419025228372664,0.47417992838441514,0.2230459192643027,0.32108221308789114,-0.3297815579739143,-0.3405232577684006,-0.3007081755775418,-0.32862351073333285,-0.35930130006851746,-0.23485699312399205,-0.3656261132232711,0.34538112873861715,0.13638048864775487,-0.16394904586491557,-0.23146932653015231,-0.14525200337777652,-0.11192687953300376,-0.25850255422336854,0.20216821934309748,0.44673655838606796,-0.09199095615779612,0.2698200737461845,-0.13907138633033636,0.4679985328198798,0.014831933523690893,0.01687830562926389,0.2798899878054344,-0.07174667626748876,0.08017161036173215,0.0759207441181538,0.10767897338551738,0.2855652830798401,0.16801906807184597,-0.47742292488244276,0.24332289583919775,0.3336872368520438,0.21063052051262887,0.2547355451116451,0.40987868743674255,-0.08550068995104022,0.431995288014118,-0.13381281572324463,-0.40911415716964217,0.3313965002334338,-0.17632083385827318,-0.10857764420553012,-0.3819243563020352,-0.058531412897311466,-0.06234973917829608,0.44522431742394153,0.26058181286905224,0.23514869095502167,0.11128462453404248,0.4885230584825656,0.23487599102169276,0.26044452922628053,-0.19008573465934417,0.16896742975975362,-0.21382466141015163,0.5181194738663562,0.4619729471548916,0.19684636521034252,-0.48894120942776204,-0.48120859903321045,-0.29792425520362165,-0.3518950852475158,-0.41330404590446057,0.16494920888133272,-0.3292925177001914,0.3333231600190276,-0.045069820962507244,0.11927800710638857,-0.024631349118226162,-0.07608583423093725,0.24225943895849306,0.32339261222270754,0.2161585669519955,0.19786998943150444,0.13011928784632293,0.3942228221390507,0.29913549178966903,0.25938868162628453,-0.24036203029878783,-0.40158447515527435,-0.1652776249484553,-0.25723072624144283,-0.09734564251404923,-0.4064183953836431,-0.40015511299774326,-0.3569755115852462,0.07761047285229919,0.4692115381870125,0.16872617798067302,-0.1947196034297002,0.02945386414423165,0.25536881143329965,-0.2108764933508379,0.39555103329289093,0.2759509040903054,0.15211758531057398,0.2540852342817114,0.2539532988240207,-0.2852555687672783,0.41756884420567597,0.14614167295382563,-0.02342151903942538,0.17083071028834157,0.4267785098805828,0.01796851821880241,-0.28269358482452167,-0.3672200715972041,-0.17852797290984626,-0.051712022874098415,-0.5525721374968937,-0.15326220189228393,-0.36981359743577247,0.2133501139605248,-0.43557760874221013,0.003603190351712988,-0.40967471330231425,-0.06457496061430068,-0.15356896766463657,-0.37949506316087844,0.34793926413868187,-0.4280061933362121,0.1502157676276712,0.43540406681342947,-0.006112544394460447,0.26075817453287725,0.4408834512182706,0.014585842047530108,0.42198026013923534,-0.014129052007260856,0.6066212510153217,0.1659343851669583,-0.001748065410011586,-0.03111837055189941,-0.07716177532375074,-0.4055173311008587,-0.22012234213039222,-0.1442982660402823,0.15435586529747294,0.39101996647803355,-0.03211468094848364,-0.28171105836853433,0.42329612239622844,0.4816414311468768,0.34605191661206547,-0.1869655313737988,-0.0613805405169165,-0.008608383032884859,-0.48355163198878165,-0.34657351694984234,0.03656308265226576,-0.31374817547061656,0.32765123720440803,0.1425234520888722,0.1282352946408928,0.10052751635976066,0.23464726553492501,0.5926980681506787,0.2448579162815978,-0.251252067742762,-0.27878020005814313,-0.2356123299375929,0.1269214435440262,-0.35428107839904804,-0.05729074841540917,-0.3798527674182905,-0.608010849195162,0.1555764924225453,-0.26970848779374285,-0.08324999411749531,-0.1615406952949713,-0.3714572971367288,-0.4199423435561142,0.029346650562802612,-0.3241197067630595,-0.3021282286779234,-0.11684629128207095,-0.07423868884159551,-0.5170105277180883,-0.5112358149623729,-0.18154741459407997,0.2831525109290438,0.39822312362177187,0.19693265912710847,0.5953440744189575,0.1600155849405923,0.6737114259099806,-0.324568499027679,0.09043573781369231,-0.1786966850098362,-0.39139323257306546,-0.2427662397188144,0.3288425555929571,0.16573205516481937,0.09351559576504764,0.024965558644732443,0.45672677167524034,-0.11336723762926235,0.1328526085572543,-0.3161232705636864,0.3764750695337689,0.03984621527016752,-0.16448836299575514,-0.3536171550431167,-0.12304791086986808,0.2303514852845485,-0.21496162014800405,0.004160281497088767,0.22755843979453302,0.11285071540391198,-0.0057271660730632175,-0.09698375998547196,0.10576624518967,-0.2976544782438461,-0.36162331221817173,-0.476879320247564,-0.20836309754856983,-0.500945696594865,0.1470253989168251,0.15045955357051352,0.17136527413103222,-0.003547743658501382,-0.13734342768835403,0.30403184875077194,0.10571200416328988,0.5270636047009992,-0.49129310458662373,-0.047269025293772325,-0.21991667794512626,-0.17143018194375959,-0.07158786151046881,-0.45986792690006567,0.03459632904938007,-0.5967870025150933,-0.3671573149449071,-0.030806022316598302,0.4194858785426404,-0.3907978277245742,0.3335014540158195,0.0360945410270786,-0.2922993152241161,-0.37935438984874564,-0.26628753894596846,-0.20728650280531585,-0.2627049691269222,0.10213223987790634,0.043933213501620674,-0.6828898209874701,-0.24768897162749523,-0.16421086675319768,-0.46302142540510316,-0.2411619558874738,0.5005468709837666,0.18187481832403937,0.026356758446461504,-0.42203114945607534,0.11689353694182114,0.13178565000747922,0.18643183443402767,0.3258246015344806,0.054421027976111994,-0.4764939991090276,-0.07747094615841933,0.2643565977223375,-0.5299353306125092,-0.01362302219740331,-0.5225375799458407,-0.12840400787171194,-0.12297887105149372,-0.08716868937612815,0.31064851772846763,0.15068022566298844,-0.2753886367604514,-0.26212988256327646,-0.07991696345154489,-0.33406894908116264,-0.014036270760317753,0.3730332647080992,0.2857735095153871,0.024991487843023057,-0.22161670607668427,0.2859015868832946,-0.28746326634300295,-0.20222490076200644,-0.26919433409768145,-0.3960446800357096,0.34180646005092125,0.25267196759153054,-0.16293543396324567,-0.35288629303140756,0.19117060479719516,-0.06972402551757614,0.2130940648026947,-0.2887888994725446,-0.3496615734136674,0.1599392561288285,-0.19320738487023573,0.14871018973149214,-0.4797237636081794,0.10987697232482037,0.11289174882476433,-0.24416707204757718,0.3471724059143736,-0.23478194870238608,-0.21335769150265896,-0.21658415333118325,-0.3086096108218083,-0.00707511717453978,-0.08912173246436221,0.2799122793301607,-0.41415669114453363,-0.3231591566309071,0.4862126166415168,-0.179110514337119,0.13893461870032553,-0.3828599544786826,0.18434835683192385,-0.012210873296623882,-0.23548232760232146,-0.5753907463404834,-0.26517650526288405,0.03815316820994829,-0.1269165645853,-0.38104111975668836,0.007129042366528605,0.20094159432429518,-0.10853179112025342,-0.2906076412242145,0.17232400707465745,0.24287597655277174,0.46904386783937274,-0.3410398847243947,0.13048486105629653,-0.37319011858158785,0.38839487814323403,0.2621036850108499,-0.2976038411873767,0.026534094086272844,0.4521434557462763,-0.10859119119240201,0.2545353577683884,0.2902652543651023,-0.4308764809575667,0.13687806993922802,-0.10446887628655603,0.46858337947478057,-0.13823207691714065,0.06571280661059305,0.26287497682864974,-0.31044660203190166,-0.29933363986778,-0.5071632541252374,-0.08504045376469305,-0.4841355981536972,-0.0009050312546713539,0.33416426790615456,-0.35502875014807994,-0.03053295821843613,-0.48651985363479583,0.00609187125906615,-0.48817484104532544,-0.3095792718960556,0.2577456198654508,0.1183439005691113,-0.4764019334131472,-0.4644034101816118,0.18175119765678932,-0.2716583469956022,0.27331999739624724,0.41849506864460473,0.27649270373896706,0.21839625854499922,-0.021797174916512452,0.13690364074805045,-0.19903669601406565,0.20457764582466503,0.11574638525468478,-0.30638164844790994,0.04378893829503554,-0.4382170757291574,0.06832903584896843,0.3998869755748111,0.19277430529122486,-0.4028649503370163,-0.11045182628459717,-0.3679653701017701,0.2730737912556747,0.246077492123533,0.09709984267014762,-0.485302812984732,0.33164503301717885,0.3992802171228074,0.09188220911356824,-0.4123212052161826,0.17636766134798987,-0.46887794293939744,0.26770573032623135,-0.4737680229436334,-0.10588352062803352,-0.4992689627758069,0.11529791043564397,0.4328872503142316,-0.3733685821075019,0.3085823363644922,0.10003085029463879,-0.17542060752141775,-0.0837007870299281,-0.40114197951799535,-0.08824822663882241,-0.24877325521632995,-0.04953630986234394,-0.18223079073840656,0.0619875614262843,-0.4100627113333279,-0.45915465548429785,0.17101183454176663,-0.4930912232325445,0.18334426169012658,-0.06249562982408744,-0.41823055805441833,-0.297793943818242,0.2731504304104915,-0.13918296506731243,-0.07502961648929096,-0.18861335556122993],"bias":-0.5807442990775541},{"weights":[-0.4166947350918462,0.002349597630429745,-0.13009765209582347,0.16040128060639192,0.23246256082202943,0.41042291909221884,-0.3635910225706811,0.3551633437479236,0.3133074232407056,-0.30918798128893354,-0.4719138257838469,0.3685586348590959,0.33344781967348425,-0.2389620198693272,0.20744563759370105,-0.15145718377097062,-0.10032910852036236,-0.049977624617015826,-0.059458446857888037,0.21909925150450782,-0.371401917083644,-0.00722612121342725,-0.2710831890148764,0.17598842535806014,-0.33331981430069746,-0.029915213611925173,-0.4805764751432855,0.2122708312105499,-0.40724853935302696,-0.17622435696230965,0.14391039383752835,-0.1662034228094149,-0.160747092454123,-0.33416802135444174,-0.3143702347296492,0.14795079733238276,0.05772094498222543,0.4318249540639465,-0.17672333758993553,-0.12588539289537207,0.07087281350740988,-0.4727764747693472,0.32234886323466294,-0.04458665383264546,-0.22879147507366404,-0.08310944579485575,-0.17755485898826345,-0.09773084701389755,-0.1828262559193016,0.053990450744485496,0.22045032892185024,-0.37365137511136925,0.3095088410422615,0.029478837226646792,0.017165517821507548,0.42304074002366043,-0.1412309166318122,-0.463654071628276,0.36940497719620624,0.12032404964203036,-0.35124714380009947,-0.21689146108605126,0.31798676241298485,-0.09834764184270077,0.0491515546607393,-0.2339592982193042,0.2941363428293552,-0.20244932003196547,0.2692020864042627,-0.07987057722303381,-0.17082079549541923,-0.16400577893414728,0.12685568798118085,0.4367798962232834,-0.25173997570937934,-0.3101916890408296,-0.4034669285164024,-0.0936415098416755,0.427116935688064,0.3693213422950289,0.3312639994190524,0.4163117263523186,0.39300904924127567,0.06995172794090676,-0.25594087920225306,0.03607322586819439,0.00698032535658788,0.03640717344491029,-0.41058539303517094,-0.21399320401166252,0.29852819861040436,-0.29255455081025983,-0.004907132825320273,0.16358341590434564,-0.12289074490058026,0.23812491515423223,-0.19955487243632292,0.1426656993704278,-0.10666748581682323,0.22276454532969475,0.491270675457656,0.037747134062792974,-0.4617193748143068,-0.0544408858684031,-0.058211912769547125,0.11582329000850351,0.4348630709372638,-0.09029988883216836,0.2893337938938277,-0.3961535470954856,-0.3798811641656701,0.15097184601812086,-0.11118592520947357,-0.308679585422428,-0.4248238502521431,-0.2410714764765432,0.26461089929804876,0.005512657824005352,0.07338883774041353,-0.20025036666551682,-0.11482048765968639,0.08435634138453149,0.03221600811517283,0.002377443077908595,-0.050484750373711536,0.496527926688583,-0.03597942848995096,0.17601995883925067,-0.1820311151039791,0.03579805074945587,-0.38721209377114707,-0.23973257866738856,-0.25703709331206714,0.01749998467613062,-0.055100324490580624,-0.3717163048621335,0.31323739331794836,0.3091211312486853,-0.04794600932758071,0.22491407654682916,-0.2655959183380847,-0.40571219719034046,-0.18989411760439187,0.4126618235450268,0.27410463513508054,-0.2558423209346971,0.12290683596160913,-0.4151214924459326,0.5973902757315138,-0.026802608460879094,0.04038580228245968,0.39670503918919137,0.23039738897004053,0.8407093819972763,0.641807066070606,0.02787110630640345,-0.04624155208826777,0.5540101394959097,0.4333585150895705,0.11132640612879195,-0.2518200354200737,-0.1709183817271739,-0.16133522885908197,-0.310605504778557,0.02935565581848192,-0.18503598953572128,-0.08113705798400575,-0.22612257162565053,0.09409615004240912,-0.33542490556371707,-0.4028194525177019,0.29880874881438385,0.08930348478835207,-0.04255347456326702,-0.1798309617862603,-0.2604879913015369,-0.07696759294711075,0.1055076554729406,-0.11036213952932078,0.39765224678934885,-0.03742421544127512,-0.0613095251383694,0.5364439311748994,0.02514860588293203,0.26408265744551046,0.0660921371316539,-0.16909211807351654,-0.1339541305422163,-0.26121562387519937,0.186758164814802,0.19256593170682412,-0.2466710248594059,0.010867489904651516,0.30481242790025065,-0.1943710935598164,-0.24839845590327828,-0.2747782222316413,-0.4163852072462684,0.20564414850843743,-0.1123559998981831,-0.28077166328847314,-0.019844930716187682,-0.3384436419287748,-0.1642159540674867,-0.18487452536503599,-0.2741727195238293,0.3342860890710114,-0.04942209019675138,0.1569640881407566,-0.05885377108613817,0.5279815717231254,0.18624947429398564,0.24441284925533888,0.04214887057520414,-0.2138172994954251,-0.1982691152751902,0.3345790906884184,-0.2861597395776594,0.2385984630452631,0.2846453297501446,0.2701388292704429,-0.29783112508326587,0.43846682006433724,0.12833153027614028,-0.0063003051027734625,-0.4881558722816427,-0.30980298693388586,-0.44955971649024723,0.14715502777781642,-0.12348669813861422,0.02766899617679583,-0.23054392747161925,-0.1566206438445787,-0.4513038484116854,-0.08699250726640978,0.24306868100407394,0.08051905674306355,-0.2679151812107963,0.27649174216083033,-0.41796430056012573,0.3877506275925967,-0.17945549727594984,0.33070415960143984,-0.4848020726994971,0.22110079712378122,0.10428178453126778,-0.2908753288310045,-0.15639158418224403,0.21661724592725307,-0.275506067815093,0.2680171591681096,0.4076809264245721,0.07875277148870427,0.14733624823884608,-0.44185308524238964,-0.14035288913835187,0.046631042027660795,-0.13663315406595825,-0.043470905881719354,-0.010152076405786168,-0.001176952339634866,-0.12801731600867075,-0.08123229680182176,-0.5534920225652427,0.2685061335612255,0.25439986620135574,-0.2245364559871774,0.02887580171208962,-0.3560635796294221,-0.14214102719194396,-0.39807605213321573,0.03418193559160782,-0.6794908793059471,0.09788117356771892,-0.27222439048912384,-0.19215867331130276,-0.48642210438049965,-0.10678495423968068,-0.005453888528100434,-0.16384244980459953,-0.4115387906766949,-0.16296750393024773,0.30370602853571227,0.34538744721399467,-0.5898618122710624,-0.24510685723771505,-0.06136984698768121,-0.39623931488944186,0.0805204743274986,-0.1294487258366903,-0.010029347899016609,0.3390487781754321,-0.170123341647149,-0.5113200753280961,-0.4651927851963166,-0.34307216521161893,-0.0022466403377064074,-0.5442796358757082,-0.33337405170260465,0.06196380393102345,-0.19811676232977388,-0.2497070764826006,-0.3099963169200307,0.257785917010307,0.204458708792857,0.205238124320329,0.3894243599890416,0.33836299055284086,0.2289139809428211,0.25828272996084384,-0.35922422971302015,0.061452670267883445,-0.24801517087224928,-0.4067887236705344,-0.021980846209665093,-0.31737859087659553,-0.3210868412553263,-0.2150328063249922,-0.045034801001051554,0.4745360883663612,0.5232174142278974,-0.2748433458822265,-0.48062082051415794,-0.6800873651073468,-0.24665313329839203,-0.09743478063696816,0.3267208420766175,0.03269794354799465,0.020657157919091403,-0.00006445040065356056,0.5172666954432026,-0.525745061072486,0.27874748108149133,0.11446294315847094,-0.3410947280877674,0.0698994607438351,0.0178092057380419,0.13236645349974752,-0.3324440999410588,-0.1758148550303759,0.1368215864229126,-0.4241416368314337,0.2142112330453086,-0.20221221271160977,0.7949364527131256,-0.06171374579725036,0.04186459310471256,0.09018644423894268,0.4450650177271315,0.011397965916400785,0.24444021118392667,-0.24065452767841417,0.009369759803489142,-0.033898388516541735,0.1555897315240041,-0.27106542268632317,0.030700814303905706,0.19718657514810997,0.15009411982380977,-0.4300286726121923,0.09557600719777942,0.0861284162153008,-0.289449853252499,-0.16309369427431109,-0.17482397584186615,0.1614793280567531,-0.27849809423066624,0.14716490963724327,-0.38255157037772575,0.4678195572707794,-0.03485514583641768,0.036520147812030404,0.1485051454451365,-0.26236604067833935,0.5001335054494858,-0.036921397575119246,0.20787638097169292,0.5027373192572286,0.35054574201036737,0.08526231866175325,0.12856855264170428,-0.3216927501302864,0.044474489970287634,0.34057168951086575,0.1259244366011618,0.29518230814268304,0.06588754010859449,-0.41568132964028565,0.22877229887464348,0.24864558355404923,0.09107320387501847,-0.06890794726534843,0.44883740495634883,0.1976821637364048,-0.18934149730661687,-0.24065411486272775,0.2699969939053734,0.3341277306182617,-0.000797201262923835,0.11412732540407054,-0.14676438292250646,0.49756144440817046,0.32889075307367455,0.15883014339474633,0.7257124746870581,0.11213576373068107,0.0411776005442726,-0.12136189705767297,0.3038767556925588,0.4944299171456238,0.33652212644177565,0.33686334853481215,-0.21612393315910858,-0.19229168713346556,0.3105643034503074,0.35643008073886184,0.10929730530438499,-0.37242672692618084,-0.04823451081406615,0.24194895242684833,0.2738022873298296,-0.4790747767604917,-0.23356536595046418,0.18289552378841076,0.2223361839915428,-0.30571882781375526,0.2242643848845791,0.0817932590700016,0.16452019100719142,0.2554100637453765,0.43220191810780223,-0.37841032831571053,0.11268308270514032,0.0770083353439013,0.3823630405341032,0.009189261046187903,0.11929952621501247,0.047216727085561946,-0.2335283198524611,-0.29202257680843324,-0.03245802542701104,0.1879548619143962,0.16245816977988814,-0.17533396202806323,-0.21248594013702093,0.3461662148162164,-0.1587908789427907,0.017628695219819007,-0.4343217868692477,-0.06115726214656431,0.1257241103070221,-0.41457036379934714,-0.12752987198862512,-0.09025016276222866,-0.15755630656122324,0.25511476908909025,0.09659918495385977,0.5279573131478484,-0.06348873134299966,0.2643929178904297,0.3727283690893021,-0.03827405175768347,-0.05433863998037577,-0.33979980527283365,0.01135708761801288,-0.18315045785764134,-0.2203696421631407,0.22753983239284853,-0.28173359962262795,-0.21720884393663648,0.18161261221685873,0.031264733978313246,0.15743804503645456,-0.20441216376852955,0.33380754509308197,0.34194019556411387,-0.4327301902241045,0.20258146036281777,-0.10952170757084405,0.34217942845380983,-0.18168862654679332,0.3743605363122005,0.11235394519011416,0.2177857552733897,-0.1482702216429858,0.2600742983010869,0.09489827833391189,0.36683717169228525,-0.06574055065632195,-0.37043542995456075,-0.016573354911028508,0.06348843130211228,-0.3553137014487798,0.07444743673102396,-0.05102378031147193,-0.1684475499405588,-0.08584007711401376,0.633356221058302,0.13271434744218108,-0.3676216027741526,-0.3489722839221559,0.4698443347670857,-0.27677081133527487,-0.3419763429691648,0.12538883086551023,0.31164542794928657,-0.4728042884013715,0.01358107930146753,-0.1558526600550117,0.15836421888143978,-0.17069424877550946,-0.33608918192335224,0.3616919582183824,-0.1673199906755532,0.41184099784897554,-0.39220892390900897,-0.12592182392945322,0.030500494051371983,0.02180444585538613,-0.32143555365963844,0.4063069173145466,0.04524200351062367,-0.20446596104486808,0.10905188340911857,0.29973377820462643,0.11817945159566225,0.24919272848273388,0.1421829404370796,-0.0006047308088311324,0.29880448326553305,0.16852254003969092,0.20013736980089716,0.29923770975490593,0.10466170822411536,-0.3601746619296771,0.29219395516732444,-0.26663222987822915,0.3553736283447541,-0.35153644418589625,-0.06261388327328841,0.026756650107845906,0.0017741963331452057,0.23172873450777504,-0.058336593909972166,-0.25964142315086364,-0.692143982666151,0.07581733164012398,0.04210742675648862,0.354432068359408,0.5236043376558459,0.25003305998352016,0.5097283467122496,-0.041739084806793975,0.15005815325342084,0.4479575193047618,0.11916985794439061,0.0719466836349282,0.24302632100944518,-0.32858114716553877,-0.40960003252662497,0.3205082326379074,-0.3063986328991415,0.3842903800725254,0.008541361416928702,0.26881359450773185,0.2049364119258483,0.16398624527652705,0.03543667754714779,0.41683642540288224,-0.3024183936426764,-0.19189576197288133,0.007863819406293694,0.024969864109115728,-0.4128884461452567,0.13508482885422515,0.036201444449954816,0.07722076638447001,0.016195242290546915,0.5198802802813299,0.5820230423479489,0.42497789111585144,-0.23029879833207761,0.39272891841310686,0.5608234114233418,-0.1118010549996018,-0.07903664192149996,0.3116811560071565,-0.47619514010574715,0.47681453258839257,0.06903617719345156,-0.17810638746474144,0.03752791834265918,0.14917263484922763,0.06810551128170428,-0.03301987513952154,-0.090988802363599,0.21494108006874554,-0.2100881763737559,-0.043541839652689554,-0.011847689721690523,0.3320095433361405,0.20103354404968393,0.00906835519849741,-0.03379078077974508,-0.06291300588825592,0.4233763153103743,0.5937255812603596,-0.1712610429725729,0.4630317299249103,-0.22509770305391255,0.206801727025832,-0.4192583053272162,-0.24260040449438436,-0.37366993435678764,-0.07135701102226215,-0.23685202735943944,-0.27435742730580404,-0.3437014433492347,0.4363339820162738,0.38947533338794527,0.07312554365892406,-0.2606151900177205,0.37843738443697833,0.35376294019582716,0.01264949250790255,-0.06510227382144682,0.20114665539064697,0.27398248549526644,-0.03721034100926229,0.09696993254253321,-0.14152162327979087,0.6243718041321155,0.5138383167827444,-0.23343615397931095,0.3023506398536312,0.5763787732224162,-0.04203785475587996,-0.29488783301467686,0.4278461792295845,0.3271868060572747,-0.3700998000204829,0.21208545160386927,0.23962650800219554,-0.39790510024299297,-0.1627545426012187,0.03575582167549513,0.03617637640203232,-0.43798865053374025,-0.2473786409065841,0.025895060699446967,-0.4323033556041256,-0.19422263628324385,0.1377159557591136,0.021040361258492173,0.007349890978912286,0.0739657645940052,0.10713804389511257,0.18787106553443705,-0.12500409275216648,0.0881149489598018,0.013394789824918688,0.1486189752185604,-0.2067429346249009,-0.27986353852944895,0.3139183783370884,-0.029748383441561322,0.1054024091825034,0.20446565545679604,0.4117263253297272,0.20159252398466948,0.47824554960134347,0.4649862807937031,0.29798671658455467,0.16590697375329766,-0.2122001426227358,0.2520228528606222,-0.11450532040845644,-0.17394654366874385,0.11056837430493241,-0.30775476839455246,0.24429556620091958,-0.2942547745852716,0.10378011478989238,0.4824402693260554,0.059841472303076924,0.2450444613095928,-0.2467443320588085,-0.36255489934075763,0.013089667216549045,0.01054966266967111,0.31472607428715754,-0.39776128198035465,-0.18603963831190964,0.3345971772121416,0.3720131304245606,0.0421778692994429,0.41481901712823094,0.16101707191044795,-0.19804918120518544,0.25942887650548063,0.16274155981296956,-0.3628905672354723,-0.429120111938355,0.3908324513625349,-0.3781760693977412,0.3415705455724043,0.214314829911893,0.14594253013876785,0.4291461660530557,-0.13929054763844834,-0.008298625572309669,0.12537029691173857,-0.2974214276873138,-0.010365168462664448,-0.005704561498338275,0.03191169538052374,-0.06543689210202677,-0.1569396363371239,-0.5219552306760058,0.4209699353113024,0.3077821568190495,0.26142587708103093,-0.32143904694888104,0.16533456129875565,-0.13623063506949565,0.3348060664201578,0.49400013281859523,-0.40599439115603486,0.4679977976062275,0.3838644091064476,0.2724246756257669,-0.23588652704065738,-0.21292274726045293,-0.14643772887782175,0.37632195606594104,0.10894572605570889,-0.2055114682570785,-0.025199832184663522,0.08350759460627986,-0.16621273837592832,-0.2944572455382623,-0.15408556090307618,-0.0630286826920553,0.17148991615887704,-0.19321714751541297,0.05858532199370876,-0.16072059037661876,-0.47907538850175735,-0.4797683724079369,-0.21316331819951284,0.07074671554558626,0.3725489954379359,0.3939815506190846,0.023373096465674426,-0.15702578847925341,-0.30498339056409063,0.26983340233401476,0.19970265397678766,0.37180097826440095,0.1754635278393013,0.04033684431998741,-0.15315312219483745,0.08404706614541402,-0.48557068617038723,0.4503428109807534,0.07331814433363659,-0.31023462788207123,0.002133233828332476,-0.2084260144427519,0.2812695792221894,-0.1543609277494569,0.3619734194119507,0.4770874086575577,-0.4803569822129846,-0.10772919838566876,-0.1787719297992007,-0.22353972381861142,-0.16099307663931825,0.05800778419349362,-0.15504080039763934,-0.025038041636732622,-0.4647117663106217,0.12308155704113655,-0.10020688352179752],"bias":-0.37491897003790187},{"weights":[-0.25462354020124134,-0.16890012645500763,0.49281270253919685,0.30636482151696987,0.15936644027750013,0.0865709709621667,0.47274598846024696,0.46235997669541673,0.43425558528452446,0.06032855344502752,0.06894754710871354,-0.1882623056421897,0.12272432493445873,-0.09735122708796085,-0.35212124994316385,-0.49441525170052203,0.3919627372576491,-0.4450091220601817,0.26736440426203356,0.02662459607134382,-0.08246121915939941,-0.45696605405965585,-0.4774117003253222,0.2916952093957257,-0.3863489839776735,0.44396187648025687,0.3938381711152885,0.3114781206402697,-0.4181834163056781,0.15730946652532318,-0.10709692904204826,0.39674164785651156,0.34120659081332816,-0.20661429765656325,-0.032018077927573156,-0.23253230869800115,0.25778662368960137,-0.2847558569894402,-0.5070246013731424,-0.10429970302925938,0.007172125209074361,0.2385330386459375,-0.002664224392397641,0.36563741884570644,0.049765816621331505,-0.1871003044546662,0.3811614033118282,0.35747933477974897,-0.24239996484253606,0.39316743557708334,-0.09821370078386527,-0.39674930643551387,-0.08080183346924663,-0.44559008030814073,0.419136709507971,0.4197067086657893,-0.03337592292199232,0.2773205465555175,-0.04593530031141935,-0.2520913417878934,0.21131598824931608,0.28215379220303294,0.26302702429850794,-0.2250656448448766,-0.18390171733757046,0.06682699340315833,-0.08054069121502642,0.008278806880343586,-0.30592583784241917,0.1798534520356219,0.05612232860243517,0.015449824265908754,-0.041071412092649674,-0.18545635916417164,-0.1935089285711893,0.019459953823574145,-0.03041019401057132,-0.05723349173058444,0.3172129254545633,-0.4304935170476695,-0.00851369879633013,-0.4231135265067574,0.37941736698406925,-0.3637039882967683,-0.40991963968038925,0.11085625437183677,0.4944911552450968,-0.42964417442809055,0.4692363080151607,-0.2329743578266078,0.4583323653113219,0.29168145923521716,-0.416760298453647,0.08884262315118946,0.18405617575751712,-0.48133532297178466,-0.17859744747404857,0.08411646129707988,-0.13017763186810755,-0.12982936334160652,0.13448427670167137,-0.45064328721795266,0.16611693830058993,-0.7125964595586435,0.14965221636646886,0.07840309644424212,0.14569841519199936,0.30302346960823706,-0.4691429010575968,-0.41823097500376955,0.028767424840737348,0.4170337295261277,-0.2942639174668531,0.2301552763724266,0.37202838877679634,0.3859307622993851,-0.0925659325331824,-0.09140223522045782,0.4473674790387747,-0.22537123015764307,0.3865690952069953,0.36594091066317264,-0.11794816480858446,0.07322489702632129,0.09283019721520751,-0.013951910850229392,0.029176964903588624,0.36807859122768327,0.056238240044000784,0.0631166885310336,-0.37296224356641033,-0.14519361028462258,-0.2809552095504697,-0.029122839528942197,-0.2697597052937551,-0.5931420843367328,-0.12123497070809613,-0.13816353835583425,-0.17927986891361755,0.34627948200505787,0.006716971879798139,-0.3514899363563216,0.19865786293723758,0.006088320701894591,-0.17123535333012405,0.2043204762178265,0.2444044970786931,0.43121378521756626,0.1786203748843787,0.17577965036197424,0.6852766147862482,-0.08505779414664905,-0.03997003190013572,0.4489343612955147,0.38425993925810586,-0.2066270594266804,0.06072229860406634,-0.05733619695704166,-0.07116238049180984,0.4890759150066579,-0.36755886367624524,0.17811109322871746,-0.11083295312517714,-0.4551228406759793,0.12578829164694127,-0.23273474291677884,-0.199334701856566,0.26761326756089976,-0.4495850186092438,-0.26619017694767955,-0.19551151548377824,0.2515723330889278,0.2608003773809306,0.2434908085784797,0.3720011659996473,0.2132986480513528,0.01898114691978394,0.3856203800504286,-0.06794531578330507,0.1582452278915785,0.11250637435131942,-0.12086479211428773,0.08054814911064644,-0.005215360329485565,0.3892227887561459,-0.2196160321171438,-0.12125302181606452,0.2732765797970145,-0.22113225447630128,0.002264762048075828,-0.00771001539862329,-0.05153865335419861,-0.3329436767592079,-0.17386251332113284,-0.4144470645678875,0.3557944966618483,-0.15471033972100967,-0.05565434312960976,-0.4903893132702927,0.05700727414195795,-0.12892372036177827,0.8462588134811883,0.11186092800571792,0.07451877814242465,-0.02823692318807537,-0.3836096677490363,0.4243481012031262,0.3366177973012104,0.09773424729597019,-0.07726492147151384,-0.057444408056669144,0.0447690438903129,0.18470526701096557,-0.3196494680931208,0.15335620787224094,0.2847139638492419,0.35133747475841237,-0.2364046530342824,0.2427617630183968,-0.57202870816247,-0.700021588293996,-0.3028217359770591,0.17089895938507943,0.12758122104264416,0.3489231816875953,0.4798782521174967,-0.15754447669796415,-0.12433569309713009,0.3969464065938051,0.03388865587300853,-0.32813792319818635,0.37461392096509294,0.31127525421775953,-0.17546252951130994,-0.1968242912329377,-0.4031347141841376,-0.040596983070051856,0.4858357521125399,0.025076852072727952,-0.009777512359474024,0.1967918435127972,-0.2531271807490646,0.2055225772220306,-0.1148871470819275,-0.2353539268157502,-0.22419945585916248,0.06594984783398375,-0.4622155054168939,-0.14129583987652533,0.08218006096871994,0.37617328040419173,0.2397120491344178,-0.01883725312737632,0.457610625338242,0.3788517902507626,-0.41489797190717,-0.04197056450843507,0.20741414796731072,0.06904312663841965,0.3198737192715341,-0.45822795266927596,-0.2426459717539134,0.15246222021381495,0.09512689144333605,-0.3880796830728421,0.08283609543767484,0.637193115482325,0.1623988326365611,0.27534166530033366,0.7204592080558057,-0.08245336688617866,0.08729648820449158,0.017885321642781934,0.0011725815669820757,0.21688627302754251,-0.14107050195472506,-0.43334682569843175,-0.24256293471132878,0.14326995838464718,0.05755733560101917,-0.1654912549343839,-0.08845258610734327,-0.07783463865021117,-0.05322761690877738,-0.19268122538114796,-0.21698591258920025,-0.2007855948017969,-0.4369215551739488,-0.10240581848355997,-0.4180630899859587,-0.6092262492640207,-0.7418055227520708,-0.3393166064015702,-0.5619027062552615,0.5908307941169277,0.6816751759516906,0.031255113601471804,0.06426450376424912,0.3809871487046129,0.426891283660473,0.2794354741862269,0.5614902550463123,-0.560950935723905,-0.00009899621305753459,-0.7055572943559203,0.02725396643870473,-0.5115893759656277,0.22958238328094752,-0.14791051171664568,0.2376597748293501,-0.32746780536924136,0.11160162109829128,0.43157626016849643,-0.24410317671205373,-0.16744056983402522,-0.43969054602422714,-0.5206803385091506,-0.3414783167836632,-0.37189570641298564,-0.23443319610763302,-0.42592098844620113,-0.3682797078893545,0.14436211183301859,0.2830057692153855,0.34872193426908943,0.04964237092017307,0.4045920067404202,0.2540908858784774,-0.15066768869451547,-0.08924397755275176,-0.2252265911454673,-0.10898060531474639,0.16366821616291746,0.31952733956169144,0.353616325440208,-0.09020813437298615,-0.34782283391223245,0.30585993563528974,-0.3483253258932733,-0.24117901489685514,-0.13474233085752582,0.014165473813958723,-0.3246073954744674,-0.7502966406909423,-0.6342829649208445,0.16210447328706484,-0.4743164957440649,-0.10173088579648422,-0.6309923767493619,-0.29109011514147876,-0.30334010361148067,0.30275730971164777,0.34534186774709674,0.17319841069316594,-0.23084430974275885,-0.11563944382692104,0.09732245074052827,-0.16536268727056896,-0.7563099313321947,-0.6044278337837201,0.31175071085122946,-0.3495234414385542,-0.31330032363569715,0.18419202006422397,-0.3961482522492925,-0.2261500215860818,-0.44201547702773103,0.18554705743843775,-0.014689758177010005,-0.4036035176783797,-0.4614804913418304,0.029365269172905415,-0.04067299469421953,-0.24673743073607884,0.17423331419617505,-0.05193857222770408,0.28707722049470724,-0.17319489710290392,0.08409956177784149,-0.1792522554106456,0.15576978329008856,-0.19678407421047006,-0.06216585512752204,-0.1981394013687927,0.11166705469293164,0.05461928568798249,-0.48018484115663396,-0.39097487007240106,-0.285534857173087,0.36012669795088054,-0.12505092142780008,0.15370036899147754,0.4938621552588083,-0.02342186719031769,-0.26575831696211066,-0.1325725665308778,0.2588100445270971,0.4448771214734255,-0.0030559231283809793,-0.16354010478503042,-0.34186168920269716,-0.03481668997010658,-0.502154972690484,-0.005549684573491385,-0.43120012817879105,0.2683365175372099,0.004487295915763943,0.18584668988673123,0.16282930755551636,0.16268724073519536,-0.11884096169921371,0.42869371698700603,0.003526632909761537,0.2842121482368705,-0.002215135036071206,0.1613076853615605,-0.31717585993338293,-0.004818355878446146,-0.18642699657251086,0.0050398887032767625,0.3516297433469018,0.29814357641804046,-0.3679739634687654,0.10098500397802306,-0.16917109632434968,0.24990180977453336,-0.010515198805738335,0.06987850694987735,0.0389782093743153,0.08933852404731037,-0.11134895919312891,-0.07016712962999366,0.12231110008577666,0.21275428334285948,-0.3674883696235958,-0.21524248250875422,0.09247056125952643,0.34508432488900054,0.37805745852381445,-0.2061177785610365,-0.14224650674672396,-0.048910484076311746,0.31547310520981936,-0.43754645048635515,0.04945684981355141,-0.16253028498180047,-0.37102263337634106,-0.2462342602328413,-0.20660712492123068,0.34162539821632487,-0.411386536706209,-0.38686799682665557,-0.011856131577960304,-0.22778226435214555,0.23757596476878223,-0.12300759712411913,-0.35465088011750917,-0.05460220702649305,-0.1131893345546997,-0.284506932716894,0.3601296071190343,-0.328747960263774,0.4150480095237076,0.03976154582186375,0.20239205999972643,-0.02644712654976291,0.48772463659798465,0.45253768296653707,-0.10325523415205919,0.4373670993657136,-0.08602592326166926,0.4377983375681017,-0.36710352370839316,0.5866015381352936,0.31980114657335584,0.007048420487886734,0.284467392387999,0.23745799571160453,0.09575803103357618,-0.19889968408228081,-0.3098246496418324,-0.04651153096551233,0.21167002046631803,0.14897297886685917,0.3108589328886186,0.17798308243751215,-0.029905342964270384,-0.14307908056884688,-0.15674513037105675,0.26936607192017165,0.28115526133311625,0.2086997060694022,-0.1915486740364368,0.1101176546940704,-0.29003291552314264,-0.22112735405576356,0.08856327433339202,0.0071499385416814495,-0.021863051559049308,0.20549245820860165,0.40407715264105754,-0.14955029314518878,-0.3714079885072015,0.024600217766896405,0.20186629088954144,0.4326638119197976,-0.35089497431457417,0.09869268067093664,0.5271185107034361,-0.12162516953306515,-0.18417786423692203,-0.07473431370900949,-0.33450291071584903,0.31010870297195914,-0.48660265874927755,-0.10627888300993617,0.320945541450957,-0.16889687369830877,0.06674179185180669,-0.006954454034559086,0.29762570235352803,-0.10376117247868963,0.2646300794886038,0.06507787433559092,-0.16959147158152885,0.21509535451890727,-0.03671183165338041,-0.11741290567432468,0.06551809787971241,0.05836910988661755,-0.35611673354533274,0.4331682191160282,-0.05249923336832185,0.36184779354823005,-0.1277599198394566,-0.33096832295497286,-0.19569826254242942,0.6261018761499219,0.37652401809228575,0.06069062873537231,0.13619888535259317,0.05056199870793551,-0.49804491291914743,0.0332778461814348,-0.5255860195756694,0.11537114597838656,-0.04717764112424017,-0.07193611061621782,-0.1304987113698097,-0.10564238588651174,-0.006615304393402641,0.13383492663025734,0.5863807011749815,0.036789628643113165,0.28405123937260013,-0.08800023499281964,-0.19696820506298302,-0.16747647609170174,-0.3499683188026582,-0.4239386627747715,-0.2030784758848052,-0.08837546667877082,0.4186723894880375,0.21569715134877662,-0.0005502665607591468,0.13800533422073571,-0.2143070717894522,-0.12729667320298335,-0.16634453020537288,0.2893125759612605,0.08819122110193778,0.0651648408036937,-0.5764749804127579,-0.5139381412269405,0.20992745416531902,-0.22654744806967045,0.33457227201936146,0.09133208423024623,-0.09392486188970443,-0.0034921447027980224,0.06068398191922719,-0.0515333148251924,0.2508342383309492,-0.012856018088060908,0.23653789377281365,0.5111466361425477,0.4294853018856807,0.426454768269668,0.2875424329997138,0.20563144240454556,-0.28510362444505793,0.34277200402822566,0.11613733039365925,0.23657909621850917,-0.086298099072496,0.3978455496976691,-0.11182313766473471,0.24999958556896873,-0.6133887220949445,0.10000751752150411,0.16971276087122109,-0.016845103515714412,-0.22222593905797725,-0.08774406535767378,-0.1756693290781222,0.1597284928379423,0.06970346507213178,-0.0058162302964462256,-0.1975892064791733,-0.2031081662749094,-0.18169471050642094,-0.2490150355420743,0.5415228118225074,0.14037558391702798,-0.14945522855983076,-0.17667572894188743,-0.18338318362220818,-0.447076433213095,-0.34357708450853636,-0.36135793306045116,0.3779629989612715,-0.08645385908566906,-0.1672885924182065,-0.08912423185969075,0.03530262462552834,0.3657586525561588,-0.41330032662107985,-0.09963587978614928,-0.22857744976971525,-0.12181532450357287,-0.02164068465728961,0.30214537855185575,-0.3285000417264613,0.09309043709929112,0.4601192722377299,-0.24380450536301634,-0.44894616211386745,0.3489700758981742,0.3691839603857603,0.3366059659552157,0.1811340270013868,-0.48766867264688685,-0.2538288567776174,-0.12767787152738252,0.2322792835233003,-0.34365582360068375,0.03520219218432639,0.14895723943194164,0.05328019743899204,0.14791889289360857,0.15503808161054486,0.09724630836358177,-0.15902442168123002,0.12426232641183425,-0.4054941558392226,0.40502964100155364,-0.05413235683581731,0.10939632376541729,-0.39162160044977534,0.15674967266874648,-0.07645749209222026,-0.2162715799993357,-0.31069482060880255,0.15005575905713223,0.017109627680742118,0.04702537456487704,-0.5012203098737399,0.05580528133086417,-0.12890392613790916,-0.35443115802731157,0.3936688856487853,-0.4586528791162512,-0.1846684520512234,-0.4878850759888327,-0.31083102347259595,-0.062910020952313,-0.3476139080448807,0.41998177167591827,0.30878221434318665,0.1635709895364361,0.22114819578380843,-0.4184118629826151,0.1210935908589681,-0.2112794389044452,-0.29356165038648624,-0.043710844713369335,0.28158960339444516,-0.16921856387452222,0.09216448092713395,-0.20327917355627242,0.028491740702751126,0.1457896548467975,-0.3530374185187188,0.08267648234209514,-0.0652428630393181,0.13344576473421163,0.11515353337137099,-0.2645803696115317,-0.002081291596421009,0.2847229893587355,0.02047052358437318,0.4043724138077842,-0.4817761899555777,-0.27619716775949127,-0.40448288615927513,0.48824948368036036,-0.3335725901768534,0.3344135583885904,-0.10396702597781737,0.3934710326613545,0.17440556803816004,-0.2681714800574919,-0.20996265310871237,-0.192333535298043,-0.2864823865874969,0.2843159672051254,-0.2787195325087691,-0.04987490040550768,-0.371724553971198,-0.03348460468107678,0.13107692805513485,-0.29994468763689164,-0.15541466906213763,-0.03718296259602511,0.10146325965747584,0.1517793096492647,-0.04116257478616947,-0.3186876792113882,0.23630677507493036,-0.4929200914423988,0.2993821432272967,0.10468189029731367,-0.036093200457641694,0.029623703675010965,-0.3898599528642779,0.31798368797170135,0.34372616891320307,-0.23106736201508402,-0.16115080226449593,-0.09140023471621837,-0.2244553688317596,-0.09134295275216879,-0.054231071502220084,-0.4194756031949535,-0.14413355498275943,-0.4474570388255487,-0.1795767653831607,0.1527497524591543,-0.2867587816111556,-0.3941342041290105,0.11216138892583294,0.12315591487112706,-0.15070353499133024,0.23734489348776333,-0.36412122501268707,-0.07587016252753709,-0.0296265826592248,0.2274925330518207,0.17819648225985607,0.04701240159136888,-0.07149180204226302,-0.1048266270339413,0.2826143548529043,-0.16276861273400997,0.2888771405159035,0.4428928356180407,0.008992997360091579,-0.38760549369897795,0.1889681921973228,-0.35736039593488456,0.30133066912862044,0.0693316038679873,0.343678617238171,-0.14883316396286647,0.06626097533132394,-0.34399183804506955,0.03691685554918244,0.30537860589096716,0.028621048139618077,-0.18362222914430548,-0.14001649080798462,-0.4716355746584122,-0.27871484879315434,0.39543519675477934],"bias":-0.12511990138522985},{"weights":[-0.4553470802727009,0.33273079780483705,-0.013518972886362723,0.08145657064937595,-0.15297964935879582,0.4163017452786111,0.21936464795091215,0.13286232237057605,-0.3722498143920723,0.3859491797532968,-0.030677351001410003,-0.31747857280081115,0.38595374874745536,0.054810674155422845,-0.0737376204443645,0.013358995545031949,0.4087636502522245,-0.2984802311525838,0.13000160197741084,-0.29674367287618764,-0.40555494400436465,0.014772616292497487,-0.4507796058963527,0.24860980406303468,0.268024977122423,0.35092957454449714,0.30889568587015925,-0.3428833191327685,-0.04519658383189995,0.3240544268049237,-0.15113735206323953,0.2133238600328391,-0.2247192069556756,0.4911564688572745,0.03316641876338313,0.42969274414694336,0.33205792904019277,0.37854288629608407,-0.2593853376753166,-0.19727282248043573,0.4001799010835744,0.3324394559976679,-0.2546837744789232,0.48073948600203087,0.19629215136523853,0.2014465985642165,0.2001594452588169,0.3202214579149743,0.09586636800602562,-0.4341408788817869,-0.36001340509030655,-0.05503484472290476,-0.37247878936973544,-0.3211008922653904,-0.075748994039043,-0.46957859088718124,-0.228938081202829,0.06104264271151316,-0.013393794029170847,-0.2501005172756201,-0.4224141460292976,-0.19438215567589467,-0.1905005757793808,-0.4837707254011979,-0.158878472395663,-0.1506545713811061,0.15858728757012014,0.3716082188051802,-0.0021565596201869783,-0.3101521263737038,-0.3853075563388609,-0.43956376106762823,0.009400700356844571,0.19269121885845011,0.19037137390993172,-0.20881964630245442,-0.21475630699893936,0.061111098751898824,0.29445233098365936,0.3564054960464094,0.45030694925101983,-0.3844532715492004,-0.1269592411467384,-0.3116800250163825,0.36506792262484056,-0.32777002391300014,0.06469778807175852,-0.020333793806552647,-0.25780193756646247,0.11094880413855653,0.13457507469928992,0.4268732857145046,-0.5038354462553447,0.2649203920908612,-0.0783229723892256,0.18108942279121457,-0.15282218891747754,0.06071950342794181,-0.42532583720615325,-0.42590536552904157,0.3429064646197223,-0.19124849178102357,0.2998305131705892,0.08254056655948494,-0.21957389035628416,-0.07203398082400263,-0.12140740957515396,0.006744084760793808,0.2297628380339114,-0.5015715634930972,0.40872520366753173,0.22156932421666875,-0.43824473906408934,0.36230259192315617,0.07690635358567377,-0.18571201851921057,0.11942729762866192,0.1262139452140768,-0.4817116838182907,-0.1013829190784707,0.2865861587665312,-0.44300769959972575,-0.20881475994057389,-0.1382284123389593,-0.25210633546595507,0.18680524700374662,0.34304953400733085,-0.383291109523226,-0.07226904174672227,-0.06391679727773628,-0.10860128200637595,-0.2804171676979281,0.39145587470081894,0.28946451361076364,-0.2345605249795467,-0.21869998566507906,0.37758333773620206,0.44085836789115584,0.05540827461992133,0.1936033729842579,-0.0053516321909092834,-0.3200185806250454,-0.3945873588083158,-0.27826459265834086,0.38404394471459635,0.33382965765668615,-0.175325689731406,-0.3524497257011755,-0.14154531856246444,-0.515638749599625,-0.08293084806232587,-0.40355703530807524,0.0770735551670868,0.06403668437049258,0.5692797209205933,-0.16599550298416646,-0.21325231149451593,-0.46432212145646673,-0.01870273625261591,0.22172958376840896,-0.18041714622894597,0.36261485015768524,0.0999924885076512,0.008932558149296863,0.2153805963690208,0.017276677074131396,0.3079172418415938,-0.14013575279676815,0.17014434626074237,0.35997202039629816,0.206769891971305,0.15084479292539413,-0.0034395313018839896,0.33787367423246206,-0.34689647943632457,-0.2319563838813307,0.23433414816493864,0.0568070458125791,-0.04195694144328028,0.4402714609981553,0.07945318565496175,0.23667361071914925,-0.19755768196095744,0.6524284087962469,0.4008457039735046,0.06356062124295685,0.21864891141374954,-0.3265748726265338,-0.25201614979592124,0.18845915394114968,-0.5100867281903309,-0.5833544467569678,0.17650370914543442,0.05243416110506562,-0.3403338500271296,0.14751550596871493,-0.27057054983269246,0.15585837938267963,0.22046486985210748,-0.21952051131115538,-0.36738179229177625,0.08924332359733189,0.20206750044846136,-0.1674974420537524,-0.22821478010162738,-0.023859679487019322,0.2200550633987036,0.36094998444183574,0.39438240659247736,0.3430814387262542,0.6082423151218096,0.16420945717722887,0.37282019563268765,0.15514859078480114,0.4598052404949669,0.08264216623185933,0.2711518283624496,0.07483885681629945,-0.08053458934306036,-0.08529121023228575,0.003948575307166714,0.3957140735922317,-0.4952722622759281,-0.46584799299049395,-0.15142842198658935,0.35398571647995813,-0.07026849359732022,-0.3563060271361673,-0.20879792263034755,-0.009058556706065876,0.30064603801467443,0.25544898899386054,0.2140987586338817,-0.032967449164207456,0.0553540375426279,0.2695175400471336,0.03440672705552247,0.18276282584383383,0.1641397627118897,0.32285443593782936,0.13891253630225137,0.328246780863292,-0.06577009545215028,0.09741112749468005,-0.23551948871479939,0.15668410937398866,0.06862134343799242,-0.12942742649755412,-0.3445058001130694,-0.42331738817266984,-0.46739856669704705,0.24439818394684454,-0.30168732307508156,-0.32377346422150766,-0.11389290137353335,0.13699465840066394,-0.4189895033153281,0.14137163430375838,0.35994232182335095,0.28918346539330025,0.33401727100036555,0.46683971156427795,-0.09867065000005917,0.19527388093203205,0.07276104413458324,0.3762732308973693,0.06767249560407473,0.20540538743777897,0.5376030991336953,-0.09185859311788444,0.02463287833198594,-0.21696538139639915,0.06831317480908765,-0.3721924779830881,0.013899034380346233,0.38814667937378794,-0.13393869095408642,-0.3573733692019369,-0.44447104279453803,-0.06508925593587597,0.1326361789248003,0.42904332190992667,-0.31166955889670445,0.4355093466526138,0.14290733043405426,-0.30722694069418394,0.08010778634049921,-0.07678103196571928,-0.08383741171862441,0.0343211018067813,0.25322968268601775,0.520257792361631,0.3427131361710076,0.14382141711789923,0.08076034296310913,-0.16005306314887693,-0.2100551765391284,0.1773703659497199,0.19175741040734456,0.15871205771086377,0.21577019175349488,0.1660530478276435,0.08138299676003823,-0.08602345765342845,-0.4483749253828445,-0.06811960696446462,-0.03069179104576828,-0.11946369713282848,0.1196291955527717,-0.0057861092067054715,-0.3974283579730264,-0.14216263934258408,0.5274321813752577,-0.030543028427564414,0.22804708335926668,0.2763545984358268,-0.20123378774414735,0.27556006024101304,-0.36346104058460743,0.09357321757837972,0.3834892246751617,0.22398836417314322,0.3287305645092322,-0.10083474668633877,-0.10435325579607298,0.4154247044350102,-0.10382580944819421,0.4818095106837351,-0.08302594178755132,-0.0475730907966304,-0.2336438810185813,0.1098166723372339,0.1491762633651661,0.4804777432361416,-0.4158128500071583,-0.12806434151076163,0.27774018137409584,-0.25994272790116546,0.05480755791754209,0.19107558820713727,-0.014871279504915702,0.3444667585638002,0.34978728453998215,0.03580893005828681,0.029339111890667617,0.045790996784232214,-0.12248425330043498,-0.3201537902123746,-0.5617682334439398,0.05559745760170094,-0.09495540711572445,0.2782815750807447,-0.23196151915915497,-0.15114160291171205,0.45726176241565814,0.03315856558682516,0.5949975366452905,0.3992435018787187,0.4496608900178786,-0.06125443928724603,-0.029158461833698298,-0.10518720894455508,0.3684097801952114,0.11067273268936018,0.047420359689397173,0.06331240679777207,0.2521389387632374,0.42776118432244387,0.39578738988669027,-0.28922046461514417,-0.08489402916692668,0.004915950172589601,-0.005444794918619235,0.06836657042981265,-0.5993644132660141,-0.5185266265410481,-0.20024424704872093,0.04125712827454129,0.3458166189667503,0.12427229480290435,0.06679654511425932,-0.05087463588817843,-0.023346929357184642,-0.07204060075906558,-0.3219724606745133,0.3297661788164283,-0.22815447980460288,-0.11438707123332409,-0.14683053815014543,-0.22223051133531638,0.007361138267896808,0.05402032003126078,0.24980779922420404,-0.27295004938643186,0.14552683900016183,-0.2847342997155333,-0.3502421309640754,-0.07665429695553665,-0.1797450595560436,-0.3570438570338379,-0.2836399518056829,-0.21211330970554682,-0.4107557126655274,-0.41327410682502547,-0.44279321602584315,0.19952700888817787,-0.013313403847975268,0.1100418828417884,-0.13996903125906474,0.06819975301544072,-0.22219549641432468,-0.10761096252689228,-0.21956629961456692,-0.3307728325930838,0.07801248762961453,0.25050245386992454,0.02040909390499123,-0.14561750306803337,0.2289116461223789,0.18846456109593945,-0.08063431029413248,-0.1753014882639914,0.4017327203446411,-0.049637557913457864,-0.5126477153486384,0.16234820333668945,-0.42844468665928875,-0.07625795375267802,-0.6011528305965547,-0.4659525951606191,-0.12411797543759887,-0.10887703696328213,0.09185476209907383,-0.14012975208313477,0.18329011057204078,0.06487078592038427,-0.1522085432008605,-0.48492538856622514,0.057927489775479936,-0.28263529785882846,-0.021546391783531772,0.1706339358545082,0.19443111866769253,0.013608969749755631,-0.3409939853092864,0.060415950844909506,-0.34548409457923274,0.3861309216803254,-0.17803280537019806,0.09431614333285301,-0.19780121101556006,-0.14464929323889342,-0.22203350841248976,0.3192943849184261,0.08547677518182878,0.26422174244483637,0.007572259505517895,-0.05379137036068015,-0.24902512814280925,0.2127494110468176,-0.01144450788874342,-0.049030574834478716,-0.25259668249473677,-0.17915829115370266,-0.03556138956694709,-0.2567648733488353,0.044478677677871156,-0.3716703473296156,-0.04342305749419613,-0.2935978039470661,-0.5114753374136574,-0.40133027531874343,-0.21234774605647821,-0.03364284255497907,0.11025391159926198,-0.34682224811463147,-0.37738840139161556,0.11759145850575492,-0.09478960265198462,-0.483486268254243,-0.3385339217322998,-0.049706208939685984,-0.43369128579876776,-0.49403972146999503,-0.34544729333434904,0.43932446980190626,-0.11122091330424286,0.19054698619941235,-0.17537086064032592,0.4361328956132048,-0.4164419131491063,-0.25014560574449396,0.15116302614923652,-0.23282607668773586,-0.03872919467224209,-0.13620647751229017,-0.07744717239162094,-0.29344719836793437,-0.6269355749178817,-0.04680370787585781,0.35678017814013785,0.1606903048821092,-0.4491837160313895,0.24787541856156728,-0.47672561260489377,0.1883458550580348,-0.11507621870749178,0.43336569586683527,0.13032511336634844,-0.3097221450315779,0.05491893231781451,0.30455216922050604,0.0150924602729736,0.5110517851549221,-0.035851438063593616,-0.4385333994784395,-0.13574109943065402,-0.19383945453854914,0.21647479498450525,0.036811585279928484,0.08949737181014189,0.20976624250223327,0.11647370370933546,0.4314558928062636,-0.3503229667348171,0.25170566982361153,0.03627184521317076,-0.3208333170441883,-0.3534308342778038,0.43783740121126774,-0.44017073569598075,0.17969562702750203,0.1982482752278183,0.14202787368218542,0.014535570258602712,-0.16072487721284553,0.21189418043516697,-0.5112510500516733,-0.10141780751521101,-0.2188809278120196,0.0684413683551259,-0.010769022659700473,0.19108501563562416,0.3604529763956923,0.1737105464457648,-0.3803347804800459,0.12247373447392598,0.02461517856388444,0.011091886679119877,-0.1596088919990947,-0.04269221822790146,-0.43869083061820674,-0.04800618126027931,-0.5762889804736336,0.2544965791735288,-0.536591861597912,0.41407715258918976,-0.41404996474474925,0.4871902708308222,-0.03766976081579266,0.33949225270846206,-0.18574465039228866,-0.0724011047605742,-0.13492978987594628,-0.2534921003653517,-0.3701828654420776,0.06803234383568238,0.24984524346233217,-0.36657504486463927,-0.22154923878059624,-0.245044198401299,-0.35500549827416317,0.23756162656782,-0.27940304520701686,-0.4639141166743452,-0.32398676127261145,-0.4055614553773282,-0.024312945410345666,-0.13906846902761133,-0.1240248891703555,-0.16256002628953486,0.07985307961493797,-0.2918947235919126,0.37098435398586427,-0.011788006555054308,-0.2086678560407578,-0.3212828676030241,0.05844711091043808,-0.4528572935915278,-0.4837321607382641,-0.33798144327299795,-0.40215289334065085,-0.009271074438954866,-0.34339390001925435,-0.2529407779762884,-0.14635318442210526,-0.411428122322994,-0.3628468398904434,0.10263394980523483,-0.5173158891627483,-0.007146503322276456,-0.1439840593764413,0.17037364417466644,0.0763522852315391,0.5303779335117292,-0.22092927343199942,0.229679351501786,0.1929238796112367,-0.06415422598834497,0.04244147752163937,0.322927403863189,-0.34540316957605194,-0.43551604660365467,-0.3274585624335193,-0.12732764246967293,0.46321254995672634,-0.47581724088653865,-0.211966666812746,0.3501884606136215,-0.2257241034586533,0.29531221418959036,-0.538740783442595,0.36846724865914726,0.19051421024485465,0.30200575088536896,0.2926841646033841,0.364254737141654,-0.11247349197043809,-0.15696946552106425,-0.1897324690877702,-0.3940991571105053,-0.17902710723232573,-0.2685013695749264,-0.2922239465644491,-0.13658745354408108,0.16550798315356136,-0.10113801940016147,0.08505492447105013,-0.38882003495964906,0.2815043679013738,-0.08330112024255958,0.1446682367658766,-0.28789798297198405,0.4678172305747299,-0.2653818142100426,-0.21348438207571613,-0.14252377960688123,0.3129756680762238,-0.3400059308549862,-0.2716063447016504,-0.16037064961418243,-0.24483461115323343,-0.29064349964325137,0.23101324743732682,0.22457072016529578,-0.14789903340979427,0.36705937996202226,0.3726696744123877,0.19625177468229,-0.002120401001841133,0.30397186973524887,-0.12965058255632075,-0.37247904422142275,0.0656813232328387,-0.0319156239624059,-0.12943371255378056,0.450469568406824,-0.49439913562963067,0.41669590620856356,0.10171966886380916,0.3980356800586468,-0.44202906183188495,0.32175758174756286,0.07650259840801543,-0.46797784698422107,-0.26778331338750677,-0.01028418076130586,0.2608835069642869,0.3069629431079906,0.15896593610526313,0.035839621003395994,-0.1323100852380299,0.4319374936145114,0.14585327078033752,-0.00479485714251586,-0.08994993881646203,0.402779691651069,-0.06864213814156994,-0.15853904934640767,0.2391811318450605,0.3872049063205713,0.10851681613127166,-0.3208002799495937,0.37348108883885317,0.08398281062791298,0.40795771014112425,0.07401240767326255,-0.05289415880177431,0.4945577524478162,0.032663705144503785,0.30562230617675823,-0.45646806933439965,-0.3512356416092457,0.42639531255114044,-0.22587684288648796,0.2075168055857586,0.4794641899839912,-0.020329724072008774,0.22771346656735206,0.36006095290833917,0.41594747605189825,0.6942467981190802,-0.1257614511561876,0.5429725826634941,0.2367677253353875,-0.22318876986983638,0.32286329953464854,0.6259741056343845,-0.2628800686647513,0.09927315946706285,0.3352727320384104,-0.07654175341535992,0.08584860551013608,0.34434068052465766,0.3222080457596654,0.28379351451900314,0.2896274109207886,0.4512067963392543,-0.4177139789246458,-0.021830962512909613,-0.13789806338267407,-0.06075616615700219,-0.2553060634846446,-0.00007571870014421761,0.10462314220256479,-0.364964067084884,-0.11677670249107272,-0.2055711876595585,0.06146000002690698,0.22563039670313045,0.2685626308952445,0.2730085014457606,-0.1363197237061762,0.22308029755266007,0.49677772541002535,0.5805692725805073,-0.20533395585748557,-0.13715847311397003,-0.25472798368330524,-0.23740849225495456,0.33382463731359235,0.13183590351227636,0.2683014301892743,-0.41831225853559584,0.2739404544157875,-0.19229464416977304,-0.25670960979697033,0.32917984052728366,-0.27430572184304447,0.24807302002585985,-0.4297421464097573,0.18718457295994062,0.19991534098496644,0.2769401708128455,0.35616395274173196,0.30161556860598493,0.48382866672790387,0.20547818371925958,-0.4387446547679313,0.46827489827865165,-0.14569888442203976,0.110389150521897,-0.05207792858613789,0.18510794376048312,-0.28939093763863655,0.37306206743083475,-0.307998205223167,-0.06188961458812678,-0.48978324356527114,-0.25211783592113757,0.046444262398833924,-0.4649015979764579,0.08053113124698319,0.3349029169730344],"bias":-0.5088784543598117},{"weights":[-0.03367838717263938,0.030784624274430072,0.4861451447743572,0.05908679436459097,0.09246371919249219,0.41933643250798713,0.4257291034131845,-0.045592850101103144,0.13700035015548884,-0.06839683967050969,-0.20036345633819042,0.23315520280708446,-0.28121724025065475,-0.47939365778416887,-0.13551755247505826,0.14023840237911256,-0.21713117195309106,-0.025639823224307134,0.3397711403642425,0.48932806533477224,0.29507838199415404,-0.2239658309173591,-0.011450178830825664,0.2931016612330746,-0.33890526036528,-0.002713368515451453,-0.2678324668143832,0.15290771565502026,0.16294529567886307,0.12096554804455129,-0.45034322330499266,0.13551988991712127,0.30982360469963965,-0.11270640148114806,0.33542163948709003,-0.23282578379440474,-0.46539645680750347,-0.08184682973886626,0.48649085612298126,0.023074105110928212,0.4378034362669753,0.13870202698168907,0.2749573873571564,-0.4440633377196268,0.4804542683872719,-0.3410537025580342,0.42485885983298,-0.44435974792360594,0.06495215709410569,-0.4316924141688132,-0.391752647974811,0.22911997904358938,-0.36978024231251583,0.4477156891602849,-0.4484239970350381,0.11859624178991957,0.12425125234381751,-0.26270613205640614,-0.32965856375350633,0.2062159347964303,0.15343680609296673,-0.23135619746784292,0.009887184670012884,0.023325190424237217,-0.119340958162284,-0.02279073983255853,0.20557131523904637,-0.002865222314719342,-0.37253050178123176,-0.4821378655367103,0.21639977368581617,-0.36242979362495065,-0.17925784623482702,-0.42772534947145874,-0.24002406609751686,0.1170459312490379,0.1587773623583765,-0.0028343772617171093,0.4201359921622136,-0.09223989688190906,0.05291045447574726,-0.3386991261269574,-0.06910469637555794,0.3318442795275067,0.4403981314993308,0.48199890515027777,0.16694577103289787,0.005052067607817845,0.33626897158393365,-0.024648334627701534,0.4528626935945134,-0.17752638259390105,-0.4265750124510734,-0.6597043071562105,-0.17527444530004738,-0.04018534898974017,-0.22390012574097146,-0.253746137011088,0.09113436560008825,-0.6069419889851696,0.05556960144332137,-0.25849199840352677,-0.2355100287585138,0.24729421439935179,-0.4731572754949775,0.33318345454656056,0.35486157117419903,-0.37509309784434575,0.4342434908204016,0.2607995850388684,0.0349307701430383,-0.42838915309741665,-0.03213907263755966,-0.3495915815843409,0.35730928659204797,-0.20612465171206698,-0.08395398160244216,0.20274828486026727,0.1383460188605644,-0.41755197701136976,0.24766882783141464,-0.49619780668928787,-0.1463147676769474,-0.06719513119417639,-0.008480700636220565,0.161045528473925,-0.33864286114739217,-0.49171512277889456,-0.06241370974286141,0.1847916925297089,-0.021186637460894234,-0.24082849656176442,-0.2038362519220803,-0.0456459473545923,0.2619699354824615,0.3548947459974505,0.02450066616408132,0.43187117008977033,-0.2782504627155909,-0.3970052176892691,0.2426424719392306,-0.2874850885499766,0.39324386264366307,-0.17476019655730798,-0.014130938555877947,0.11096751580804234,0.2969286481805794,0.1955351223109621,0.125170099159579,-0.2514941009965211,-0.0471401456613185,-0.08757004203593681,0.05371103348652193,-0.20087314286873129,0.10474065197350596,0.2994104535551918,-0.0070566001446985835,-0.25428705840024013,0.027827523049755186,-0.46171942688030765,-0.19726193005656492,0.06971111346423525,-0.381096288894564,-0.4062916611654837,0.02772219129346254,-0.24158153920177242,0.23226906329859479,0.23632790652254987,-0.31899343250854084,-0.2688237833652185,-0.2383645573812015,-0.31251647769582946,-0.3089998452227686,-0.2796864922231255,-0.24252305607640226,0.5632455054051932,0.13954962085071063,0.08490942260561044,-0.05710130552059997,-0.1599014627128371,0.21219723069583646,0.0903537595775514,-0.3524109483165824,-0.036333735641481235,0.21913867888015057,-0.17952384553352008,0.05549217643714786,0.20439448555297168,0.2468701306352695,0.46879277982928164,0.02752283750519702,0.5441411276180411,0.246347614491184,-0.16049484309248233,-0.15746022465788065,-0.2449230187617965,0.18682892689669295,0.36184239258024276,0.028849447388061798,0.1938677577771586,-0.009424168914966682,-0.20248588982082105,0.1298304423321287,0.01053763740722492,-0.3481222226801793,0.429169797857825,-0.08096632269108017,-0.02701887882913156,0.008285274235813324,-0.06162840010012476,0.632467261187874,-0.10521170332553234,0.16231297331455322,-0.017579262734893197,0.015258810322446007,0.016400570861834916,0.42429675087085744,0.40567096995539237,-0.05507179197460608,-0.06536538247215716,-0.3044145133805799,0.4017209953233398,-0.1363863936846669,-0.13136561268726646,0.02922318820051628,-0.268115890558481,0.25768977458623127,0.14629504461289836,0.3446652573919026,-0.31236099140390394,-0.35610092013474004,0.12017614099023834,0.2993673674193389,