function preload_8_5_2_6_7() {
  return {"id":1708128769618,"layout":[8,5,2,6,7,10],"layers":[[{"weights":[-0.06754219207824719,0.4224586771178178,0.034073591111180246,-0.11806707956080364,0.3415839224425773,0.4787647520447942,0.020017153848626568,0.13970592513573776,-0.18888474844399628,0.4204737321454457,0.03717113525203897,-0.26070322832375825,-0.4400661063175123,-0.371294353629684,-0.11803624725618733,-0.023463753289817313,0.40179817628238745,0.14857354007948598,-0.39477789495284155,0.268765805327541,0.16239070541722012,0.22996528749355039,-0.2109577226446172,-0.03307828996074835,0.00955195130644848,0.3537243450085781,0.47487952829451685,-0.2508852768663383,0.057359403785885665,0.0698729606747236,0.07609745644644472,-0.34707812143887184,0.403936533368647,0.05480122040543927,-0.07523935043172121,0.49625483722514824,0.004421309755497339,-0.32129795468834715,0.4452737486838032,0.23845463136537046,0.10502346702579013,-0.4308256880148363,-0.04782956052034446,0.10754754930636805,0.21015360273513317,0.2458021715943613,-0.19938896702029488,0.014455690783574693,-0.08206533825761475,0.10456223696730182,0.3529559237576668,0.1901846173449604,0.46383677089807385,-0.49336806651920173,-0.3070022597589569,0.36889990566786723,-0.4798810771582268,0.377465164667382,-0.44155590951183377,0.2518366879975529,-0.3820705040742469,0.09490689370573249,0.16651179056101317,0.11905844340527498,0.13048259740104642,0.3058935235863615,-0.29813833117998634,-0.0072049158037915065,0.5772846879525284,-0.211106913907507,0.012296816185435513,0.09794296061847438,-0.23635524613861342,0.2840864763773897,-0.4887151017403705,0.3167666475590431,-0.4231197820850973,-0.4441086885220478,-0.30184695756760466,-0.17635079668216094,0.27004883293006526,0.1499669835603208,-0.02874004229592797,0.09756399971295493,0.33265798061252705,0.07696424844305849,-0.15149690135729288,0.3502350270437311,0.051093858633251395,-0.1991316798752097,-0.1804061114974608,-0.1813821107735243,0.05086134298713225,0.038484391059784205,-0.08195432127864814,0.6036138810299865,0.04300044084126808,0.4225363926946209,0.024390120958916586,-0.05645496509119438,-0.07331120800096197,-0.4166483964608792,0.3020196481177401,-0.5229468858405023,-0.04101547976221566,-0.03151641375747811,0.01585875178983149,-0.1308660030638903,0.03430484960937497,-0.4771804603764741,0.004654657242266828,0.40557106023605427,0.4491400946984696,-0.3710006959939731,-0.015037569943087026,0.2691506954219466,-0.48573690902690975,0.2349712152178418,-0.046445657769738184,-0.06494784692522616,-0.18191138476761123,0.05487057966323701,0.39791185087340547,0.44414164731835004,0.08692016380126971,0.4823659732387123,0.5407650430327123,-0.27387719057063264,0.6016345855701253,-0.19089058567082404,-0.0427789022440751,-0.368874055099377,-0.8455528676131081,-0.0874063693577698,-0.4406634303539689,0.345983344502106,-0.12309724923629725,-0.28627099400612366,0.24793592784624294,-0.27224745816565765,0.2642365589814023,-0.17969499785368953,0.15155334626777536,0.49223712392364377,0.3739971112817735,0.01430041524080702,0.4070465652513984,0.4614153182677655,0.10969208288111673,-0.06564027106799925,-0.1490821126517142,0.4970445164067335,0.29099830861089443,0.5346736103855015,-0.16290019792185895,0.5027409814087717,0.19114025343127464,-0.21736834823997622,0.17278679672144626,0.07079760976882865,0.10828845039235067,0.0856560569897254,0.33592665353222584,0.017968860546344036,-0.08407000877914386,0.20367864902956226,-0.24123391476884984,-0.486212877955824,-0.40278183973111314,-0.11193011670174491,-0.031853711919149603,-0.24999117056913697,-0.31532731434752787,0.3565565697131327,0.3822472942152593,-0.2875266386341831,-0.0014772833621367455,0.23323768969240477,0.2828775499332063,-0.014458314334640234,0.56650600176485,0.3693759737809943,0.3423364995450405,0.13261927240662633,-0.010280057079793174,0.48912763287830374,-0.1674730148425353,0.3749792731675599,-0.3253644133627936,-0.16008327078004309,-0.1852575622135585,0.04940212065570079,-0.3246954370775324,-0.3002285735750329,-0.05102785769615121,0.1157924479174201,0.16073961003786374,0.4544666054765164,0.3828858236399448,0.086471488583942,0.4766917299518741,0.1960674564015262,-0.2181856300352462,0.12476326342405258,-0.20145517564515364,0.2726257449125056,0.09904205824807856,0.16453405433724644,0.4094445901042819,0.4558064841314937,0.22279784090438606,0.44506246434952607,0.39720512172445355,0.44904670648156275,0.2977624983527381,0.3433045385001716,0.26400626055228055,0.2613317886271693,0.015990895705080218,0.20684363681251483,0.4836572363624051,0.55698335930506,-0.1301718482087198,0.168582926359561,0.21118054984471657,0.4222704583449323,-0.45368938918081175,-0.09256403695929485,-0.1953569821484956,0.1419084391442007,-0.28259608641703676,-0.1442384395942139,0.06063673596047065,0.07543860824809437,0.20984940783527273,-0.21189107062310122,0.36419621900995364,0.22159328397779499,0.5848106707977716,0.3733348087356951,0.34143332643250524,0.04495360634262023,0.47863187327021456,-0.03723112707231811,0.11341208627686922,0.01339999302088215,-0.2547588354678017,0.2146910656659457,-0.018977283719838405,0.6723913134265751,-0.345814017651659,0.19451208197039913,0.20533446746175896,-0.020746957152504873,0.08726377820919476,-0.15342821943612237,-0.1520680838409552,0.2263377618345044,0.23014230739765984,-0.21232558552175804,0.28218422963046325,0.12089400362462766,-0.14003421202213387,0.2558010189866208,0.10743742545629621,0.4276417872696667,0.21887606187718558,0.17464236896897373,0.5328750730277968,0.36011594336803,-0.447213281528414,0.2757735201907797,0.12736958788852346,0.3318861866260175,0.3467821262733356,0.25484645650873483,0.08587851197047792,-0.27575655956355133,0.5405069927515739,0.4017977515468506,0.4800666415454283,0.0752952047791226,0.3041703774453709,-0.06600683096878229,-0.18319764318420087,-0.12220225290800253,0.35962648086747595,-0.19638435006122149,0.11636846338440925,0.1275905857736347,0.15459170350310536,0.13938845434784078,-0.25525866082654847,0.30672462920741966,0.42899406227977016,0.29384137383413006,0.03009419691150684,0.1995865868394926,0.48775394615698137,0.40387079072685766,0.3396938629851042,-0.47832365787930187,0.05384045501582846,0.40301069050087834,-0.03487443004046665,-0.010688374275531593,-0.1104270778844625,0.1880702463643683,0.41029720698595284,-0.30838588379530757,0.5240602117614888,-0.34096276565476835,-0.22430097541974575,-0.20406935190171033,0.1740635720193354,0.16334628354413377,-0.0030638021150700473,0.23622603467010742,0.17366051176066752,-0.13798106557626377,-0.11304716986427876,-0.24391411674833752,0.07792405673217039,-0.17780089210030714,-0.016938608454250065,-0.14152259278410678,0.18570749296541406,-0.24796325367230718,0.2588704497476765,0.1875158240419984,-0.06986259406657266,-0.11004478453106027,0.33799661677535486,0.4884305171493615,-0.2790671214397426,-0.07556482105033092,0.025263620296559708,0.39726314400450335,0.29044431454987135,-0.07390630070243341,0.09687297730009084,-0.061943857865391666,0.3583681485000239,-0.07177241344608731,-0.026083877299236884,-0.31537299999381324,0.2306429207181659,-0.1838655275168744,-0.2726245962409898,0.5482237332987762,0.02872881811196768,0.10929725300655613,0.08424292656758382,-0.4716030190468413,0.23909946660448908,0.09934692406959855,-0.2799509202557432,0.4141675380448531,0.004065666017630743,0.33200119741085254,0.14394626826906817,0.07075315569477202,0.3825559202945469,0.35762987479045627,-0.10328981881528376,0.023306844292433942,0.4969105929391156,0.3067273362257198,0.4244038168019066,-0.3740113322839301,-0.08750593797414054,0.10337368306680582,-0.29162025012580545,-0.46636367928510586,-0.4981748218754348,-0.6675994249828076,-0.6168852886095657,0.18705191598185247,0.22877259169038752,-0.24398486773370856,-0.21358909962862077,-0.02155869091502496,0.1747209510480594,0.5013781241293093,-0.12961713097730876,-0.00968850933420974,0.012124100437136059,-0.17624282660018517,-0.017922273553482086,-0.20939973546749804,0.042554184367021686,0.39011431959247234,0.016646994232832113,-0.015329182428211574,0.3193893677941055,0.3268316572501695,-0.3796923584725968,0.10043726821704715,-0.12460244857972602,-0.7020911915837885,-0.33663302153350216,-0.4914243024250858,-0.40678411013600185,-0.14248400376356657,-0.05260552900064205,0.17214181791083216,-0.022282455222025918,-0.1339640852188706,0.24418401321768304,-0.05878963648407725,-0.4455273208569062,0.011480440044193638,-0.123273598236526,-0.11681501944533514,-0.45222674659365836,-0.176908329053442,-0.45995326082164417,-0.31514554797090033,0.12452204022245932,-0.06115606318295452,-0.4560880797540787,0.265518643935888,-0.1873978101040886,0.5017897164522267,-0.39243516684308394,-0.15000005478264572,-0.2936165970928578,-0.512615573588508,0.07434517181312068,-0.17833127925980327,-0.18266692628126283,-0.6243489629071448,-0.24392858599549216,0.11196125559868907,0.4392755868933468,-0.1957155600414199,-0.4348430035159276,-0.04081313700571773,-0.49330493072463844,0.1564645713221166,-0.433225635571804,-0.29767577459043154,-0.703834181904918,0.2664659520558374,-0.022349592166211702,0.34479426113527456,0.48378036245246403,-0.1680605605993214,-0.1391362579487213,0.4253529958283586,0.4579632054161534,0.03210917019281213,0.35505271701981345,0.13883304573350422,-0.231645188661367,-0.12541098160176178,-0.025382904041650493,-0.30787496719605506,-0.2369518978879295,-0.037432262993414775,0.08089212119436551,-0.23834828321315002,0.10453437708531711,-0.4764145663777863,-0.3468006386637206,0.4581124793885834,-0.038838931439024366,-0.3946660768434512,-0.061762900322057494,-0.6900676316689602,-0.17565930227473295,-0.19098923933149722,-0.27792576402372354,-0.1853427607336935,-0.0141134990886813,-0.12700032173980097,-0.008900655859115703,0.44038992537816246,0.0588267622698432,-0.43686268133031736,0.5096078036379988,-0.38714578803657007,-0.1970873041736729,0.05023061263260119,-0.2813232677025548,0.08638119862580823,-0.04121188202157082,0.030110388595550847,-0.0842091764533926,-0.11475662790512503,-0.4240970892031667,0.43399740127210346,0.25619671370802066,-0.06440183217481311,0.4080971930011666,-0.02730099204361787,-0.23653366878905563,0.39950369920390877,-0.07554172796751613,-0.04800865467683785,0.45551701924528504,0.100452586124843,0.012916493202158477,-0.45863562800573043,0.027147623988374003,-0.08173868858096406,-0.3348780452050861,-0.038113852951131906,0.28258952794061126,0.4433090628286998,0.5549880425530956,0.05028612163288493,-0.26965236128265185,-0.25047024369134013,-0.13361691649724616,-0.5064238157046183,0.07092894073810656,0.12300906170938451,-0.42213858298321305,-0.28078239967275403,-0.005173649098423901,-0.3282144544264502,-0.058718387507463235,0.37493370264435366,0.2959054002170776,0.015627886457068255,0.008506120687548852,-0.3468020183789418,0.5863578251397508,-0.3963537085726512,0.400173178589674,0.0984028303763372,0.08179878038897048,0.48790868744367766,-0.0011566486983697734,0.4789662976758303,0.5406412074349268,0.37970087416269177,0.038792607729560745,0.09071131255374826,-0.008963573223776515,0.33975672491357567,0.29022646689043385,0.002249765757708302,0.13897471797150865,0.1366100299376695,0.02831705321661474,0.04040194630004439,0.07571000520364451,-0.200287769156739,-0.02879991385260502,-0.08977807925878804,0.37646452259680907,-0.39790095766315114,0.38105571620698836,-0.2415652272825682,0.12388252791339457,-0.3190393983016568,-0.021075807958050384,0.18421184355826334,0.4204357310768243,-0.030964182154162412,0.3211294229295512,-0.01467751229830546,-0.2463363549321549,0.5890654906494193,-0.10163457509105017,0.6544475518381673,0.0088288577552662,0.6795438562146482,-0.21186190569536048,-0.1082092367232314,-0.3425955379380897,-0.466413064196591,-0.0447613761049999,-0.4475958229107241,-0.12918003781629225,-0.02176257243433135,-0.10055145514181588,-0.31832410885499857,0.2751316233693925,0.39368898425650056,-0.16923357674802547,0.08548582436241631,0.37756220807564783,0.48304461526235193,-0.205486240223298,-0.4605748943657497,0.2771049052675415,-0.006580376495567641,-0.3480649849139581,-0.30126657222094855,0.5534171978454157,-0.35287178569104405,0.5608817777591694,0.5964684022015148,0.6151822742157816,0.15799164433109733,0.22408823212468554,-0.30803496316456336,-0.4486097687850731,0.052111276887113527,-0.2613979438811796,-0.6157906302366007,-0.48563920557574375,0.09382529927331328,-0.19439230998997073,0.340253755845325,-0.07804437794080601,-0.09316245312636053,0.6419248385177492,-0.06478639120021853,-0.17016021046215168,0.3176635431262543,0.08622098359170746,0.38538123531490975,0.15235937759690388,0.09263076885887112,-0.460517878781253,-0.2853979057761601,0.005659165303425062,0.39377341145328154,0.5116457032576324,0.4076267075346953,-0.17227313219795445,-0.1258145020225731,0.5130883063623627,0.2979460903303728,0.13227358392711078,0.010477539757095406,0.18339979722746774,0.20048099744848769,-0.13411408431979802,-0.21254072195675577,0.32480178046151825,0.15514231522572455,-0.054791167367011416,0.07471076851574124,0.3132664683781059,-0.327043274153895,0.3255909428760906,-0.23085992727982582,-0.43484580333322376,0.3652563262230346,-0.061140010106222276,-0.06536039370049429,0.07384549644309812,-0.08608502082174715,-0.33519730992509306,-0.2977522657200139,0.46622964370124914,0.013051681162410003,0.2692782069778651,0.3956299841211752,-0.08224635634867604,-0.121180588102908,0.41570840724235064,0.3785469629524225,-0.015988310081957367,0.1924411719620865,0.34212535585852605,0.09640211683685282,-0.30320339760894516,-0.499172928670456,0.2265169530869582,-0.08977285903779983,-0.1399584075738588,0.2735557543867231,-0.4607652901311335,0.36363229890298493,-0.07404257082687901,-0.33382014584331265,-0.4119440866861729,-0.2828693346977781,-0.4732531958816826,0.08537595336954147,-0.45672924608983734,0.34900656749201386,-0.1203583557821411,-0.36583668873863606,0.3969829518378703,-0.26691171224101057,0.35946679338822474,0.27440805772544,0.025312484182010604,-0.1452215333867117,0.4465128495842436,0.25374287485587044,0.21122319497210165,0.04971448704794423,0.1762110667299328,0.18742580512332524,0.2528394791799327,-0.34167920217813275,0.054998404008687156,0.008925380994252649,-0.1628702737589214,-0.3927061452483648,0.2716477676206166,-0.189263649418542,-0.06371187062325312,0.19782300724891655,-0.07608604599511815,-0.049185990551133645,-0.48381452769818273,0.4917552698839799,0.21383471659206052,0.1489577224648228,-0.31649331440144196,0.24646212250260577,0.33349954329847364,0.09738154949539053,0.022779685540412705,0.5031889004547858,-0.1679553548555187,0.13701432486244708,0.35391431522483063,0.0015342674639889134,0.4733006478166901,0.442204140287251,-0.35686725200223274,-0.21051972648986828,0.12649317538170785,-0.08948786536522811,-0.3703311668814692,0.3024963274472968,-0.09961878056809192,-0.10724308919775238,0.3782785627341637,-0.3148900313120959,0.34820739832139247,0.24806901622359567,0.0409583260436911,0.46562945501878034,-0.20938660853837177,-0.4720236784139859,0.2740343689712828,-0.023236924535704695,0.49976487606308184,-0.2054561641802791,0.30140017928537394,0.3942169089739355,0.31674138677724284,-0.29260573095464343,-0.13286309523445958,0.5373035637734627,-0.26023114581065704,-0.2150896803451779,0.06707534653784215,0.550830459746414,-0.4014792387500425,-0.029414812089084107,0.0511962873892013,0.30398445948340436,0.12178100413577275,-0.14859943402347442,-0.3898978034758406,-0.13964914514378768,-0.3252220575999224,-0.4870812577790573,-0.3117188807970529,0.03963135180396715,0.35291276492229495,0.19523997626278256,-0.028245020530587375,0.35624889299852797,-0.10460825529981543,0.2561678098399984,0.07268770622022092,0.23050745988372046,-0.42585945097632066,0.1694392548220579,-0.22592142532450968,0.2987624002276878,0.4035399015108695,0.21313098082748264,0.002266357355117471,0.028248060979768428,0.13708535785598497,-0.08194855036821946,0.11216972601135955,0.42639737635832897,-0.328346195984508,0.18161121786162304],"bias":0.10350435303615906},{"weights":[0.42477645665562447,-0.4491263924420791,-0.4612767088278913,-0.2573291572556171,0.18502132970130303,0.4835731214122876,0.3901515242042388,-0.24713736005465914,0.17514822238600958,0.48765189397891096,-0.02325500653260637,0.35505005033303727,0.268477298854663,0.22674704562933534,0.28281150396703914,0.03625817480643223,0.4693937212679792,-0.4910332761668643,-0.28736972698521457,0.004109796821548328,-0.21064886865300292,-0.24367275743902295,-0.2540535646966742,0.23651112504436944,0.21820099920909886,-0.13669345300199898,-0.23638482219195145,-0.34216701013409145,-0.1843320310626343,-0.29367034203307074,-0.3333961263890777,0.07054112630597853,0.47604500902811986,0.26537309006047444,0.3276486037783941,0.44992166565732244,0.1341307766653707,0.12219798265820896,0.22746201351400883,0.08879620096558732,-0.10821906614862392,-0.11222316127632427,-0.49396118077129636,0.15161353248113213,0.460788552713944,-0.3971672507134394,0.09536341472878515,-0.3119472190693231,-0.2788014117980966,0.2705222083342508,-0.00976578799154515,0.44918817210773543,0.35276605496602786,-0.10871403489010101,-0.36604017757072915,-0.047208748497788,0.25177279440545364,-0.01417631456783941,-0.053979373698730626,-0.06410463268158006,0.1592837421721658,0.09783759585250791,0.321064323384866,-0.3215872940812784,-0.31411143796329716,-0.2532091529347705,0.02133975421149206,-0.29900146072609457,-0.41495242770064217,0.1463684329866777,-0.19901104279900822,-0.3738664466819079,-0.29779803807967253,-0.28511869520161465,-0.10470778627661279,0.3455389781819152,0.17083346631555593,-0.39357824278156844,-0.2172750868725344,-0.29310067690307595,-0.4202840730867939,-0.3279380236099353,0.3792613867355241,-0.28078461523844445,0.16751889921673435,-0.1018048829809367,-0.12558366326407133,-0.2750865034758896,0.22908982079765028,0.15583176953562192,0.11669499900653489,-0.3967920274508544,-0.3032973048279371,-0.43405018414992025,-0.05682413407687997,0.2787502087479879,0.17152262999426707,0.18042027095853302,-0.5161409177628825,-0.15957783335470443,-0.0730107516636354,-0.08830352687134715,-0.5171296251321321,-0.3125142214632297,0.18653821508454846,-0.07449892134192078,-0.34983219925111264,-0.3728853871429022,-0.4297423668733841,-0.15788876847519326,0.211818904981643,0.015068209154568968,-0.19562256763695973,0.12750211455006655,-0.1516346594330814,0.446338613762389,0.38529981679159037,0.3285572848157005,0.27751192914417816,0.24290145565034435,-0.11173309195918903,0.23321849221467345,-0.5232189954751274,0.40969331521942476,-0.40195773598464446,-0.29130097543993266,0.275265773846719,-0.21858512058081817,0.17695677717672745,-0.2533651991688148,0.05860940270551173,-0.007955074400947388,-0.08328722572948274,0.23321167155547895,0.07510963814151587,-0.3289982614619116,0.015647250027791257,0.23695873825870206,0.0667711753040666,-0.3912992980626999,-0.2790222675617916,0.031100112523249058,0.3571740696612889,-0.4324360764832699,0.004002102889266791,0.47193043329289325,0.495322688700273,-0.015269462117256277,-0.18042886239288936,-0.32472529073007833,-0.2197931703279997,0.3652502458789647,-0.04070864125457088,-0.2947421502062575,0.13813949294751443,0.23640300828413827,-0.23531823910118893,-0.38225396506317316,0.32655187827301146,-0.26674239401327293,0.41876550189870265,-0.11084834161192898,-0.18710222911223062,0.4499347712563224,0.21898953103086777,0.12195612985507777,0.2341850177989439,0.2105153205618252,-0.12595359932728112,-0.33466351072201717,-0.3415100755885376,-0.4915176012974653,-0.3850482784399973,-0.17051366057212858,-0.11803280183600409,0.3716919124222656,-0.19289659341959936,-0.04116426711686265,0.33567352014839325,-0.0437933647427369,0.09578545256127251,-0.10708061869084236,-0.19694838396137995,0.17604345812067598,-0.2654803037963893,-0.030022689451029306,0.12352554028875622,-0.3455186745067469,0.13432859687202234,0.5103243400194645,0.02959419408832431,0.06072673514718486,-0.16212724107609106,-0.06551514663634976,-0.3479738774925129,-0.0985094394849007,0.42764653136349506,-0.21483234054325356,0.2421928800308738,-0.10038538342846758,-0.46865034805023387,0.4462213690579681,0.5187283153179895,0.033789475298837364,0.09935442511711629,0.28648660381565527,0.10459489612001097,-0.02753960041098416,0.36437869687900004,0.12028485469168178,-0.3992905115054832,0.28909010501630333,0.19226000554158218,-0.04675858770034939,-0.07023298864731853,0.045090709612729866,0.2753552543213315,-0.303066522331927,0.1981674626306499,0.2580845423840712,-0.012850504558305994,0.19167292753095616,0.12912805726563914,0.3618080826173081,0.3861956355368177,0.346748863880929,0.4050647055948014,0.09730091187605033,0.27593905426406173,-0.09105163415939738,0.038504631198542465,0.2629232460888117,-0.02668806964800951,0.14196192046500503,0.23578338579779592,0.29120796568395496,-0.07834851279375656,0.08841470988283902,0.012515611444638674,-0.2977990397941062,0.1920509095275597,-0.043944216251542996,0.29459897155296766,-0.28031618186322277,0.291738044035146,0.4752088019077176,-0.06005950565026635,-0.1119248443355183,0.7598444915867746,-0.2480644828043958,0.15794029623679787,-0.08791933705997562,0.33810281345481913,-0.07024639305869247,0.24352058100705037,0.519148480670267,0.3440685254058857,0.38547551765300114,0.026567603059462406,0.10952908763208134,-0.2690781215278303,0.28726995868074945,-0.4044490218089628,-0.05839705265828328,0.01052607252994008,0.5680033509287997,0.49094028196211315,0.26431729696248135,0.255207838115432,-0.0035157829750075377,0.260552646516468,0.18894210628015276,-0.07233790626997927,-0.04376172627694631,0.026139873451732826,0.001260276052122346,0.41709462416652326,-0.14888171455138213,0.2714625403693311,0.21771924327406797,0.401493885328751,0.15961384467026946,0.25411100319372526,-0.177165011991362,-0.362109847713847,0.23662676078579176,0.18371630015960375,0.22817159423526534,-0.36246091267799085,-0.09212755910483086,0.19871977138947286,0.4335297134101831,-0.11468887551357707,0.07704359788532594,0.30799969661421717,0.6399946343431163,-0.034494777932121176,0.42332706657862107,-0.110153560635807,0.1479212715112333,0.18184395342558335,0.04339717188996096,0.6364763513655641,0.24310272756038864,0.3746959716991773,-0.14933374031597452,-0.06929799975538443,0.33937347126523115,-0.41069285729201194,0.22139699259243045,0.47927912546866525,0.13472707155318286,-0.22927183478142985,-0.03441491732828454,0.04860426549546239,-0.30638010168671964,-0.23154803717914638,0.097302617213367,-0.5055806898277526,0.011144201726055316,-0.32072465013328205,0.206449366006964,-0.2606335111885079,-0.0014591565024146321,-0.25383577723088907,0.3701777351398659,-0.4132063283703466,0.2556785123458943,0.20478400042685588,-0.737253826584255,-0.07575031743168367,0.09149947400590035,0.2160860612713966,-0.3731085390158223,-0.006537242808327172,0.010464032857480838,0.0668161701514618,-0.35319345149317954,0.3562807911048527,-0.34667379551505173,0.2897649215082494,0.061884391584727035,-0.14324309060168058,0.24947438437845973,-0.2125778858378666,-0.0875540575791042,0.18164747386639177,0.12870925133401828,-0.339315522514889,0.010381174638912933,-0.006256716856551574,-0.3843036661175017,0.1020520000970164,0.016114781016253146,-0.09945787308441156,-0.5559569259392321,-0.14022997301873213,-0.5606252526277776,-0.16063918759892487,0.05849314317576141,-0.342065934480233,0.22289017646648002,-0.24609264243373152,0.0481586477102629,0.024781055123769824,0.4882072277882906,-0.4747727247513173,0.013434522306331124,0.05911849295144576,0.1406078387567014,0.20860173454749406,-0.3078551909484506,0.5834409306315221,0.10166778884024039,0.038696640179264316,-0.19555204765209233,0.2062723530842712,-0.3080247233704148,-0.38929110921060406,-0.5584999307869942,-0.4484517637424575,-0.15404593419118384,0.04163140561954803,-0.21379107110388074,-0.21602075380596966,0.0371766422611975,0.4717712818446016,-0.150387656804746,0.39786827489559706,0.26047844160129546,0.02685493979071271,0.22586144368903238,-0.3082789634402958,0.48889750944051713,-0.3039551947346174,0.21851688111890016,0.10025620125737596,-0.1802723986073849,0.030334693033081117,-0.42900630708501325,-0.1626970246089676,-0.08468491428390842,-0.28435138838486823,-0.010186688022089628,-0.295684276857597,-0.5357870959500952,-0.31585326246019535,-0.31158602515552164,-0.10418094520222848,-0.2134835805953833,-0.298787019667334,-0.4090693747745137,-0.34716045608243334,0.3649106932563141,-0.2799485650814645,0.2644686730799928,-0.30027189852042746,-0.5074947656105157,-0.038675038415646894,-0.45822694062997493,0.08421627429198386,0.31391206203076893,0.05311798623319379,-0.002480275132953321,0.4016047267422865,-0.03159505672024842,0.30915563537517193,0.17729680464617634,0.3525178657062149,0.1601522061415056,0.25546443584069123,-0.27230443225198653,-0.2832512805969636,-0.14023901110014453,-0.3561010978977765,-0.04601483167116261,-0.35488454683168397,-0.1895155924224405,-0.21109438586317575,0.2992507247543528,-0.10611419872363498,0.44714479521288103,0.4154742446168907,0.029882446656989865,0.003858123012897323,0.3015412473558187,0.01694399415077772,0.4600955448132162,-0.462577794796064,-0.14656182779851162,-0.3765995232923331,-0.004554204669917933,0.14879885820048008,0.19394193651443264,-0.7481370512062929,-0.7908068466832312,-0.43657722883651257,-0.5431721886772402,-0.6889892297405495,-0.5832393286566336,-0.1723290197182309,-0.5579346130282326,0.11686109465598059,-0.12454412979479734,-0.06955968812059217,0.01488830870152323,0.4255748598256745,0.49944827307968526,0.5599075474578953,-0.014031948815002542,0.04647774367993523,-0.06912750410485498,-0.36116677457659385,0.24671412339709897,-0.14634578413871926,0.03548401711034914,-0.06398026271393653,-0.3467089138015075,-0.12082739759689369,-0.3167059864273546,0.39495805236733716,0.3368947715999005,-0.33958781085447315,-0.22622443531906908,-0.28513565158816895,-0.24307627163179346,-0.7676898681270783,-0.4166897091549454,-0.4058407011962145,-0.44329081754747174,-0.5146193139947173,-0.2525914249257249,0.5621904129488747,-0.1364081988000167,0.6213875694094333,0.5154543416181376,0.017675405408772722,-0.1855652171568311,0.31146195013141414,0.2817961708974646,0.04996363160527693,-0.3325726349223568,-0.4692582577769609,-0.2908435233067259,0.4802285517389212,0.09377343351187888,-0.17015921816608037,0.13515178171015635,0.4030721994857932,0.2941902534546237,0.37655723503109945,-0.20983968508090206,0.18895168385102243,-0.26898113223261105,-0.5239605505525953,-0.4107068895162793,-0.7373027168033582,-0.6701268663713206,-0.3463252093544491,-0.32369440350100853,-0.16578934955943503,-0.017817953138451022,0.07119560463287586,-0.30314471285634886,0.42129065030150153,0.46211290933144267,-0.39785646700809074,-0.05791788879989136,-0.4814824156146653,-0.22678576703699382,-0.13913416671862244,0.30276182404973445,0.2843830054808081,0.43998330951603165,0.2768013930546226,0.5716750863186658,-0.29469322913116774,-0.2119233230812049,0.46416792998190737,0.14506801390728347,0.362961081042697,-0.4768514715011295,-0.2350619598185915,-0.5269342219823542,-0.27457045707652206,0.012683404219168175,0.31090900997038523,0.009010877347935316,-0.16978733245125321,-0.09248294478005446,-0.011881013046082866,0.23372961267510556,-0.06068481402442349,-0.11899550075105768,0.1443231469748514,0.34039317708968264,0.21137500735377368,-0.004314666757170064,0.024327406985948142,0.027791753486051063,0.3236526138060385,-0.155527323145953,0.25964868149959636,0.6677870455789952,0.3252563858876662,0.4338688573131467,0.3944275743462566,-0.4719430099179146,-0.011385462303171954,0.27501150514341766,-0.05820897532035561,0.43413325100939987,0.5539532461914166,0.13637549206956975,-0.24016938275012029,-0.13199825543039015,0.05803480071837508,-0.3155957670481768,-0.3658530706298803,-0.6399919303575362,-0.1709237915055231,-0.035471735116313324,0.21136433285859996,0.08668201661207887,-0.20188283086186218,0.12271307808707414,0.38481873880719436,0.4726380862251023,0.038953139880301135,0.440854545730206,-0.35379870988037876,0.0572582478592816,0.45772841234496997,0.007033342125494937,-0.5298648066949445,-0.27452186556662345,0.15598342330876722,0.30945222001216577,0.26007654086717746,0.1531504309537165,0.22777012717585338,0.6067776154328736,0.21733105956797863,0.4262774196191912,0.08696351182005078,0.4398287465486028,-0.050530474003983784,0.16103681826096441,-0.4291080020823709,0.06949533919902061,-0.0782399193365852,-0.5717319192397605,-0.5128626757642878,-0.30364983297554227,-0.3262351294117082,0.02999819965227235,0.2918462826855478,-0.09914292829653881,-0.06521335981959142,-0.2383281035909054,0.4047614194454528,-0.36483173286591,0.216006922085219,-0.07810500945948716,-0.01092034469243234,0.03322519334473631,0.47444040781982144,0.29397364599069087,0.10929129067229341,-0.09245469032374776,0.2021541169468772,0.10807625243044654,0.3301407458724974,-0.1768580747514116,0.005780098157609444,-0.0033450343545635914,-0.09372563179216849,-0.04599809072083803,-0.2628563901696773,-0.3000765920578656,0.2571635910911732,-0.11290534400355268,-0.36798724969213886,-0.16195154147487978,-0.13001690852607017,-0.4726118231744764,0.2879374451619201,0.005676147119794715,0.052737443969120244,0.14708229608923282,0.09668887231730997,0.4239697254580045,0.33259872830843984,0.7363760146375679,-0.35385829429034316,0.1490467233440166,0.12096933661000361,0.6467994875068858,-0.17287011001746208,0.10798367263269024,0.10319462130655314,0.32336759621143085,0.2741717648932195,0.007225160440697529,0.1604492956268197,0.021115151666779453,-0.44214475755422716,0.15165019761338155,-0.43816584274133613,-0.13131797717153976,-0.1953552261801815,0.4308007699643672,0.30500211901316643,0.2144778098362542,0.11861714663178602,0.37836578305307583,-0.4548222514783675,-0.10236521943809272,0.1139216244931979,0.47081259972107886,0.282036986783555,0.16742491263777973,0.049446201321479866,0.17078633299761176,-0.02377910957345809,0.12955046287181976,0.22728852001879668,-0.04868831922856894,-0.40051674646045465,-0.07241589585494349,-0.4229008736357053,-0.06238070140504839,0.15262712804853315,-0.11441252601758553,0.28873156558074065,0.4511601890506968,0.2603114901228219,0.26022690989071756,0.35755248283383667,-0.23685046998107784,0.28784296150683886,0.26321738126932726,0.18637157312827402,-0.3718389356505829,-0.09257739152863537,0.16085003211202692,-0.350182332840078,-0.24014092109662336,0.12555713634307542,0.1285193454953101,-0.23110846879499494,0.01828863240486215,-0.288691115440464,-0.014390955726391864,0.21762960451314978,-0.056403189514033496,-0.16051029853960722,-0.11535016830386317,-0.08923605571316189,-0.030857096074027205,0.014001591792958318,-0.31259091492602853,0.27428827629906566,0.28052757465366684,-0.0654116720165453,-0.15298173762696193,0.04045369506783625,-0.4005857948845363,0.1236430576221329,0.2391287251315457,0.018334837110600355,0.17012401867635207,-0.08159226589619495,-0.003914639571909862,0.046748832597871576,-0.34692622884738233,0.5194048077569345,-0.08752288699807866,0.26544544974741424,-0.500278928419079,0.3374950487348439,-0.4553613301828833,-0.021155062435986992,-0.04922818222462157,0.00446594614315212,0.0945103133137863,-0.22684698805837558,-0.2935681334368602,-0.20537107983346178,-0.11901047001636658,0.16444048773236125,0.4467684960554927,-0.2821950633184924,0.33857544127739514,0.2896738410841041,-0.25759600817001616,0.15069488440655465,-0.027859631790981054,0.015000962821095865,0.07801670608365685,0.24901605151298623,0.11059027524065557,0.34959458607866833,0.33343915701889804,-0.14098869920677568,-0.12210933179382563,-0.16842747345775366,-0.18158565949123295,0.441049796810515,0.41865793229399695,-0.41830363509450735,-0.15120805933287856,-0.24996221488440415,0.38372294592345885,0.40865192891934693,0.034909160950561395,0.24170820899855494,0.4958257551068838,0.4145116346429749,0.3503054766003154,0.05183908963047634,-0.12170949343397597,-0.46611817467563954,-0.046773361541545544],"bias":0.49199450126020033},{"weights":[0.44849837858242014,0.29477119017882136,0.43348024588362855,-0.4589340516612067,0.3992942087141732,0.2119334426228825,0.14524924594286914,-0.4633879921364701,-0.11902457986816173,0.05030075415158208,0.09350454848571421,-0.2817573379469761,0.12190999252910018,-0.4807930983432612,-0.2792819851595354,0.03842179458016526,-0.2698395808335715,-0.1831169889808555,0.06221623344700822,-0.4757969106070351,-0.4412971850997208,0.19371634088484613,0.25524065621407754,0.12966261299504123,-0.44348652661648236,0.3335174647519945,-0.34911579452860797,-0.45909472811641416,-0.15873107764794303,-0.4310610055439916,0.3729724085646522,-0.1465687593016245,-0.3157103497309087,0.1959658738765814,0.38624848528306344,0.20881025443805937,0.33688044626122376,0.342549322196488,0.1146231582123973,-0.4350331054572096,-0.19228059792096427,-0.14938433671289733,-0.4611757148475924,-0.4319022572829286,-0.3261664745169239,-0.33040536092409,-0.08127416840201976,-0.12388884050801398,-0.49249422246894076,-0.2731318609015889,-0.19302560376540545,-0.2758474300331534,0.2984259731249431,0.1765608807190705,-0.11408021179889938,0.20262262749465454,-0.37612356388271695,0.16601524765645326,0.37578303199055285,-0.36429025368095547,0.43384589567454457,0.17325405242807534,0.3889098031357969,0.2836611748215438,-0.48843320870619455,-0.3478506991120838,-0.38438600673136636,0.11201464053293124,-0.04179510536211959,0.44002714131560977,0.261265771636022,0.39599212970747544,-0.19558602222166382,-0.27089738251778056,-0.12065163222689876,0.43345951552967826,0.17749962990949694,-0.24827273308868708,0.3088733798453012,0.24033539595221964,-0.34952720412599464,0.012810795092338512,0.4493457441201447,0.35639335066297695,0.09667713449613091,0.37339771633173713,-0.07145543561452983,-0.4281353782990094,-0.4920819614110276,-0.4441814811756924,0.05600790947965903,0.03573927862953781,0.1628219674124708,-0.2594882858705376,0.22113557772713371,0.19945160568951514,-0.0688047607249987,-0.5382210035275178,-0.47263432866031263,0.14953567758308084,-0.3509549951579032,0.1368787212181767,0.30795291531853075,-0.4554165722009008,0.22895356156313734,0.023444098657892435,-0.21611496406692116,0.4929721867983447,0.2852725250386936,0.24026095784160836,-0.46493217885919147,0.2238304797854368,0.12382292915306836,0.4999107070033769,-0.1319193599860652,-0.1851288029657809,-0.24772273411331638,-0.3386739643191952,0.3708039070704055,-0.5135898862000441,-0.008151282761380309,0.23543409294428153,-0.10534063063258804,-0.03934386056897944,-0.3956787623092086,0.17780717778899444,0.15940750891017516,-0.22176601162936926,-0.24478548782929938,0.014385522999814963,0.3253667739780858,0.48426393870618145,0.03622813501968961,0.30613814221363955,-0.05910903838445716,-0.30205082611746586,-0.4668540315984454,-0.4724869484886858,-0.3885052162280547,-0.3844770434340876,0.3700500480573542,-0.047459903926218454,0.3782542989432509,0.40091872045912746,-0.20909056213558086,0.06464828440920453,0.08737841521674287,-0.3286376629553733,0.3091804185391162,0.16221111137920274,-0.027896620587701627,-0.09064859771553235,-0.2478621421979465,-0.00909250005688637,0.1530437712833334,-0.40903124492356785,0.024175525119765427,-0.0012004415608658397,0.24615809087804522,-0.254296936156883,-0.07236673165167073,-0.002524539874429312,0.3930675762743794,0.0342965192391006,0.008673441667915449,-0.31452547830003513,0.22768293740706014,-0.4026040880591658,-0.11895936991816103,-0.08931722950134902,0.24309799974269708,-0.4449879858855149,-0.49070804386999956,0.14974098817232562,-0.20170599947045392,-0.3133378179840047,-0.44254766698285086,-0.07833146212320663,-0.690102403096667,-0.3856523883094958,-0.14878229639838272,-0.21122440122925787,-0.07522917087345955,-0.6992356483631182,0.0831206463331283,-0.5142193437288413,-0.47509879988856196,0.007399590732625731,0.07878433079446098,-0.16242377814391964,-0.3703475591119811,0.45439583980641457,-0.16468369534241206,-0.08277358461153206,0.3432590085551246,-0.18653398278897856,0.32786547954704237,0.33254136374222326,0.4908120905349995,0.46714417880871933,-0.32513178005379734,-0.0374243154222535,-0.32329062364546496,-0.37481517560937194,0.27117933064235095,-0.22886240230694452,0.21532543550694463,-0.28687423966890174,-0.096961921526111,0.37825668799762163,-0.41565189008491377,-0.07023673175133638,-0.325523071391528,0.04000615330045623,-0.3199708356808957,-0.040416615107787955,0.15685369186451145,-0.38829322949031325,0.2362422089464419,-0.17121933676705337,-0.5397768628583017,-0.10197845799326227,0.2764705325261552,-0.0007942821376163627,0.2831524257906066,0.3161404429991204,-0.04552866287683158,0.4789994203457227,-0.2549332632988566,-0.4332760739052144,0.31332736087430124,0.2067288069248798,-0.08843563464872839,0.19785477447401606,-0.505030012655296,-0.1682419008797989,0.23375052424774315,-0.15387792029891426,-0.02823251975918857,0.26053859992988404,0.10139720514444091,0.20146120948564042,0.4545943217962811,0.03203786835777721,0.024963732221770486,-0.31764880994116207,-0.18033121501028207,-0.037470467168982405,-0.3447724283469367,0.21385940752458812,-0.07254253123813088,-0.39647574209828707,-0.3009084256410541,-0.1203568821820563,-0.35678453203810956,-0.4219249997847861,-0.37769726473040427,-0.4746973282066439,-0.19646320017974778,-0.12700403250568648,0.2651214802784331,-0.02297082482093707,-0.04823611400112048,-0.01751690822945927,-0.09545392737291523,-0.3855216284113326,0.02258161814128105,-0.17242394591328114,-0.18432516377482902,0.039493786440809954,0.23041414271369856,-0.10622457147391177,-0.2055795802857351,-0.36328705670305045,0.38286687116561374,-0.14374892481072443,-0.3093198255985688,-0.3049201859140029,0.19419251231650045,-0.4369609677129674,-0.09133076617900786,-0.19816450662537202,-0.4030355397172112,-0.2503395316189496,0.31209560375318596,-0.455401678022079,0.2828978941034766,0.45051435223036246,-0.012182349404038171,-0.5623145729362983,-0.05566200717150411,-0.49791042889756626,-0.1784133655091962,0.4144638137016044,0.20667198666050193,0.20720974796669686,0.048408515204716555,0.043117024618826494,-0.26074779742068716,0.11608818857329913,0.36185503236606137,0.03184712616107916,-0.4447835870180583,-0.18447846052321062,0.3114243926160996,0.21944980810760048,0.31881924740037365,-0.09034906296439263,0.16073472848056733,0.31574719102214127,-0.0675756905833903,-0.19110729221569783,-0.17598454040302575,-0.037562483630509444,0.23752933443974256,-0.4414485104452054,-0.07875820845134025,-0.3991727853052283,0.14593221265672515,-0.6261297905350456,0.220707186826615,0.27296181828359306,0.43088402567773176,0.5064969314917311,-0.46330075892457384,-0.24623306900406272,0.3237860137255582,-0.4602085764414592,0.06215860927249212,0.10031091235055242,-0.2096259015795729,-0.13979456228975357,-0.47294632470335946,-0.1399702710914474,0.2153353062215614,0.1191040495784136,0.3624598095165603,-0.42090604892494593,0.4424921003515621,0.47416738542722964,-0.3643098551921165,-0.35114167247598826,-0.15468915173361217,-0.010103395106104841,0.08612364672574621,0.020496177019689695,-0.6389315694014206,-0.2526813316738289,-0.14514170384824432,-0.21289453742954892,-0.0019859163207305718,0.35161480598473466,0.2972542339720999,-0.45545556764313544,0.05334935878251119,-0.6258481313408629,-0.46928725998276066,0.22213412541900782,-0.43514623054957835,-0.14904667409241656,0.25379054066197154,-0.14028032190318818,0.37294838073383263,-0.1735237316273439,0.47206430015873546,-0.4061735032867155,0.4610714885890637,0.06947074481902893,-0.47695711613434993,0.31560905270877976,-0.2569881127439344,-0.29389127043088115,0.24898001133944903,-0.33204182085435463,-0.13878845358785172,-0.07622291625811466,0.27677481184661107,0.4096498293697299,0.7415918648565087,-0.03840288365632834,-0.14387517309634615,0.3830589640191167,-0.5006301312666209,-0.14880569502972762,0.07685130742297794,0.2813661822367227,-0.39412871680954226,-0.002407061269939784,-0.018683373656095976,-0.0365693787273112,-0.10879485928442502,0.012219200244236283,-0.12539529602658062,-0.474126561465942,0.13565608273024796,-0.26168661286978245,-0.038489107457773286,-0.4142717605023401,-0.014403580190432133,-0.3637444714930162,-0.0001698257962261669,-0.1001394481881827,-0.6897281934488654,0.09853931002145498,-0.06572292666195616,-0.25056997708948725,-0.15205046705522207,0.2558678640069158,-0.08913419496901559,0.052040283872875064,-0.02615919321332741,-0.09006187761575032,-0.08765792767466045,-0.1381225508747942,0.39285749697473693,0.48743588648498726,0.37402070826434775,-0.43759091700211666,0.3041589812635093,0.30929043506785936,0.1076679424829593,0.013062957423780608,0.25285196879351296,0.19595268452997078,0.12260072445573161,-0.26863771503907097,-0.22416372093653378,-0.32592826468663555,-0.34949951323960626,-0.6857315623565761,-0.3817533816763371,-0.41040978976930914,0.22957330764387898,0.4916016757775322,0.5946183977246824,0.3473431473033008,-0.2398868182947819,0.12507999639581932,-0.4369991717581298,-0.5272111341266402,0.31095662902410937,0.3577584824212037,-0.23737944218136367,-0.280428602557683,0.3034395569902712,-0.443229130384754,-0.10756690137860551,-0.34117167332547027,0.06505854665792032,0.3674405986366954,0.43808873516210045,-0.4776554526105447,0.015206309071066616,0.16967677635106124,-0.2022392737456697,0.02913861738261999,0.1546390977459824,-0.09324342056203548,-0.11081464020375129,0.23232305186628965,0.15476018437528102,0.5722353674968866,0.058862992669461905,-0.14678167190553218,-0.02467131520128189,0.00598225332273213,-0.5975672446458897,0.07781124355821989,0.0868837555715343,-0.5266904198193985,-0.5014917960603068,0.19176000367083168,0.3443459237610967,0.23720214226439654,0.2018115616393706,-0.2860939314422494,-0.4876214530572833,0.11858915292674599,0.07153121087878639,0.36698781716314444,-0.41128798696188923,0.44047458310487586,0.0862889259648481,0.08640679358279271,-0.3318503002341595,0.23258642574687713,-0.5348968328870898,0.14938209918358078,0.47667286005390713,0.2062011524321585,0.42949118379791373,0.16527991690105448,-0.14668849473215506,-0.2945772398434869,-0.37529499388692056,-0.4436021312875738,0.0015298031628396094,-0.3245273879028412,-0.14116947871308272,-0.26368934032712604,-0.41702504362363907,0.06002628241491755,-0.04440554794296952,0.0818694917777495,-0.33069508042637474,-0.24031078508954157,-0.005081283268410747,0.22345540073897865,-0.21397088320611446,-0.00712602530272132,0.2560270511558668,-0.7021510327799202,0.06274479913901496,-0.023156826411278683,0.18217055455786996,-0.12877095849585285,0.2634465720993078,-0.24618435183740453,0.6642869034179958,0.14153771549805982,-0.2936760303068937,-0.3155347346833564,0.04501529339845085,-0.3863770419875318,-0.4878864730759688,-0.510006629475473,-0.5210554471766679,0.2959411791384268,-0.4508989013121892,0.2873450598696263,-0.5066144859862614,-0.42380081008995774,0.2523253863248687,0.2804021030933931,0.32892389526481697,0.29759049658550324,-0.02621700156992439,-0.3087597708736742,0.15088973033247566,0.08312914368657202,-0.2586605433995039,-0.3941457187561625,-0.1138000330637521,-0.1875942625327185,-0.20513563023825765,0.19041145029620443,0.004390869956786388,-0.06653054568946132,-0.3390989205436202,0.2981466820443077,-0.1940062464960692,-0.5600201673148377,-0.44047196363428415,-0.016973848967867924,0.09993554341593067,0.2558007639634039,0.24470483228789935,-0.09490422952594073,0.11611186642753578,0.19421132848786532,-0.20897491758949527,0.23970549992805593,0.09310791371674229,-0.011767985813276214,-0.36562944405456455,0.4027572643539008,-0.327702685979374,0.2555823277353127,-0.36734576136744257,-0.306861065908344,0.13076534198915038,0.2245575644784611,-0.0429725345926041,-0.10563547794310903,0.183785572303813,0.08516657915008012,0.2746290723220358,0.03187777595706817,-0.14133663274648675,-0.7169827434180442,0.18992292730600424,-0.20536463059341015,-0.5627700747811712,-0.45463378996266884,0.2214197472319123,-0.2985015980947513,0.39108139873006265,0.2941664984253948,-0.4909526806993971,0.27133492091956235,0.31765295367872437,0.38591354452000376,-0.42109254993457446,-0.3590407329090552,-0.18338004703832292,-0.24655371245123786,-0.12809105232366444,0.11766466065556966,-0.4371682396048435,0.11799605002999378,-0.137425357108707,0.009374392005946171,-0.3802476058293675,-0.4264516348836347,-0.11518486412967298,-0.30855400348593814,0.012161815073205292,0.0010136652393383972,0.08206535914241515,0.17118517016148901,-0.42703222757569476,0.3238096032171579,0.14268528545187917,-0.27969489306254086,-0.38725825139196457,-0.11380000629786946,0.07328069712227214,0.3624127618873645,-0.17059020658597776,-0.1309094933816135,-0.01911905723621333,-0.15300178526111977,0.3926187877023588,0.5847177228957895,-0.3729132604012451,0.003228710636718602,-0.48120283398965036,-0.6368690613268567,0.01545223013334105,-0.6498216947802468,-0.14309143704204846,0.029037611832866482,-0.18873328971919753,0.35198280794295317,-0.40157627484929664,-0.29885874332575274,-0.20718803659819604,-0.15924013934851472,-0.2118527176887061,-0.1922136230808746,-0.317825797208574,0.06658730524716583,0.3779401199114519,0.29796833508695864,-0.32580506990890745,-0.31874892644146013,0.48427389282236916,0.017810870112720055,0.26943532619958904,0.013984702676300934,-0.04026142548721998,-0.18726142197705656,0.2209605495457577,0.18947872690090525,0.22043548861024223,-0.6626980328756907,-0.028396278236618822,-0.10801482479122239,0.03908873181051191,-0.38529303624610123,0.23677952006633624,0.22604309750508908,0.3277948115558392,-0.020962754787695947,-0.12198465779825984,-0.062392087295233725,-0.4058399774415783,0.11232174979394077,-0.4518890129795206,0.001233471285176782,0.22690108074807033,0.49394721700867505,-0.45883075066497603,-0.12217630097658527,-0.3757352825905296,-0.4046077605842989,0.51049701959346,0.5391609058656369,-0.19153015342513852,-0.11323165719564122,-0.22632764689274854,0.24459545202477337,-0.08356130491667818,-0.1172610547685016,-0.13336506145259677,-0.2994138175816743,-0.33454791551254925,-0.20909824045347533,0.25071961242457713,-0.3768835782594355,0.1584710349063916,0.11469214859427795,0.03922963692520217,-0.07187906892228342,0.4452034921451726,0.09529015719785171,-0.20182480931168043,-0.233027152426728,-0.1574548272406242,-0.2466524741700039,-0.26511975890916384,0.4379678007691177,-0.06808342506100651,-0.33491441996088184,-0.17663791971761517,-0.24354738414504287,0.2853847014050499,0.2492306570489585,-0.09125174178021131,-0.0786749324006803,-0.21795889941496077,-0.4376685278657153,-0.5684149461186861,-0.441356925595859,-0.6036777584577679,-0.26249107618718204,-0.49107982462322053,0.38338991737267647,-0.5013807356698418,-0.021591330256289506,0.28096375090991205,-0.34541770851799497,0.03258915730372758,0.10821674049018917,-0.15871808598251982,-0.3978611554685844,-0.07060175680394387,0.3760634250430829,-0.3331864302573815,0.08032542404277476,0.13166333717870193,0.0474274570419817,-0.4591893961617076,0.4052148803674584,-0.19336873444520003,0.3208827234426336,0.23298121018099757,-0.2609564949354799,-0.3655164151451597,-0.2778800125291874,0.14630000894242573,0.07970554798756169,0.2586570820467477,0.3859437531931875,0.36616750179929675,-0.3726274845946247,-0.3788365079086161,0.030379038663431168,0.49725555478972755,-0.2392843144895944,-0.47443162773458586,0.0686543014207348,-0.43199018156876356,-0.3445582811400302,0.07258437812271734,0.055930263271073644,-0.41529070917509914,0.03916757165725193,0.047353820522475054,0.2192921530311761,-0.22026901302788027,0.21892893156863202,-0.47208272515573874,-0.11140431802315667,-0.28562992771821893,0.4097768631904699,0.43613871952894046,-0.3630665156846169,0.022777694436542453,0.29550111153417113,-0.4878859952160257,0.38915488735535153,-0.18044885330409244,-0.19323602093962566,0.36807073812698393,0.05752435277851568,-0.10495554235587765,0.17011179507053484,-0.23285503177537803,-0.35565696592354534,-0.26655775931278536,-0.013941585882682905,0.20397829804007483,0.2138449312611268],"bias":-0.2851328070894435},{"weights":[-0.4708861400390507,0.3898012145559825,-0.3970344238938417,0.28929977567075593,-0.09901877762288824,-0.48511448354610165,-0.09161945743960098,0.13676317461979803,0.1882728663940858,0.2804333822882812,-0.16253096755526697,-0.24644745452237715,0.00035747705730959645,-0.1688477694832009,0.058570194471086356,0.47964668703493063,-0.41389723500035003,-0.4334649223508832,0.27107846166497707,0.140660822643635,0.31832514548102964,0.17885095163942832,0.12554360917142982,-0.0896509388586576,-0.09170129126985882,-0.085676196846171,-0.1904208610168956,0.05588252660818638,-0.2875057977421902,0.09587039230061167,0.09105124955506405,0.3433315058556985,0.1959046779116943,-0.21716308501303289,0.012824091996322267,-0.49456265212885303,0.28762750626481853,0.27989283630874673,-0.15359843357502428,0.14284354786522188,-0.2290575312541899,0.23685916782189445,-0.36170412031335675,0.031757779118660324,-0.020530545906288108,0.10040533027485529,-0.27360965738083914,-0.09217182786927654,-0.039889243768846214,0.14421676982758957,-0.4507893327309628,-0.151969444016806,-0.18501991088114522,0.06524657832276759,0.24436184530656735,-0.2815428535340856,-0.3150523764204387,0.08893992328156819,-0.4717994623244256,-0.39786353112525763,-0.17756941468458587,-0.05713618415586169,-0.1522712336972802,0.06914144505531868,0.15924479322020502,-0.41037141661708515,0.18546896864648457,-0.644123190952227,-0.5132708351373658,0.22361902680203774,-0.6262601913983805,-0.5959378322263136,0.084535949273394,-0.007220270464528718,0.25135122386230935,-0.27248837890226507,0.07654390090348014,0.46826656783719306,0.045018903158201,0.445861610822661,0.004638669097020675,0.08884142025649822,-0.04376450895821549,0.4113703665053814,0.16248135571079125,-0.00215296698983658,-0.06878517968045195,-0.03773376517786087,0.4930572084463955,-0.20830976487203962,-0.4042799927184134,-0.07415283968689775,0.3313410142830983,-0.5748920395426349,-0.6662531438006091,-0.37195725704215177,-0.5575774702870855,-0.6965383897328565,-0.10232474510898941,0.01801558969683624,-0.6251194726818496,0.20501793972490392,-0.11120908077028514,-0.2957483891813539,-0.3186815909077783,0.3990154276304169,-0.22588905936425704,-0.1638615832358761,0.24034311373924508,-0.3452485294330973,-0.00858460898568697,-0.014556304291176825,-0.47846423231167823,0.17563447962809464,-0.21373299042641503,0.2740738870460328,-0.17302888724458174,-0.4742308701255119,0.14536663176564496,0.060033646592300975,0.011468357280943715,0.07878258823483783,-0.17274358865438022,0.1791555437823146,-0.5253246029049439,-0.056098622187531394,-0.4852822038506122,-0.06091586656788281,-0.5456440584836597,-0.3039403498046757,-0.29886807305521307,-0.0376210429583632,0.22270126526987877,0.1617622301435278,0.29758128925659727,-0.1288583916630396,0.404510495756104,0.0008296739063406933,0.27244795413069595,0.06256419858623885,-0.2139445674767545,0.13782536266336928,-0.2629990933339419,-0.33407187792187804,0.32344803856337134,-0.2918350977951866,-0.13569826553753486,-0.48821450652282056,0.06510689142006545,0.03070394489161726,-0.1536133302034075,-0.4420119475941698,-0.4866121390944762,-0.3061463853391044,-0.18003587735479837,-0.1802819460291947,-0.033236158254135895,-0.07561692134625578,-0.44627443586240423,-0.3150456453188686,-0.14638346943717231,-0.11882343208422026,-0.1918159441185714,-0.346314267989113,0.3114507627753876,0.5324141705539785,0.13249823848406536,0.49886455743875335,-0.17249307804621472,0.10647335829408722,0.4593097657328972,-0.33930003026697014,-0.04153873965989278,-0.2962319792907005,-0.05638902440525608,-0.5579521756467684,0.11789022429494886,-0.2296473549007689,-0.2859984482754966,-0.18596761655516078,-0.27654137131108536,0.10452812411515425,0.10645022919747629,-0.12299576590353878,0.24099924882429696,-0.06518776558234537,-0.025647174532145232,0.0985056059306681,0.13874939644830478,0.17788270870717318,0.35882247370565157,-0.305276158736465,-0.20041393449166073,-0.2574126790079553,0.0024966028574801,0.41782026155040414,0.02429951921499174,0.06159992238368407,-0.3492696122658616,-0.19875714273128042,-0.05002452478044062,-0.31351879511860553,0.4169152595251237,0.11359683646555553,-0.14349350707780506,0.146602532714598,0.09590002097317062,-0.01299791464799384,-0.0643632064261776,-0.35867704777537485,-0.35843773379947025,-0.10996231266565257,0.4386027186968853,-0.28074787260222817,0.31313226896961005,-0.07141045847535676,-0.2197418920132896,-0.14671299562288628,-0.2729679192521526,0.3525839816069309,-0.16119473442561516,-0.423994485722277,0.25287964206932445,-0.0767627353818841,0.3334424082485268,-0.009745166237020628,0.4931760038097754,-0.5490666878758581,0.24838916446723494,0.33470016730677327,-0.04842639175639946,0.4311494497397196,0.34158137112855635,0.10170230907604674,0.1092195767392578,0.439658521732241,-0.02102298768665715,0.060498386611515916,0.616416584214921,-0.24393435272625807,-0.036262805726943896,0.03867084368126043,0.1844468206622677,-0.4399722910958689,0.028170589200313987,-0.2686134933571198,-0.2825654937329079,0.23673070929638834,-0.03717548534301293,-0.3372405956005235,0.08601785562031562,0.29875572617455115,-0.3467463774775137,-0.32733997874913734,0.38794136024655296,0.20724818059294906,-0.1833649104719993,-0.19780889228952123,-0.24333361795293687,0.2825140526876528,0.1996895018994926,-0.16158674255094618,0.07623691462925485,-0.022252604186265845,0.4782073405131114,0.3797803469860194,-0.3191402209589197,0.42591307019763613,-0.2335518540599473,0.0944691789508655,0.2449985387396824,0.07839144084487161,-0.05455519773793453,0.35684588420097524,-0.1801924614516204,-0.19871550709079447,-0.4025250663207422,0.07833947326453311,0.011326537268383136,-0.088067807082905,0.28510761362994286,-0.46708539273064037,-0.035956462105612194,0.4159272043280582,-0.0031253828464830142,0.065359267398777,0.3229972244587645,-0.3330512690588432,-0.27587236406225335,0.051082641973842456,0.028408345926631415,-0.0735219496665243,-0.15698113905539252,-0.19166802328831248,0.04223855403767389,0.44646924942077,0.09120465818594593,0.13506707589589714,0.3363861307512257,-0.06851716696075343,0.5104796809008117,-0.09267793252029949,-0.36196511277560967,-0.15932857419946672,0.30017910150613475,-0.3993705994644093,-0.47495305549808364,-0.21503536319771463,0.09464550830993032,0.47676410134922725,-0.19064654896943573,-0.5238078984010613,-0.14643968984759803,0.23151286770453844,0.2979731429249231,0.28425552596764364,0.33163656820202647,0.22607478047902846,-0.1754779250057606,0.027808152762614363,0.5007971549902717,0.07806953982278406,-0.48263880873676307,-0.15638523907104368,0.09391600090856675,0.23251547196669325,0.23119778458951368,-0.12138100325708734,0.35580673619423187,-0.15618833677025445,-0.2189537632252307,0.2967154781913427,-0.31303044390462026,0.36999931930312224,-0.33679178941264765,0.028475158704778247,-0.42265234536198704,0.37003234497239634,-0.36155109405882485,-0.36774188857262846,0.31886938813563026,-0.309466552309093,-0.3362329799869965,-0.24762348927519495,-0.3064403324715135,0.052080830708841536,0.21897911698301842,-0.27958585640109496,-0.09303966642279253,0.00727718432578967,0.10073566958133588,0.13306621157550313,0.705550482603903,0.4232620279652235,0.47940132323557794,0.24460371773471096,0.54209830201835,0.2111173666490457,-0.15313366809683573,-0.225042067802957,-0.127691994130171,0.0693808106458084,-0.2883623970298739,0.2926618682993194,0.3785615767259889,0.14383256183614504,-0.1990420919831829,-0.27592399964251735,0.13727916398794382,0.2508522155543405,-0.23691126580847136,0.1696813069639512,0.140649747796963,-0.29896418933063745,-0.10039591534114936,0.09376117475647254,-0.3201947103751906,-0.27911587380462155,0.05115436711234339,-0.08627934419550078,-0.006906068580917204,-0.34552095055035764,0.3020696554651144,-0.1508339964110017,0.13091525018848615,0.37166041070408157,-0.23142686469608945,-0.05827547765142148,-0.5206680047561882,-0.011931646236955959,-0.27684786945976425,0.45277746371134986,0.15346111714916277,-0.1496159447055957,-0.036416184449937015,0.10173506115611887,-0.49743888823228766,0.27276353389945085,0.49844514508524795,0.6252385754234541,0.2203333701947306,0.03891007111127657,0.24352101347627994,0.09094903210361485,0.21924720861761993,-0.09501600278220657,-0.07600459275795142,0.09644999794610591,-0.22226609007828937,0.43914086235287647,0.39885537521386794,-0.07796658931457387,-0.06868777714074407,0.4257170036991477,0.17201399534538103,0.23553917090791818,-0.5156446000332212,0.3285855393336294,0.23591509700208607,-0.224929720108623,-0.46158141368371597,-0.4843608660127525,0.00931364346016719,0.4357299462007179,0.2544771404457743,-0.2597892046986452,0.33822656079905916,0.04326561909045189,0.19822708849258097,0.030958119900255928,-0.22065591379773383,0.05599969090803081,-0.23181508999524408,-0.5515681184567852,0.30771259799516887,-0.15740315745406783,0.7323683139986616,0.2185863909833928,0.35179352870697467,0.49184575341635245,-0.14347476111173207,-0.29635496900651576,0.10978395411251732,-0.3226635099122815,-0.1932311684968926,-0.009457495943721167,-0.203005834321631,0.46260750168403486,0.2872672450914334,-0.28353444462699745,0.23511495961114737,0.06440535005265248,0.03602859214080594,-0.3687781120370619,-0.13719824991719215,0.4101863086550365,0.40906267553451414,0.31625697828883736,-0.042920044213135666,0.1827130190997343,0.43860906036549796,-0.2502677756124316,-0.13314061094794769,0.1398366178900666,0.20677030709954392,-0.16442179174501165,0.26827358209877844,-0.38729875012982506,0.3682932970024999,0.3155799451368604,-0.11091469398197575,-0.033786703278053894,0.23149235372166532,-0.35568910617731997,0.1166835752620852,-0.36747622298870725,0.09336567180309319,-0.23328310873069802,0.20598411565004662,0.39970400286230656,-0.529181145894136,-0.3136867446288604,0.057979537927121357,0.0013636434665375238,-0.4003146762330284,0.23955613287095234,0.07333934298108581,-0.01531059211080144,-0.45823644920771345,0.29955067872818364,0.47682437490462615,0.5297967511475301,0.5194313547255177,0.22111029386129227,0.0877276411816464,-0.29901609765092557,0.2200778958964203,-0.2054706234384871,-0.5845067257835166,0.020239180165742082,-0.2725948875184486,0.523748110296627,0.3618558501203432,-0.2454493594345326,-0.11838483757518137,0.2394957014209985,-0.13435294984129129,0.055293883779414264,-0.3477287786655153,-0.021212367350041558,0.05447488167966616,-0.09432863937859429,0.06835974618838185,0.18931738803066053,-0.5616981382122852,-0.1529206893980133,-0.010016405189047069,0.12155337149412031,-0.14652929255043265,-0.21501954295423642,-0.47233546934104065,-0.11394239141070582,0.023199889781326675,-0.40098744148806115,-0.19531000013451713,-0.08145262004546468,-0.2391956430249565,0.07474663326573219,0.4057184783137592,0.20306040219982247,-0.23221434760754034,-0.22590364527560808,0.03572364211389867,0.3838147076696067,0.4680079232155276,0.3480953296481927,-0.0856804602911272,0.011843502737503139,0.13449929288619256,-0.46878509673746255,0.026277158166558127,-0.16759295266538765,-0.7768022021045639,-0.5730711069030722,-0.6133562581078329,0.36400797658175216,-0.4768731853504645,-0.20650251495082522,-0.3568083185631053,-0.05254559923807305,-0.6745259895717152,-0.2907538494910076,-0.44456689229891344,-0.8335874483482616,-0.09489881096142501,-0.137868075348648,-0.22796484340444556,-0.10708421915145021,0.1385458520239193,-0.2737486251700316,-0.22013616112234025,-0.4333370089759996,0.20104042347575427,0.17933852091713237,0.15139716012187543,-0.1571058763312436,0.07117607384568395,-0.5492330819412538,-0.3931194478995548,-0.5613216031335999,-0.3322445817733192,-0.2935844733312472,0.16615141388890792,-0.01664703439123514,-0.19214444749281095,0.11465598644689125,0.40854235330538424,-0.21663933867735305,0.017447817068807152,-0.280082955595063,-0.10221436128649206,-0.347435880956553,-0.12714718684669424,-0.3809303602274697,-0.1551721307896096,-0.05739226075907834,0.4075496067867919,-0.23369978969422545,-0.44203815262301027,0.32781131244582196,0.48299717373930917,0.005488165170492222,-0.21425357393997183,-0.029996681539497135,-0.7185541368142904,-0.16911901937031157,-0.46159277524554276,-0.3648231215469724,-0.05965393057286615,-0.2299310471423181,-0.5153905996660354,-0.38847688252423007,-0.10735001889207949,-0.23153038074922316,-0.32336354727245015,-0.5009986924568274,-0.1476108471465639,-0.35392357529710233,-0.08595401222083265,-0.59883595671925,0.24370398552174316,0.36706844482341405,-0.3118131909494016,-0.19567778557543475,-0.2718926817975431,0.3599495759346927,-0.25472959823534436,0.485721097440894,0.0007514022430141421,0.11626441662433454,-0.5024534323606139,-0.49250196946599983,-0.5068900214366764,0.17902478542312072,-0.11943950725240177,0.4407132685034779,-0.308394648577953,0.2546321235608632,-0.5436549383144214,0.2505486736947095,-0.20640522302082528,-0.3617237036999627,-0.028050647381905575,-0.17384291795485413,0.26065922071378533,-0.1218391009208452,0.33236187801705086,0.36396997060692704,0.26664317236609036,0.00219930312213764,0.04573692424627718,0.20320112017685857,0.3123252491493041,-0.04003885601683499,0.16777934141166695,-0.382505544297421,-0.4467730015912693,-0.1353619525115774,-0.3007284929165576,-0.4733259549979408,0.23782441379714495,-0.4752821894276261,0.042974534196700845,-0.2929608589361274,0.10812529546780084,-0.527046694487302,-0.125437768685028,-0.737271879876439,0.034761287329529794,-0.10131257617896011,-0.05647982084603993,-0.33953981188792554,0.028628650515073125,0.1482588465874882,-0.3885965734946999,-0.24900279848081258,0.1594977909391017,-0.16989448787717046,-0.23466752946983635,0.3744177244713992,0.18884674951624073,-0.0363273910322337,-0.3720510595316022,-0.11649223327994684,0.25169539616277636,0.04924957305195144,0.10849292315708063,-0.22689900674361987,0.047817923198527734,-0.05133226434046246,-0.22375562603218452,0.17146546126119283,-0.5196033852497044,0.02940138331016195,-0.14581041757910682,-0.35384775853201245,-0.3265654517895015,-0.1010024506703887,-0.3854785913318852,-0.17826720934080745,-0.04496759622158561,-0.3175848121126763,0.5019619745667964,-0.39452070803238976,-0.1817572146000809,0.07177032616047797,0.11306035443146956,0.05748794134606116,0.37898841823873053,-0.2726656771366216,0.11995169373792758,0.37566120691652405,0.020348198936100292,0.4932618821804612,-0.036743426918908646,0.06630082438588547,0.27420777459774476,0.20461818302222048,0.2996945681484564,0.04302775566413814,-0.0011793483867195414,-0.14332594487015848,-0.1559116904683937,0.12519158117434143,0.1410277963695017,-0.1722476211592784,0.31468151396898675,0.1752939589934037,-0.061332946578568005,-0.07387822376430161,-0.44497108573790684,-0.020812010293248546,-0.10666664043206726,-0.35175004816471706,0.15413414609794057,0.32293085873644073,-0.09845790529664389,0.21370434065779198,0.01060337450076787,0.23374416284113664,0.14396876154895577,-0.05890330115307196,-0.20236229461861174,0.16356939389781142,0.34124865226333584,0.05059695278612867,-0.35940053645670855,0.14271522357039662,-0.037144631337999584,-0.1880470342664141,0.1515042314638924,0.29621195121427457,0.10000460298940247,0.0490969026723469,0.3897264897026282,-0.14371128919093062,-0.47644777492681833,0.30622026237534483,0.48028381685540583,-0.17892150123590475,0.21980590897007046,0.3534568351832882,0.08627344381523165,0.1334019142969204,0.3807201471520478,-0.07523104906016287,0.10395145611439516,-0.10621739705114053,0.3104184942840549,-0.4623994506383037,-0.3331042016327961,-0.08011371061566075,0.05010755397274998,0.1470002242023548,-0.3210163017829651,0.1861898388754546,0.35141004645573054,0.4287286547493506,-0.2006169253161495,-0.4742600893668885,0.2327330362964983,-0.036582501818058236,-0.38067811171962884,-0.3884565509553649,-0.24721397609552034,-0.20026586734519727,-0.22880967838037364,0.2038434437985851,-0.002304798484653925,0.47752534496236065,0.04061596090716724,0.027923658997408562,0.10993069251760523,-0.037398261169473646],"bias":0.26209115081038137},{"weights":[-0.13181601610581584,0.24713063203597618,0.2541713604508433,-0.49318182657370124,-0.14806464934636943,-0.1367655232877999,-0.028750894332538635,0.28054149230454684,-0.14368525302852053,-0.3077659384809929,0.0973284744159213,-0.0368993304819869,-0.11318994747190769,0.399160717267545,-0.08343570776560505,0.04938439451341592,0.1683724158162916,-0.2956988883071807,0.24213160417058577,-0.03450504754243877,0.12230688325368089,0.22414919555720803,0.09403198344538333,-0.36085614982744274,-0.1844985097175713,-0.1757225204203321,-0.2927046948746813,0.1685564179895116,0.0049323751791523485,-0.3858930755491895,-0.12832955225024034,0.49964249818490436,0.42588628207820334,0.48175879512864633,0.44608871317347026,-0.158519936064081,0.42605788208794027,-0.4597546800832755,-0.06024064087673771,-0.470003004040154,-0.1679412830421575,0.032929967766554824,-0.3156847321565019,-0.4488085301148682,0.3799082818781889,0.09232220488164722,-0.06047847645692559,-0.2626557264822204,-0.4363431971486389,-0.3649673622720987,-0.0019678268563974033,-0.021343463060413126,-0.3029158823729703,0.03838735734232834,0.25453972133956193,0.23309912344325356,0.42311695105113933,-0.1318975586795611,0.176332436820975,-0.22722723616434248,-0.09056099911549487,-0.08229787300610257,0.23638355731258026,-0.2971431509194716,0.3883924448655879,0.33625414995952563,0.3019799605757458,-0.08244669024917274,0.1218275411803041,0.4071422986545124,0.06729906731582062,-0.0006439131482090041,0.01637475469901944,-0.4618841945357633,0.199559591199742,0.39711693595535846,0.4784600190376062,0.16700342927177608,0.371398465940173,0.3616915712079974,0.24773249318073956,-0.10314241999963203,0.1522695627406213,0.47058521059716374,0.143135292209415,0.0301128313791027,-0.46337231562825576,0.2756663431085542,0.46014127407509264,-0.17304993073070388,0.2531534337635692,0.31253877047057227,-0.10880705414324879,-0.46892994434069585,0.2402067281794249,0.43113087217874135,0.36351119331538706,-0.15862122116571148,-0.35936812022439524,-0.35884959353303564,0.26044934998548563,-0.17578161628126016,0.3754226557581998,0.05754074146940615,-0.4954828201444654,-0.23342917560389448,0.387968445632129,-0.42426791472546843,-0.23870472057185696,-0.39060066581569675,-0.1482364400703444,0.1273896727236371,-0.15456787023022434,0.237884758341533,-0.35428579243676983,-0.07993313330756659,0.12381168753076396,0.25947122601539174,0.13782754407163653,0.10123508373969417,-0.448477855837738,0.1387166604785194,-0.5984769836489887,0.32577609961178466,-0.006737414069351857,-0.427027719835502,-0.24905766570540253,0.4095618686010604,-0.3423118741882747,-0.11112834430533926,-0.03591551442928085,0.39612750204627617,-0.2766263701528827,0.4579284416450161,0.411206135444029,-0.2165548643613627,0.32498986713408967,0.3920216233175467,0.4017965172868491,0.21834978417956408,0.47175976474949743,0.007652013230607205,0.31039130638910123,0.23696488306168823,-0.43972413515731007,0.35430445092736595,0.007083176314756997,0.2739258074923484,-0.03759150254772591,0.20348957958409095,-0.2829155809228869,-0.499182643489923,0.24734089378258026,0.08647070012982619,0.11301201752192973,-0.4856218855022021,0.420256636708755,0.11773869607772922,0.30146131358812,-0.2694490300292073,0.0016485099975549796,-0.05540061101306383,0.26854726201981316,0.03738905857260898,-0.028977681819042325,0.4328088798487355,0.09893008068747369,0.2026016073760858,-0.08145242808249997,-0.27313074506215596,-0.18259118029884397,-0.17992520710260154,-0.3384024256896354,-0.4813804095695212,0.02166615230586273,0.19384878502924596,-0.3447007278472533,0.22666025342941815,0.10825548887664858,-0.24017361370541712,0.13192008923726078,0.1584930121674968,0.056851010682895046,-0.19608897442104709,-0.35425215411801453,-0.062427484354822774,0.29962511999938735,-0.355164419773452,0.3914164346796376,0.028006835071684204,0.11844898942474649,-0.09135362131535736,0.03700503968041444,-0.13579338463750318,-0.01779232616493717,0.37951285874858887,0.03771592525702605,0.4860916664460097,-0.13050175035253156,0.13810853239403573,-0.2394391109445586,0.012439155565582036,-0.2170476693531343,-0.07348556116964486,-0.013121569800152102,-0.3308618775298127,-0.3405307764648189,0.0971504712988948,0.2469993618776123,-0.392563629220797,0.2146757517110275,0.15854490527577997,-0.022848163763047265,0.5655395734114639,-0.19972099252532957,-0.23268513381389216,0.5342759899507898,0.42607216753677335,0.2338880862200391,0.15860967679698382,0.013784606021500095,0.00707909707216746,0.1405771925387986,-0.21571361412941964,0.09921165870754234,0.1479691592622233,-0.48860916391235915,-0.20224396032963082,-0.13199155607457527,0.23576551860761785,-0.3851676786044336,0.21258072054865293,-0.040118117245383215,-0.13319194353268476,-0.10217600524596829,0.16141622223368285,0.5308783287578525,0.24698539008314677,-0.07016152912540688,-0.1751080855839343,0.07954467309590811,-0.3642111375632875,0.08162896878593957,-0.3543850946053394,-0.01760815637493872,0.1955702287894047,-0.39637803007639383,0.28754262764830585,0.2249015028706321,0.26326501803060665,-0.05397386351373923,0.0400421349674949,0.07880572874175937,-0.11144296997383193,0.3796342255546081,-0.3215585001969934,-0.10519123297974231,-0.6016877521106017,-0.0807432982718337,-0.18546172087603327,0.44545985680316336,0.5128754593633479,-0.043681133220529,-0.043820784133221935,-0.02408500151706819,-0.02832747188842656,-0.0566528284961131,-0.10336833615604121,-0.34943079346435296,-0.03576943102665452,0.06723216828457408,-0.005562014813524304,-0.20855374141937924,-0.22531915671601763,-0.03891950987115249,-0.0024250313787666862,-0.2751121102170441,-0.039290574382529135,-0.1189513455803806,0.4131502950325069,-0.4378288285404803,0.4250698975204284,0.21987556323649504,-0.16787608557346217,0.13533123259765797,-0.26071877718886255,0.016907276990844634,-0.27513070098914794,0.30706182640378316,0.42263529171935654,0.04983572445721338,0.49474945341048837,0.6115578643766734,-0.02218775525673927,-0.2729720045516217,-0.2211175786224188,-0.32604395817861614,-0.011218608695316228,0.14496269503728307,-0.2399629917049162,0.3789788198833865,-0.07531951170371921,-0.2639735749137437,-0.365492641559756,0.2333165628608564,-0.4629393367307246,-0.27906326420120986,0.055111648891634994,0.2638529357400269,0.4665056661635216,-0.08469595487486296,-0.24977544450583436,0.46025371686237054,-0.2362505019364452,0.4404623213513804,-0.13187285982431557,0.02429287306584198,0.19045798943857334,0.6841968514349331,0.6171453973309893,0.012195822692868603,-0.34812101874155643,-0.6203591730068292,0.03094276189298433,-0.04044465676689149,0.07715985597557484,0.33071855399646116,-0.28799250486879346,-0.24167359155114765,0.34401316826605904,0.2675980188557733,0.06270668689386456,0.2511206933169856,0.3989059706809655,0.4431800464599416,0.06904426369788917,0.46454470851945584,0.4956801073784624,0.06252582132194094,-0.5009906425356928,-0.12333871927773958,-0.03377304549536044,-0.09245184327263019,0.17236241229990845,0.31041291565683815,0.1663379877715902,0.4806325221349753,0.3311928741621927,0.21434465522567275,0.1638491152884481,-0.08689363011147705,-0.5149712098018502,-0.046244270512337655,-0.21366085635883003,0.15819515325304911,-0.052981419654303495,0.13709087104980514,-0.2495948013373281,0.3171393223334792,0.1850010610314222,0.2214834240586841,-0.184080570032198,-0.13277245084079523,0.17314545830942707,0.24766474169647268,0.2101495823963668,0.0194176291764104,0.036966072088058126,0.4899083434243076,0.549079778872829,0.5193428907316248,0.032386979113639504,0.6683211666666654,0.3619294209845355,-0.05506160695016352,0.30377464031728735,-0.26868120780495885,-0.30832497767307676,0.07295802095946345,-0.34206696046990825,0.00043620994632528914,-0.02938540636399619,0.266298596103471,0.018743777372883293,-0.4534340657030555,-0.12089156512463559,-0.04767063047686495,0.32888609573638977,0.21353956889493775,-0.3000757040148956,0.42077214885195663,0.3056520042867241,-0.21500414058657902,-0.3824322196399098,-0.2114229659506923,-0.3597654169430042,0.16647959835626405,0.07931615905872547,-0.08059164269052795,0.7804364610697995,-0.11741344908283001,0.25961457404241645,0.5041747085325152,-0.1375766216589137,0.12497590741802246,-0.3216725562257658,0.35008842789684896,0.07537659058140003,-0.39201888806253155,-0.04299050041498603,-0.3769546212197289,0.21504682323346702,0.2884027669540244,0.06818335097454478,0.42736642888456855,0.15978232137391185,-0.06430704900332208,-0.18440355214635323,0.3946862010878867,0.1512839086047696,0.10615195429706281,-0.19882310094477573,-0.43162192176626074,0.4098830385737911,-0.2564864857540945,0.3654646014514566,0.2925557081944682,0.22443518268640786,0.6280273589404487,0.10342414972589731,-0.2773670603609017,0.08451146195075047,-0.5220186567873359,0.41438283032066175,-0.4629492672759906,-0.16457213034124266,0.04413399685201524,0.07321890585229837,0.19766331226561248,0.1399786041915214,0.3336643581238702,-0.49574000379642347,0.27813478706438916,-0.009359800452201254,-0.08522803099706718,0.32269755719695176,-0.10459177738952694,-0.41955974668136226,0.14164318558157185,-0.1414188586103568,0.3223347163570175,-0.2271533965424431,-0.5401831977873098,0.1569503296909801,0.3045888684911983,0.039464227208032776,0.4305726952270186,-0.31887984354160637,-0.36343635116606204,-0.00535354048759606,0.22625977374213163,-0.1042477958891169,-0.4343188340607396,0.48373046222829785,-0.2171001155681574,0.46966880465618266,-0.2282942555771618,-0.09098243268827388,-0.5048405028886719,-0.42866013927899554,-0.42717821564570013,0.15233845284568637,-0.07812715054524172,-0.14221938666141953,-0.11773366910517899,0.4103064262291724,0.34828039531891264,0.40546138124366005,0.28268416133531493,0.1728149439562585,0.34051170738325837,-0.35876533853261605,0.06304599016037285,-0.39899648725833237,-0.18610836457796648,-0.3765102489393825,0.23110547173474444,-0.19479083197095962,-0.035549744763238446,-0.33304324514383454,-0.33223223845738076,-0.18839217318827428,0.07585870989204731,-0.4657858874167909,-0.48115055611143986,-0.2644831947071537,-0.04437497461526162,0.2713121643174254,-0.5487131887519835,0.11224516843579099,-0.17072421371552565,0.1827632629261154,-0.15422230486609373,-0.3108354724868121,0.3141501647125071,-0.40592829693944155,0.25811874132042456,-0.5046910654340299,0.2445109085074997,-0.2761295535531736,0.2647308070490129,0.35137688609850504,0.20847218594813255,-0.1528183403280248,0.17556827707929745,-0.18895016450025565,-0.25476174191437234,-0.4855550036701796,0.693130645972071,-0.22429293103800285,0.2906094897465381,-0.2759906283587433,0.0110821151340665,0.07893062356981215,-0.5310199155591193,0.12508972066913454,0.03346173954646221,-0.5168201980733799,0.05089910044905962,-0.32929500062424755,0.1652939560234661,-0.2962037367252653,-0.007216650460637797,0.20954591445150345,-0.1216517907806737,-0.296125651051356,-0.4383668926536684,-0.31364882196219585,-0.1411234926554531,-0.22952304473172527,0.07795854725258511,0.15257592449131793,-0.4144864936975171,-0.1468645055702149,-0.4750531847725489,-0.15805898040066735,-0.07792720372186969,0.25592964036386207,-0.08933113153657977,0.022846844407050922,0.22652316896254876,0.2511372751762442,-0.29631289423141155,-0.013014010161032494,-0.15102082868236158,-0.2898771259984559,0.060847769964903056,0.3172855670463612,-0.33632744572691736,-0.22896906193421973,0.23453961574808813,-0.3126946915649386,-0.45703794078147336,-0.32317984799700183,-0.049140403005680997,0.21370375906035255,-0.07371248647332612,-0.1340115823406099,-0.4550920495206214,0.1659803992527467,0.11080402672142506,0.43028570947188016,0.5509235100195352,-0.1470966270689414,0.38383481400745234,0.4774297737593385,-0.06842752427006334,-0.3090416367700296,0.13640053620680478,-0.5309027885748528,0.4129608881835738,0.04518636716205927,-0.4548758851003922,0.12472435167608398,-0.5377832665793665,-0.001794115798190301,-0.32547401851032876,-0.3073626574000038,0.26357394994399297,0.41153273667201673,0.2960553108695307,0.35311653425398326,0.3462556746459676,0.07775452940670907,0.04139790796862963,-0.47111071057492027,0.32893366935773993,-0.20631670057204604,-0.366846280295702,0.042363022171548845,0.18030236207348574,0.06815168532259552,0.08105945564853591,0.2093886847781724,-0.2727886518091646,0.5459048200280617,-0.12947589005879942,-0.240156398261718,-0.35032051921448193,0.24043928524119595,0.42311798300947473,-0.06583166473540852,0.2718781949353276,0.3333119850648183,-0.46643244208644236,-0.23780818136052828,-0.18444482366215864,-0.05342496928302953,-0.2028542214409554,-0.33415367059127543,0.26428730257838695,-0.5939183325873376,-0.39276848271418274,-0.23315209722107919,0.2867002688340922,0.013440271512082862,-0.2933105241611006,-0.28066139964167625,0.14728615142329796,-0.30253603350802494,-0.2799889953566083,0.4371555509945184,-0.28527929412194886,-0.3495204362365002,0.5530978914103672,0.016608985404518703,0.47774567726364764,-0.20512155201783333,0.1330588400130118,0.2811320701228824,-0.07854099902808248,-0.17194250794794155,0.05401101062431414,-0.188433406363805,-0.41942385006203275,0.27137748140935664,-0.10420954329858093,-0.027601817813380475,0.4064406470282272,-0.10300727118589517,0.330371758543615,-0.4621043781633739,0.0694477757631646,-0.2047796565734181,-0.34286440825029657,-0.0181709820963245,0.35286779476332153,0.38545401493456893,-0.262012793592772,-0.5707895398669449,0.17977216435308324,0.4524186411200986,-0.2696191096076697,-0.41576090630123475,-0.19898336558667581,-0.025403038738364775,-0.2792354055167281,0.5215199140858887,0.16715475153550458,-0.020768195475553673,-0.43762834156150027,-0.4636479961631236,0.4825344130932874,-0.22659291636236623,-0.18561535843535337,0.31870686979971524,-0.49706489355412753,-0.3973868781397783,-0.528853020955895,-0.10507071805897358,-0.027665659741496033,-0.4296566894051545,0.10542496832170455,-0.05587145475942967,0.29398681945984634,-0.11936032350779177,0.01772315081942229,-0.1880256586874469,0.039897164167988164,0.2568100183086567,0.2764999401898438,-0.15043149001028533,0.46021986532547543,0.5287607373655653,-0.020168578471681936,-0.12906416205974056,-0.43462332121945324,0.06271059801950228,0.3121338880137834,-0.33613139537728154,-0.31226114424983953,0.041772489757840425,-0.442016412234964,0.07418280000505868,-0.49041156338092085,-0.41681835717169374,0.383435456696219,-0.5096788740104863,0.3506253805901733,0.3477752916570502,0.18288570797758805,-0.22927115135137888,-0.3488490050388044,0.4725260092351331,-0.4182825621809016,0.4228293925113658,0.33795175475616646,-0.09803826294145652,0.18486281438131028,0.27684257345937363,0.4233027792853533,0.48145799876051254,-0.31567740421375645,-0.10258628574695695,-0.44844750712492615,0.35285043714339137,0.3437614754166196,0.46973931159878424,0.36140666002565147,0.20700594024242203,0.1246605568244955,-0.015817583297242255,-0.18032310764871823,-0.18849497720041372,0.4379724881493081,0.41314610322522927,-0.11670499770593266,-0.17067842461590924,-0.06599230825519575,-0.18625858379069993,-0.1882206036046813,0.4317903829290274,0.3456437993496747,0.33332393267008414,-0.41900493726446125,-0.18178614625493142,-0.09577067434395106,0.049351376601973224,0.15357352634520607,0.4503447203767011,0.21065730832744617,0.16651811160743127,-0.3566621090060691,0.4826023174289328,0.2591665996535508,0.10984557468460798,0.1234022543510862,0.04758227247001334,-0.4606850080704965,-0.03211432772583844,-0.14246539230180355,-0.11902002258343714,0.1331965171392777,0.3033963840682405,-0.34604910445057774,0.24949527453748682,0.25678775907897655,-0.05809503109258803,0.13052531227423958,-0.3768186458658913,0.14630937181734022,0.4722142911676392,-0.041315143709187846,0.4914106806802565,-0.23915546845721075,0.2642628160427948,-0.5003911708115146,-0.26378658490795365,-0.31437949108748275,0.2510325346987753,0.37453162163357656,0.09166655308177207,0.25671353374626027,0.19607210733699387],"bias":-0.010892512598286502},{"weights":[-0.3604363122475114,-0.011025987360146594,-0.26152957727156156,0.4449514805830006,0.3186199583494186,-0.17181121591399817,-0.06545520295157714,0.17004474523334723,-0.28883351174835303,0.484837024020891,0.4194334435219036,-0.30626105543579973,-0.4787873842693028,0.26532797244983153,0.43740612241451304,-0.41022008621263417,0.14638142197698945,-0.42920135343973087,-0.18922573983777524,-0.22662056245372042,-0.11159558989674845,-0.44866014496388085,0.44450218298738353,0.4806023979728612,-0.033500507164480386,-0.13640351673285434,-0.2221762553972031,0.013975661535408634,0.22319885873541734,-0.12570379695090717,0.40738631998426234,-0.3409414762123356,-0.07821464245750376,-0.1256268173425564,0.17188622024530117,0.4443634168099013,0.27794559106855193,0.14475088880122117,0.4932478473038715,0.42165108062596884,-0.014547465072281687,0.43885723374061136,-0.31814289874902235,-0.20591983679727416,0.06881934434084763,-0.05493456965938779,0.4757993114540942,-0.49713655362789855,-0.16044695969859207,-0.23812393961769507,-0.08515703961347487,0.25525674108874663,-0.1396165516561112,-0.12427881794308415,-0.2167160539610481,0.07260799011601993,-0.22762941443091755,0.15940632021486723,-0.07255442300553772,-0.12249730908210399,-0.15718716566494983,-0.4511120054080908,-0.3159817472518038,0.043557412629639775,0.1763337718637761,-0.05253533589703513,0.2789517273296828,-0.3865474303729798,0.17995210504433945,0.4318653000410975,-0.07475751550804823,-0.024721664600262854,0.14732150593498317,0.28781164426917266,0.2913603964788219,-0.17534451321347236,-0.47394561557665504,-0.3701128584257907,0.10647522531537541,-0.040503183672936524,0.45535065685377063,0.391722923196814,-0.39836606168341604,-0.3334752132747675,-0.12671989675483208,-0.2659377961139524,-0.16790638820029402,-0.2837245339497526,0.2537006088401967,-0.07972355253235933,0.494988059538393,0.0005711477670463913,0.07820665026126572,-0.16877979921194708,-0.29236056778555597,-0.3210477472582926,-0.39524632859472486,-0.019765817182746434,0.2386080011588324,-0.21465799954217235,-0.18644563141828635,-0.48629981233247543,-0.45917853729050007,0.23131098215350912,0.09678814711444596,-0.4522976717724006,-0.067448967228797,0.26149810686028707,0.04240968996643067,0.2837179582568079,-0.3233800425661165,-0.2656407444521627,-0.4169928541556681,0.170097024907778,-0.27005555595003405,0.3068799347787447,-0.17709715500933576,-0.3419214106879749,-0.36316048415164964,0.11536011488482706,0.1855511667163481,0.45755314940556235,0.1605971239876152,0.40118008557231805,-0.1674274906297238,0.07328587394158491,0.48471089360201336,0.05891317145632562,-0.08704850674423374,0.39303920707311,0.34384718753582305,-0.5549231583671176,0.28630334554762366,0.07450374792853438,-0.2750875311760567,-0.4549344380615689,-0.41189620092220103,0.36577604253980606,0.24225718294126514,0.09291409026991893,-0.3165678181308156,0.45163149910355577,-0.00498333634638054,0.4093102863684968,-0.40483668251412686,0.4576379190898535,0.28475837090797596,-0.1090730266931901,-0.3067476693801383,0.023458820017659865,0.406599594719545,0.38839530937513767,-0.1991486931926269,-0.018019342420633733,0.0810131365920235,-0.1642147532058951,-0.3766778865660089,0.01929666667870408,0.29844758382669145,0.21760317649279529,0.17802335614016687,0.18097050030397904,-0.17889422402304855,0.4595676146961026,-0.05568889554054689,0.24709794878414984,0.20913616301029747,0.3792619363601316,0.24422711748507986,0.16011128560634547,-0.3803065174726489,0.001780523796102888,-0.09513319065585105,0.05887134236254776,0.08557968257886533,-0.2138263870634638,0.3241451817794798,0.15251460551097504,0.24552836129936334,-0.02376867605510704,-0.13149302613652064,0.06817300165399712,0.05010633715568425,0.5901582118006381,-0.2018716080509961,0.41994256149310727,-0.28600929067044584,0.26491575162718256,-0.43692736684945693,0.1505508801977118,-0.3593035151785369,-0.10990230134051987,0.04228801492734357,-0.27769698787732855,0.2826406726637164,0.019256230509413174,-0.4207637370760642,0.4645322347123827,0.45471141014599586,-0.3607147554335474,0.10184839281522298,0.21273104368633936,0.021037372235396198,-0.27730764033886474,-0.4975552633515767,-0.05480835948874414,0.2996681203048356,0.09839699247343156,0.04573811216245976,0.5166232224802428,-0.4363318932556727,-0.2811547340014317,0.3872671766712221,-0.07415648877391386,-0.10066216648529415,-0.13147629570486172,0.38008459699568686,-0.5878345497257312,0.07577590104538912,0.1927055258446346,-0.05106887802420411,0.041315491949255566,0.34753760308517234,-0.14775839508334346,0.3556755417082412,-0.08757954947146905,-0.39140252170124495,0.37756026830841416,-0.2901225396258533,-0.21668448500656556,-0.1953951664593123,-0.2755230378871714,0.006317483661088857,0.264910429925278,-0.5358276367753132,-0.01907669505176814,0.052472992522060925,-0.49529389229407594,0.21717987543275127,0.26889958710603057,0.07959758402662274,-0.026284865222610566,-0.14279918680866102,-0.036525868607809986,0.21588597221921021,0.09108472366454844,0.11700894282161116,-0.015289448419352696,-0.05295897220174182,-0.563322140713071,-0.0583647595394781,-0.14656516159141386,-0.11316822779297361,-0.00608027344043069,0.23535996002249385,-0.10521054302967443,-0.3172386328251545,-0.05025675841081213,0.031869416232508274,0.045490140218930504,0.02970938396729444,-0.13613358214411742,-0.06696699802538246,0.39496368395046066,-0.4248372883082057,-0.2542335518374891,0.23603913948086022,0.16869302595241836,-0.046736819486868114,0.6380124065994283,0.2254158038807382,-0.26457697316584894,-0.34321813687332775,-0.16224209915232746,0.28037834475788054,-0.20024672340461216,-0.3588804188703503,-0.22611192376269812,0.35261534390490834,-0.220543429602697,-0.23655330426793222,-0.09580349722432996,-0.3635336712486011,-0.4847039435278103,-0.3706112300747814,-0.24637918459701028,0.002833663864842901,-0.05929535664292906,-0.36630975671010313,-0.24314987312877673,-0.002106427428090711,0.02439426505753591,-0.4422454896619801,0.01248498874829997,0.24544042365884303,-0.2649668312752044,0.0469423534963727,0.2141570404921043,-0.275179070664495,0.06960834735624548,-0.1496328855681224,0.23574227004869,-0.5125117889141639,-0.26126241083693025,-0.31884340270741646,-0.17534789476693452,-0.3963937044875837,0.10206505276833054,0.493676468783886,0.1434508167093231,0.03432881041022138,-0.1724076972122022,-0.457938554988739,-0.43364852379421537,-0.4069777875756085,-0.25280885276131143,-0.5393158061239347,-0.6397870158130167,-0.19734369485129846,-0.595129130945198,-0.524103839333641,-0.04925504280316224,-0.7953633494931012,0.004355906311478357,-0.0793423297246088,-0.29493071426803474,0.5595707454628888,0.4257801775037951,0.097595475567492,-0.36724217574674667,0.26121539191615134,-0.2016292810963286,0.41681673422246585,0.2813375929398933,-0.46373642730439696,0.05870162403891312,-0.44718429700218487,0.48351980111571463,0.16801074450694617,-0.16179569803359647,0.33294977617046645,0.27315409037292043,0.33188666040921716,-0.22149263549381937,0.053893937456456834,-0.616352338048457,0.03685382165446291,-0.44346054765358456,-0.6123335208952821,0.0656151935219719,-0.8810146374513237,0.1567467402803852,-0.27390957683599065,-0.40981378203486213,0.2417229809616482,-0.30373488593351605,-0.16549729723028261,0.32550704848995604,-0.33397802466875554,-0.40256862743294747,-0.21394841442141035,0.002801022747877338,-0.09793650278209086,0.36133979910400515,0.3011925634206487,0.3659148584993509,-0.09286584174070543,-0.2031507337184964,0.19595890387967008,0.10002123709396206,0.35184470829534903,-0.14465004589029537,0.21697818496639634,0.2955127464866275,-0.12838002530797846,-0.031707330428066685,0.02393941066359913,-0.28934249819730956,0.11664230026139769,-0.5208386893938406,-0.3499802743312716,-0.39851189379375357,-0.06599238427638207,-0.4266803559511922,0.3056433531901643,-0.4349636026379754,-0.36850524306900195,-0.2015071332184533,-0.28600354660419114,0.09124250098291536,0.4217492234627035,-0.19353518933280833,-0.016039501288636293,-0.4719305232806692,0.06668164832776834,-0.05810880386774159,0.0629104279095736,0.13814015368260124,-0.25716990764723696,0.24250080119576817,-0.2630059084805551,-0.41514053460145284,0.19939770259240652,-0.3765261936269438,-0.697886469931336,-0.3677216709606632,0.3610968639315038,-0.10970392362095695,-0.5703946065825264,-0.060752377357487536,-0.09254328369154918,0.06542857769048617,0.1651986127937027,0.13866032068758977,-0.011988268958571711,0.4723163513033266,0.22359709279923942,-0.30476457152270414,0.2532854431538046,0.11147454918953825,-0.4476990662859136,0.14151700639210363,0.11648545791815954,-0.46705365558492723,0.4340723443551519,0.314096016841663,-0.09084156768971913,0.4517792125788471,0.2615407881300624,-0.020101094166361022,0.2520157952582947,0.1870499767488355,0.31620789452094195,-0.10407841610318627,-0.3133415405309243,-0.49120097894601283,0.0174385805086955,0.2470839377393123,0.2613341921520033,0.13314137323895525,-0.3221827499799553,-0.4066528732618716,0.21783181467568052,-0.3454809718760962,0.40861787278223216,0.31444537690785146,-0.10433986953754461,0.16044823016922805,0.238255793197648,0.38362809318121693,0.185637980607878,-0.2780067118271972,-0.476963728168433,0.466421209395096,0.1500872602719803,0.35388972222521553,0.010764627861414309,-0.1418427159266692,0.3073141063639265,0.17180028666429054,-0.391446977551107,0.046233810366955126,0.1408920018287315,0.18065394102706053,0.10259019406614563,-0.3279614201990542,-0.2738670834373772,0.24930104961848368,-0.4559541961727892,0.18565332880185498,0.17044750584759305,-0.10927667906109516,0.5125533335281566,0.13891326055529568,0.21299503996550026,-0.33982662069429725,-0.2517208953575324,0.473995403017226,0.18479626364625817,-0.18653358497291492,-0.11711167289635158,0.2125306214349256,0.6181740892209098,0.5672308686002596,0.3919762510032405,0.047547329007102714,-0.24699926437155365,-0.22511096865489255,0.5583957490608737,0.1270227958139049,-0.18750549967904376,0.1729349825299377,0.09799927536872667,-0.21445954668920644,0.2412024903734979,-0.08991756622170556,-0.24782506622931424,-0.16946260524883006,-0.21139523507792723,0.5656986573794053,-0.18484423738264225,0.032541265125960346,0.1883844803565006,-0.3476500330810738,-0.122112839771092,-0.3050343982084055,-0.43553025177894966,-0.2197896806097814,0.3980895939669649,-0.05721394468061304,-0.28968227786835776,-0.01867057157396349,-0.0724536204733904,0.24114608565576923,0.2921869979630629,0.601359781234162,-0.038888446144652464,-0.30543465526565294,0.5749230287205298,-0.1410068050271579,0.2526200601850812,-0.21218208852740203,-0.49104570403246195,-0.1487310896730218,-0.013262960420723337,0.12174370734581372,0.554908195316899,0.28047851312381883,0.1439272819605225,-0.30031743946473816,-0.23426516581326443,-0.0997067769467906,-0.36380519371712683,-0.1212190855843895,-0.09906714477894221,-0.45304723206589104,0.4866772444931259,0.43584721563334217,-0.33328329778562976,0.29350955896572184,0.30067732053215435,-0.22292602587851854,0.4366918251429487,0.056721064997008255,-0.07281891995446899,0.5133751578221716,-0.2397729509527313,0.1107707536919727,-0.10672527429285952,-0.11823079462992171,0.12841035839693654,0.22659672248470097,0.5473091106683643,-0.2033465053703275,0.2978790388136059,0.6459704279421333,0.16771252229831807,0.15082806638917243,0.041656584725024114,0.3416744285741301,0.45334965448106457,-0.2436174250055712,0.26999150582456627,-0.1355103235741103,0.23838755132833403,0.3674566316914948,0.11943701783744474,0.08435989713319089,0.4070326291820075,0.33682442703379706,0.046116825496640236,0.13013723825535298,0.4427148576485904,-0.26508425023776294,0.034764054763050424,0.028837422620139653,0.09375445642591936,0.5594679020974667,0.22183635555678374,0.026957861696574725,0.17263881315319682,0.00957167436026902,0.6195259079908944,0.39950605924939453,0.2038565590344275,-0.21954893796731753,0.31266038085923303,-0.45809803093719836,0.041252480857473794,-0.3082534293075705,0.2511506679346328,-0.2452023123068853,0.057636476659852005,0.08420358553133411,-0.06829221660931256,0.17542204077269896,0.1883627285850501,0.2441848229881943,-0.34161732880971085,-0.1615752964986529,0.07673162553974074,-0.33559142344857135,0.25221676854228414,-0.144162397436363,-0.1478209422030646,-0.06517034555608131,-0.21646852953219942,0.4091796205325964,0.0073810655358539385,0.5443556170739728,0.16845182254297378,0.057307965043851654,-0.4466251667567928,0.034595751572600066,-0.2901877565609279,-0.4968714775985277,0.3645143679112547,-0.3315375916009511,-0.3012054956935579,0.33377871171565654,-0.46683670961871737,-0.25159707277464666,-0.33313423865492164,0.3195891092688453,0.42874469355375233,0.08586656031691463,-0.06605777087280928,-0.18100828451263135,0.21238348662876955,0.3638779578834097,-0.3896676804945986,0.0815809253109796,0.02817994701576419,-0.11216461122092583,-0.027690337576157718,0.4767174014835042,0.35510110049845234,-0.035012167224004506,-0.31346262053932666,0.30745123728304924,0.20991512323465644,0.4588848416318023,0.312537543468859,0.25826190332081744,-0.3463266673625722,-0.21636865336995487,-0.16090784265695382,-0.21535138842621207,0.2323048706973082,0.08345212637214741,-0.08727115374445993,0.23724137229832315,-0.10990552692659028,-0.5232785751707024,-0.07937365756544691,0.0623706276365705,-0.08557113990475981,-0.4214810824381467,0.10759568373318479,-0.7030075464829193,-0.3953276909187942,0.26406387037833173,0.34191840262419704,-0.5408959835094016,0.30071148374597567,-0.00441636812448676,-0.022686913872496876,-0.2377896426073061,-0.01051303157475216,-0.4533640132921971,0.3984741870185424,0.3377036100018468,-0.2081373459756517,0.16042215280130556,0.2732122139237222,0.17308218801352612,-0.02412416497579244,0.12995771309454268,0.3199761397832556,-0.41359662298490296,-0.5367339336299454,0.1475229172452784,-0.026481138741343217,-0.3784030075223812,-0.07062186626269977,0.08914288415229432,0.01936173713902838,0.16229758560180707,0.2026459763208921,0.04844002456968339,0.31538945560050724,-0.40517204473755425,0.2280115096403771,0.06934982149928111,0.4223475717229419,-0.12419369872035933,-0.20637894018336655,-0.14222699890143256,0.30651101374416345,0.18449119900561428,0.11972065839058543,-0.17308262809804908,0.381129523750926,0.12247116620977637,0.2982646673447,-0.46121969342834374,-0.3428036785684845,-0.5064550429774319,0.0957161749916278,0.11924990753796885,-0.21443337186285155,-0.48122295899157824,-0.3440057893111891,-0.3104387079358049,-0.2555704964527077,-0.5318299173046095,-0.5472114947170292,0.4323494323363794,-0.0812330941804736,0.3229110497693974,-0.4351892601087359,0.4102135105561244,0.07435668568131637,0.11849948088654688,-0.3068003452336986,0.21113211907069135,-0.4607875660987887,0.26070235632151084,-0.037105047136467895,0.3344915190947061,-0.45446272595060355,-0.048901659607321735,-0.49899259545955194,-0.11012623789087773,0.2407062812392252,0.061866750843595254,-0.1543955247523461,0.14579202010540793,-0.4173131495714673,-0.002519689388858167,-0.4352737646095251,0.020508021059956826,0.024494729228707674,-0.44983524235551703,-0.05313715499695315,-0.5082891575063566,-0.10575190227857849,0.31448541559025106,-0.3185851057358052,0.3256110078996758,0.011113685723009657,-0.01378570416140679,-0.0347823677976256,0.3736193332122262,0.2959527064652089,0.30934374253050123,-0.26129322756108586,-0.48749737526765546,-0.3000580381305542,0.30515142857442024,-0.14475440320516164,-0.11103277930969091,-0.48733084417982986,-0.40626429934903424,0.09798970170134289,0.2987654679938734,-0.21681420205564111,-0.019027250728668725,-0.03216784321410885,0.43025765238128505,0.10715275878228207,-0.16817777077130033,0.30802049939457943,-0.2796580428094268,0.1044746596475007,-0.38221599778645193,0.45982919431681396,-0.326510540581754,-0.07799024267895682,-0.06631300813244367,-0.06840062926145751,0.17608622886629677,-0.43821138181342767,0.2956695925075006],"bias":0.09407939196352816},{"weights":[-0.22071210048815748,0.11625169951210745,-0.1147260620176217,0.44524661640839125,-0.025529181542805812,-0.3297821002217428,0.0765783625491967,-0.3422953029337946,0.44910905876155816,0.12077367425421015,-0.42440086154150203,-0.048653048751659655,0.2842142404277592,0.43589653357848845,-0.3114197087190722,-0.3900194005728085,-0.4324075693837717,0.3136991440714899,0.3349177948177572,-0.319342502816238,-0.12687508793308688,-0.47644020415099175,-0.47116601692258564,-0.3498112105304122,-0.40002437461999374,-0.16364387270473124,0.00941890140218904,-0.032766484121280026,-0.020541928822484512,-0.300626344800594,0.03052199729529581,0.3906865966987524,0.04462370900907964,0.4219829515842704,0.16606144614162088,0.02472389202828011,-0.09108843137714413,-0.1008771430762051,-0.09231074797672464,-0.19526982500748274,0.4839571571525729,-0.43223480891040056,-0.01133775370007167,-0.444244814418803,-0.1716568660331586,0.4161039227440395,-0.049601016911439304,-0.4300151368387665,-0.4105690828993307,0.36237166791058106,-0.2910048458777027,0.22587855930016176,-0.0858703452768097,-0.0012683229916551353,0.2685781615773014,0.24050983336094067,0.14508274287980638,0.19584644299861453,-0.20382808691854648,0.0818951070555839,0.49374622470603324,-0.07055207953580098,0.4136210766321083,-0.10550863416900384,0.3665487475384248,-0.4696016380576233,-0.1974258915538111,0.4469871970167151,0.054878148294286985,0.3197437770776801,0.32597018715818293,0.310348129736651,0.061202129426300406,0.13213774365073128,-0.026316942588552994,0.1879370659670808,-0.49065159354684335,-0.1587438664390885,-0.22774117988845602,0.23530756557915347,0.4896976928650553,-0.33996067732709234,-0.1698334607785429,-0.1856872503566166,0.32023392527789385,-0.31382559081133654,-0.26383534037996226,-0.11355233274737697,-0.0888408822191828,0.46882176842642315,0.3542205415904736,-0.08941207588591409,0.4226090242786131,0.13497182781964476,-0.027967374574437518,0.3621672922358331,0.2168534652940247,-0.4818787759356682,-0.25536965979329385,-0.011528065963513964,-0.034588523331297936,-0.4328299260835594,0.3378828406923263,-0.09751499783089515,-0.07583798844082615,0.051539321719076284,-0.38488233148315365,-0.22095265493372584,-0.12001997696911577,0.24093169888330643,0.33676401485393004,0.3532453719366163,0.026084902198784787,0.18808190748176623,-0.21749816944270162,0.14284138614061284,-0.02632735383745644,0.030864278773372153,0.45047699325703294,-0.5176105915585596,0.3177772685197532,0.18697870304272357,-0.14676704787436215,0.19146172098153585,0.18160592105631992,0.304975915135438,-0.5865503016649668,0.26691649302916326,0.20403210525960477,0.05438020543004009,0.2477188354808754,-0.26488134456786994,-0.002065719598106587,0.3521850263112522,0.2594277407519591,0.30495342958146865,0.18824560780808652,-0.031294088512227904,-0.40823722851557726,-0.3323879868919971,-0.31183448403769687,0.062366067432785305,0.13637345345706778,0.08574048944493799,-0.05067526020329977,-0.206345233009369,-0.13758862333237556,-0.20497216615625782,-0.4756727460256278,0.02105560712666666,-0.06763761314679045,-0.2815025933604627,-0.1421588250734205,0.38902121103575243,-0.2877184149092168,-0.09873798757904621,-0.032634932784769415,0.1832632639092058,0.269736601121445,-0.3400408293817849,0.09977404126860713,-0.3916763360020055,-0.42586672577595136,-0.15368026370346535,0.3448879384744481,0.009025592854356465,-0.23188851698248578,0.3292383167382694,0.1386186326514145,0.3619882155041617,0.09798777908353075,-0.023735900406043713,-0.15563364448285757,0.29712000214670614,0.09132228077222852,-0.07752068945570632,-0.3642742672431276,-0.5418694477766486,-0.43413071045970275,0.3032904486468689,0.30014927190524154,-0.12380631108252341,0.4623627457730206,-0.3464316887888014,0.3232183801743452,-0.5372849382492841,0.10186142898839531,-0.12914805843292643,-0.17592094650894208,0.2914707745267186,0.15048406212330062,0.3497439216463573,-0.2231780385883984,-0.47542420832425075,-0.07396294819595421,-0.22514103764791454,-0.0554066833995035,-0.2568962664555645,-0.4109692538707726,0.1289009876991123,-0.3520981163036844,-0.2655291009975351,-0.11280556764035395,0.39079533231799135,-0.13891572401359864,-0.11048302770468169,-0.3135906680976083,0.11311074714602022,0.18958975411401552,0.2741083286220275,-0.29910259402242617,0.3287217880402613,-0.20363493194168605,-0.1433746775376045,0.3906155533814986,-0.46195736518701735,0.4723225484388732,-0.15696925164986314,-0.03241277682794419,-0.13968632559746597,-0.5106951087684365,-0.08907734441787979,-0.12003923182677421,0.25822908553864804,-0.22526361328172417,0.24229644514449739,0.10168791365056483,0.457933282644065,0.315556987959939,-0.36759302520788273,-0.3869592101782793,-0.1569051221347033,0.1937372052241817,0.0034200847765004515,0.03406672716532787,