function preload_4_4_even() {
	return {"id":1708558005530,"layout":[4,4,10],"layers":[[{"weights":[0.15172360355407488,-0.13244013468831384,0.13913633032310024,0.3993135853991099,0.40326860413855115,0.1481256246270759,-0.45015922069405356,0.08562311985998394,0.30131598147879435,-0.4887035305092633,0.06385892269053195,-0.35190741933341096,-0.44449077240462653,0.4462943589867373,0.25371673076384726,-0.1108438857397015,0.1959598945939912,-0.1071586054837027,0.44614848011484143,-0.421733232080605,0.08065688540434723,-0.07998726118568877,0.3388163272179021,-0.36538909932304586,-0.1138567972645318,-0.4185282928987739,0.15794501535935213,0.29432707421994675,0.45413160399115704,0.10159257986086445,0.1485674231539691,0.0031354024662894053,0.47682546406461745,0.3858139575458875,-0.194599393183821,0.0930296953384906,-0.36137270500070473,0.09103886044697754,-0.4236193474270887,-0.06546608822431244,-0.0537925428182574,-0.2414704982808509,-0.3768370979996821,0.4114146796551263,-0.28603302041700607,-0.24991974400453762,-0.03698339424709056,-0.043579354106101004,-0.08401268243685332,-0.16649026541454148,-0.39683047141844474,-0.04138917804469777,-0.4066124413230988,-0.20508349148776295,0.07336626157360882,-0.17297961401175566,0.0619426356162891,-0.46734894811832606,0.48249713017630147,-0.4289952009320547,0.31454219123430793,-0.06201019688037291,0.3574271710807505,-0.4372944523605874,0.11676891503785489,-0.2405542290301558,-0.24707418389036856,0.05437596517021245,0.1910606982293229,-0.1720751246702052,0.09071206344202894,-0.16519869020336111,-0.28470988340602393,-0.08226420491705283,0.0793263261881565,-0.3953694920711421,0.4345919425975392,0.23495370264709317,-0.12473480453083745,0.46643394502752455,-0.24713483914149015,0.28100687169657645,-0.397652479617299,0.3235452949085664,0.4515376046192312,-0.09660358086531595,-0.07897155343072026,-0.046061984805435774,0.06705256312008641,-0.32051893393441616,0.36721026925961203,0.11783329229024207,-0.35549621201963766,-0.21593977512262233,-0.07767475263694765,0.004337425576969586,-0.39235299969686405,0.16361795891941555,-0.5318835976037453,0.18485969790310633,-0.028106793325058086,0.216538974515911,0.2460077878831314,0.039553681041368124,-0.12696572238406714,-0.265058838810825,0.019284474154721835,0.2796964500342344,0.4409306939176857,0.14129308920126502,-0.469840839702857,0.2815257901712658,-0.3796029225048615,-0.37077122499036397,-0.10530913351114124,0.4900023494846229,0.04236961667654812,-0.2943464725193918,0.19155457783530544,0.4502535501589887,0.13271663730657354,-0.12620161239267605,-0.27039809865145437,0.0893066404706789,-0.5097383281239123,-0.005938667267284939,0.22557169711567834,-0.33113100956680164,-0.31397627301605435,-0.4602737542836117,-0.11734383549239383,0.07159316242874411,0.026585555123465773,0.054878492688750447,0.20408486211505733,-0.25216956262320417,0.36296951881108463,-0.44919167586331904,0.0890314495703753,0.20865283861209372,-0.18696937951798498,0.4957530002673638,0.03573702989254738,0.3351353190308733,0.2983694149163592,-0.43750288901437434,0.011177358072025786,0.08847429891236915,-0.08040873311576754,-0.09622380778793489,-0.19626361238516576,-0.23458854728528353,-0.6473320937174274,-0.26106499572026803,0.2647193026075545,0.0034543925759468745,0.4025137115482192,-0.386786534689042,0.18863348580064854,-0.08699110385231924,0.3185232383977695,-0.009806473679648908,-0.045953712157879835,-0.38966716433895776,0.4056425055684005,-0.397368843909561,0.13209675006473648,0.37987619084506996,0.2966132956503881,-0.004915717385066798,-0.15683325120960245,-0.42324111026045175,-0.33261441824384325,-0.3239681429464706,-0.0908055215211842,0.2223909276036977,0.27850600377839546,0.2744524658474678,-0.2526715948734157,0.24947905342328316,-0.026204102889111208,0.16409528757536188,-0.4787859839663524,0.07033073338213634,-0.07888881799820485,0.42503259404376753,-0.3878387647783356,0.3400250889855839,-0.1039527153976172,-0.28621781372177313,-0.22763112160227508,0.1582553965103181,0.18651997820736235,0.07324251503070901,-0.30745112515896483,0.31647797346396705,0.3513751704387267,-0.14136470112973587,0.07099948196293848,-0.34432643466128604,0.3203247217053861,0.05516315746697737,0.2966953358293602,-0.15848021021134368,-0.2819995482712213,0.35892178576228717,-0.01647498116332386,-0.34044759867575447,0.1545931210572309,-0.08206002382517863,-0.37051649011574533,-0.11649553611528178,-0.3704113222226688,-0.11519006957945499,-0.3241629295044242,0.240637743225406,-0.34573074883869087,0.4118766800837213,0.12773381109369555,0.47499401443418027,0.44039909165585334,0.23299449773877678,0.0754198720647815,-0.41296847717232704,0.003954637803360139,0.1950547977328395,0.3579667624664408,0.3406998831411511,0.03131889625879907,0.19213973632549164,0.27727658050053605,-0.35605793463101265,0.28298468903162755,-0.1452053224691844,0.234593795732711,-0.04947138439627019,0.0827111209969012,-0.16485646279475655,0.24082060757023208,-0.22573218007831633,0.24766251420114674,-0.17610101459221147,0.47487061186867413,0.08004413984767537,0.3320253422764355,0.2261318168796845,0.03728517094829756,0.06622913413296108,0.3460415032687977,0.49150595347854337,0.3347315185700388,0.4755384225782991,-0.026644272626794696,-0.37783202016822043,-0.4588891619867569,-0.23308335761760343,-0.29712378743317736,0.3160089436174287,0.32342597472751033,-0.04677371886672456,-0.17087348255985266,0.07674853866833962,0.24129314656577427,0.36389454258664894,0.1671504085118473,0.19780455028910893,-0.2402102511214488,-0.4493885527107015,0.05285342513753984,-0.3361327773994846,0.1927873458463178,0.20029159071111388,0.14794151531383049,0.5446212205667309,-0.04755020112763225,0.07387485885211499,-0.23982969303170593,-0.15353029829349216,-0.2538419523421111,0.25421378359233077,-0.46992762638317453,0.2300745140902438,-0.432824390378719,-0.10090940068104398,0.3519923593488691,-0.07016034392166866,0.3942181815561668,0.024335550423413135,0.5480536818536982,-0.10414988643682495,0.47835961747485867,-0.15465186324649702,0.3833474113541915,-0.26019465821992593,0.5542028604799911,0.05454096342835137,0.3096529214254515,-0.0059895275420483824,0.15160321336874186,-0.0765420100046495,0.15859303696783916,0.25137369085322575,0.2765605844581091,0.5755169545461652,0.010190891955625244,-0.33772231131117186,-0.12258829925147394,0.4029976586260799,-0.15341991341791272,-0.4244935890721187,-0.26566560623710805,-0.15602300813518089,-0.21727347736569744,0.2889830781461442,-0.23571489756922315,0.2447466059633542,0.07853468849923857,0.2573495408311257,0.3818234514376147,0.6421274240518644,0.35799044755817305,0.4223016588476303,0.03164591281496504,0.3504324887540679,-0.01288755943696827,0.2873314957306239,0.29665735769112417,-0.28030583911494356,-0.02764824443664374,-0.3443369890635415,0.22995684454242246,0.013667393070137203,-0.14883415236445588,0.09003719241098936,-0.061736509478974584,0.26183457699392737,-0.11369271246089763,-0.06734042768993882,-0.034939565627691106,0.018790998570273,-0.10211338179359375,0.3555431394762471,0.4479366609904961,-0.04122331764480004,-0.03404868495875312,0.6759882371277097,-0.017532805238002134,0.5476230282959125,-0.15841509697703737,0.4748912239328532,-0.08987842370592697,0.623470462338432,-0.09614672730143944,-0.06263617579383693,0.3501394730144233,0.35702483201278756,0.47968280189712204,0.13662020241316136,-0.15202721571037867,0.2630648869559301,-0.2531689709150661,-0.47040368972341856,-0.45741749252147634,-0.4512322225229497,0.2706309076058876,0.3631085640855739,0.2650400587652874,-0.30769500050319903,0.04007929249327487,0.02840999872561642,0.3079429066699545,0.1965946061981154,0.42367911964228305,0.1452904422546416,0.1549904283301275,-0.10370512699019378,0.6334693855906279,0.20251986335378722,0.24147334030597448,0.332189966126824,-0.06734754688768964,0.2026322388557474,0.34471060619972355,-0.1229219060531989,-0.06195290641035697,0.20432666548307055,-0.1717502193628953,-0.25388119266742604,0.29943741173335797,-0.11031230499785068,0.08767230099878366,-0.039386753348902515,-0.34156218980297126,0.17778296049072062,-0.2806141037789544,-0.3842486820524312,-0.17852947445192538,-0.3655558003954467,0.4067567124303461,-0.11151008041524627,0.24524498998327873,-0.006667296299499545,0.26850308531135564,-0.12488990081119884,0.3020504316155971,-0.135026221369245,0.5020743635303813,-0.3137105431526754,0.34166281286351985,0.17400903658384792,-0.06123049759379951,-0.04381836413836297,-0.3192928006557746,-0.522971789725282,0.06259802382265939,0.3474857413256576,-0.14487871129412752,0.0054149760492795485,0.18162690402902387,0.37819414977672594,-0.13439345993554508,-0.4844742269405895,0.10732607353413903,-0.28757681677930524,0.32362448243861597,0.08217554459325288,0.2804239431552681,0.2366736172911391,-0.12537465067286288,-0.171316177328902,0.20022054779163362,0.17221828826223531,0.34324440880957063,-0.1709753399811966,-0.16538144324810644,-0.18200497524793383,-0.08643697554066546,0.3879158631824408,-0.3380445194295041,-0.32985011511596696,-0.08780032041862795,0.29684804965243194,-0.018645229218789704,-0.503750915017732,-0.4240631601876704,0.045153063117729236,0.16477382776338775,-0.0934836090360121,-0.25780685041870866,0.3814863770056733,-0.48880189284700676,-0.31714890438661364,-0.43353296573542865,-0.013530061587173377,-0.4299739181676108,-0.1777031347786295,0.4007252154669938,-0.2853256335481989,-0.0721150097289025,-0.3301982513679098,0.09325984481615761,-0.1995015362472163,0.3416546660560873,0.5098213270558827,0.14909219494182233,0.30893608554522584,-0.07413123980971537,0.5088393262330543,-0.2785016815580742,-0.14353929247807398,0.28682197009867283,0.1631939807470623,0.05396170913328141,-0.350662023158842,0.462322205388729,-0.05036331741929728,-0.4925243832444326,-0.46666268244141573,-0.43961753248519947,-0.05045007642318728,-0.03993066043454027,-0.4985377859460905,0.13831690503228922,0.1668764944545426,0.309317370282167,-0.28771829651821756,-0.25362657644192543,0.10474950790687426,0.3626750009937401,-0.35970294797373287,0.2269160629105853,0.008390208295132968,-0.17963858297813146,0.5060406217922936,-0.22738566330452636,-0.24852041433699995,0.24130348534884383,-0.51229147373075,-0.36809271893350665,-0.41351436773464734,-0.4056830132687826,0.18486113194863343,0.2268920662654365,-0.03703815694377914,-0.4612694810141259,-0.0825552715109191,0.044226505445727454,0.40163714288911806,-0.21874836332884698,-0.0016726520006386096,-0.32121763529336267,-0.27006727585266466,0.1193692157542251,0.09976433489108558,-0.11381471182274837,-0.4919788893662808,-0.38577607353113197,0.05337115364672234,-0.07970866395681354,-0.4325133960817331,-0.13105506777763165,0.051505549455953564,-0.30229783950951494,-0.48239212996489783,0.09337432369257295,-0.34668579819936174,-0.187954751633582,0.22267285671255516,-0.18849021448568248,0.19266741381627783,-0.18893786696506348,0.05335867277159541,-0.057661229787536517,-0.4850852393847698,-0.39980958260089233,-0.10864455378506875,0.2720019827556056,-0.13263254914040917,-0.043293593322700726,-0.3354663934708682,-0.2999874504175733,-0.3546324779831751,-0.11838207248559988,-0.4116385762171019,-0.5768243767946023,-0.4777719904757102,0.03993221425180726,-0.132683907859279,-0.2267326246206231,-0.12601253123547296,-0.347097369590476,0.422432011445838,-0.4367337913627311,0.24784443082434204,0.07154218721866382,0.06821076896779729,0.3586149693227075,-0.23285778949146946,-0.06802172700161455,-0.35187657260949357,0.10054435802478101,0.18993147481899725,-0.0963520470879241,-0.1225240608056702,-0.5778936833802182,-0.10622777971736588,-0.1520615037030242,-0.3175036205997223,0.1149845799782859,-0.5962793014149899,-0.5607439178265888,-0.09845008286651444,-0.0871983182173478,-0.17287849140314399,0.09081310157055268,-0.18208134584071897,-0.0303894847166383,-0.3860673909107509,-0.3711605808487189,-0.4222237385928207,-0.40509539377979364,-0.5838968676002187,-0.4528111451564553,-0.41721504169469703,0.05886237542196365,0.091552010836386,0.288458671861247,0.21796734245684002,-0.36705973709642536,0.3112011078048962,-0.078113444233308,-0.016396671770111438,0.19900686145262414,0.28564329793326315,0.07560728937080077,-0.14200690586389167,0.015897715692124947,-0.0030851917847744053,-0.34686422463795547,-0.11720758387359954,-0.34930200622046786,-0.6540357887416222,0.15880633071543793,-0.478505105878559,-0.06711361494123869,0.23194101587462548,-0.3036850569401373,0.0430009941999431,0.24951718523851396,0.18987828056875172,0.16136077417338796,-0.2955203770993253,-0.3987202214843414,-0.1340028940007667,-0.24690796479665272,0.3488736251377331,0.07141611018152272,0.39080463241688,-0.4141410235206495,-0.20132092302348487,-0.020006149117768803,0.18137176855823356,0.16649085317285736,-0.39668581834333916,0.21729587178347573,-0.32386218758423124,0.3782188416843275,0.4240454672135031,-0.002585754540733468,0.5277969312801081,-0.07116134477838627,0.24810953431348237,0.12267596954821586,-0.03589491613427374,0.20967559429660118,0.11021840304146663,-0.33469553841821903,-0.5263134318259161,0.037369254442427946,0.39464982316016306,-0.37302033679912716,0.4696686700034694,0.24919523103596725,-0.2556278535919517,0.4084571109450129,0.2714643014952688,-0.21434106748228698,-0.32392320993075296,-0.5046404667537264,-0.2016787142638203,0.4441863268948216,-0.15579889605933991,-0.354886217721911,-0.2091865950374364,0.2766246020353484,-0.30123654397239646,0.16399227067518152,-0.08354769018242891,0.5644492656822467,0.15554557300819105,-0.03399866673457038,0.3841003567656219,0.4094302096306489,0.3638437946064361,-0.14371612917752583,-0.20951785326097994,0.15106845585801143,-0.1803317018851726,-0.0005635956802805888,0.27668726299221724,0.4233162510140429,0.38890614382661426,0.26631830768742704,0.19914144703747905,0.08289650929152903,-0.03474943878936171,-0.07335538799578335,0.45728662709112594,-0.21878251055704523,-0.19996630357220788,0.1207500505375716,0.23859644294681004,0.06114315141713635,0.2768153877793484,0.16403161214924655,-0.4728274481028148,0.26266058647118556,0.0930391496287421,-0.006978440853811866,0.1765853949704032,-0.15774765499375937,-0.29904818404900807,0.2198605763500072,-0.208888637664912,-0.3285485614380175,-0.07971973608183355,-0.3018249269194573,0.06765320646441782,0.3415449443724633,-0.09333733331221139,-0.28356878591469836,0.48030580678667845,-0.31472474208110957,0.08133094149992304,0.3936642342694734,0.1811025086598589,0.06986088345046268,0.4355139684660696,0.22041354356485496,0.36518641894746956,-0.09265358678438047,0.1347185108650826,0.3716280115980927,0.42084159598417975,-0.04389770431907627,-0.10232263202699148,0.37066078608517483,-0.31442619360836443,-0.24698378942212518,-0.18591990079494522,0.22451411217736425,-0.41916149676666237,0.06403486861912128,0.31873755593126907,0.38054050301725556,0.47404590984950234,-0.47669750820709633,0.2335909376630213,-0.19882006876078706,-0.354483761295339,-0.2783099596137315,0.0015909472708378614,-0.06026425278172376,-0.2650402137804066,-0.025202036986358263,0.08797801243885296,0.1859384262764433,0.1634998245208703,-0.06753431067673119,0.23063181869874397,-0.27307712369895204,0.09893196321907598,0.03796419934450074,0.2270404481189087,0.2452008253713321,0.430318852208989,0.38376813500992063,0.23127592238414788,0.40643912854183734,-0.07370701597621743,0.4532112836679709,0.3779157542798113,-0.3808633902926576,-0.12664542145571178,0.17916310885696096,-0.0028020777495458837,0.2362328017926959,0.28181112300181765,0.1658769198069462,0.08607719862425167,-0.04163398682777397,-0.2534151878860288,0.0030830642439405587,0.4257478766713919,-0.44980747342056115,-0.32769726288207346,0.039887491102225336,-0.13805479097743079,-0.15972552140007734,0.0022341886559171797,0.44467984231382174,0.18081039459192505,0.3556914270983501,0.19383115140328488,0.2569146727268713,-0.48662866272672134,0.30097791538471574,-0.183729581645249,0.2676824503656178,0.024962560433538727,0.3924143476864219,-0.25239751440426983,-0.2769101122695976,-0.3608466791979491],"bias":-0.3266069187654683},{"weights":[0.04690505997662564,-0.36508731887893964,0.16964960273537488,-0.36289224639587203,-0.005484004451084212,-0.3229828706720389,-0.22533822467521003,0.41124494423328917,0.04439763714415046,0.2074011345055089,0.28482289558808005,-0.36028061620155494,-0.016675646116385057,-0.26466881067281667,-0.2197613011618238,-0.47665421815651987,-0.2843443493592682,0.048514097694127956,-0.3821752013048457,-0.1683538122129572,-0.49957359547770797,0.3119975889628016,-0.2426047052716931,0.46759600739201335,0.43419988598175485,0.10170725461573005,-0.18821970938530042,0.4311656077129513,0.4956877434416347,0.3041912386096406,0.15957566613215468,0.370325956357623,0.036880554454311376,-0.16945782078075744,-0.37321153935901863,-0.31196449127080944,0.13107398398542952,-0.09680366756023186,0.0649349780267971,-0.27679889010629455,0.19952229333750574,0.12716974261738062,0.2505695837338189,-0.3872411364519676,-0.42199116478901133,-0.31874226832597063,-0.3380793219694836,0.05764210114534328,0.3423877668375342,-0.027494112514704017,0.3525328196275843,-0.23412720317889724,-0.19634039799657865,0.2514749487492888,-0.4077130255584501,0.0977969561353218,-0.237865700260387,-0.18986079825238755,-0.46258436405273706,0.04308845383461202,-0.02862408101013658,0.35703477980452264,0.1930593294253133,-0.1617718921175146,-0.38842214991081797,-0.2710721522760289,-0.41079446076998705,-0.2744306129881416,0.02482993935912853,0.3282973737594347,0.08380085392868922,0.29879289061520115,-0.3034198929150895,-0.35346343662742524,-0.04495011773088845,-0.3784672692612113,-0.3935368355385217,-0.07201987424474017,0.27404595731832343,0.4801620204763978,-0.15585619406714923,0.05936394035073045,0.32538723824407667,-0.10170183148863299,0.07145070340862625,-0.12922118339025956,0.10146374008064851,-0.1241106553526663,-0.25644081240333083,-0.46524284260373094,-0.18470372309494465,-0.22455040498116727,-0.2753537208251006,-0.015942759269241755,-0.24108853267208888,-0.2663788122201911,0.3306089554792516,0.011631010746334252,-0.3181466884752085,0.03453133829102314,-0.26672927431661386,0.1664104184073297,0.44991607831352337,0.21863099947927592,-0.06559389433724837,-0.25743500628946386,0.026493952425328076,-0.005602302837755996,-0.15377404596985628,-0.17342131597776697,0.34799593898659303,-0.27848238175192097,0.034639472657325365,0.28318497644452933,-0.265916949833371,-0.3020968058244043,0.15586430614891258,0.33131120006435977,0.42474224149183376,-0.1362798034367615,0.12189364869731593,-0.2919340286690919,-0.1963150988383877,-0.47347739871555555,0.2298754703098718,0.07063968424809391,0.3411777092906029,-0.02832710672259806,0.04530940382070589,0.0955318025932895,0.17945381435207466,-0.0832169255838916,-0.0801464086484723,0.12120885954589244,0.33226564761029775,-0.25710960559673296,0.17568219906697655,-0.35083968191105364,-0.27345148833277766,-0.1089170882363002,-0.26752545272441175,-0.4069949670659908,0.43761783859322173,-0.4206756620504357,0.13173758790755943,0.01208561130185305,-0.1265805415806478,-0.48703330784515875,0.24490939350769791,-0.16393392231795925,-0.4903824024483938,0.12452995510785511,-0.046803758253638,0.43899128029428464,0.47625377173408706,0.22563790215127838,-0.09155281283265981,0.008721262674557638,-0.008088648321698694,-0.07855361362631179,0.40122538267031227,-0.0038220993539113033,0.17697992456191666,0.1940556597508795,0.038938221932747284,-0.4660040904242219,0.09730817804648857,0.20479025051727406,0.3100342229504566,-0.01570794562616251,-0.3901307150440626,-0.11972551188949146,0.24437738724667496,-0.10735343807864407,-0.2586249166455141,0.05568582819214387,0.49745243739074935,-0.25088896573094105,-0.0066717492815750075,0.14798767176971298,-0.472598586590362,-0.037288940477755876,0.046500451546666786,-0.14055148654230934,-0.33238990032138016,0.3752539657457397,0.3234274156679062,0.14876226133342235,-0.27830249139260343,-0.3670803000018372,0.08899756787267672,-0.4393052377783885,-0.14964181944972293,-0.1503865173033785,-0.35124482757243825,0.23718763745927193,0.47102186189000694,-0.31532057714821904,0.45439527015917536,0.04801394924715082,0.2947588604326414,-0.09512013078467474,0.30654759863876746,0.1244562083052306,-0.46514773886988264,0.3525206763784017,-0.25777273921474353,0.3750105428424749,0.22455073232476008,0.06284162368149929,-0.3799762254168204,-0.03586402916107359,-0.06806482525752225,0.0762148027352785,0.5311243485766346,-0.25922479080601885,-0.13616025882377383,0.23005009698580106,-0.42690431033780035,0.3687944295128463,-0.07530915972823679,-0.2839643850135372,-0.16020135131015487,0.3971409709517186,0.06615397072817641,0.034839456236652744,0.16433400639546433,0.11398346187186113,0.3349296068762003,-0.16032786295593698,0.31001526111504457,-0.40335217206156415,-0.348030895161839,0.15618960762470152,-0.30744841561003966,-0.45955854493091114,-0.23410946050917772,-0.2273806412461823,-0.3143668042315747,-0.046858603209350716,0.23730673041232256,-0.061367848350721094,-0.09227392615460052,-0.17231499578743756,-0.28383047552685436,0.41977429776635233,-0.288681480864869,0.27824067503774336,-0.1694467221109073,-0.06652072120990662,-0.21997892202612732,-0.46098813824885526,0.11015711504947556,0.39810729672165907,-0.29441923411021853,0.07393576571628295,0.45288049452277696,-0.013159805818895434,0.3350927805663106,0.28921493794013586,0.35044277449089195,0.24721729703635784,-0.38505042604193873,-0.08281310909222464,0.06515314687101786,0.13084669930050882,0.2541339288243842,0.3446232979562479,0.46234151836646914,0.5422030848531699,-0.24269290446958294,0.3089047582274013,-0.3633553610324029,0.4071096576249944,0.5087598685012199,-0.4743275687749816,-0.07992519811931532,-0.17729219476099656,0.4216119870267554,0.3617828043087135,-0.4731873252923171,0.4689436480198328,0.4945740459393373,0.29268814125157816,0.04672651105736398,0.3092435200159815,0.3887138749828987,-0.2318386911190757,-0.25221949730915966,0.23639730338117732,-0.08656811017298685,-0.2245863220157538,-0.35919207028798233,-0.13153025131031842,0.3524342165765903,-0.37821423626038125,-0.30334931343568877,-0.1469282042277068,-0.029436704536502656,-0.031678876744019396,0.4647717660084262,0.06997125977823322,0.27978673228994416,0.21581795202682882,0.3481281639428777,-0.20420247629228244,0.0451044001149024,0.24286096163068702,0.4883953768197964,0.34204368418122305,0.23490204877083798,0.44044111619664505,-0.2597622940515853,0.1923014709308409,0.4071962847893273,0.1084887514046565,0.4365284453254951,0.4588046684739069,-0.2988478282242252,0.16878414858274976,0.10537224387610952,0.27120792685628714,-0.06465874995219834,0.0966368423617882,0.3393584397111476,-0.10483242380335571,0.03945102616610605,0.11345306911366705,0.142158360406016,0.06099285934796415,0.04970439420608968,-0.4202360721929377,0.07223416657889543,0.06355024159383652,-0.2915987871816684,-0.36990756794922697,-0.2601181122139633,-0.14474232200704476,-0.2500809964886543,-0.024524151181031347,-0.36192023180008226,0.014684028133284092,0.2479770954294491,-0.4409292818877152,0.3419667478347985,0.21340431760698042,-0.004861734850419647,-0.43132408876292705,-0.04875697527055255,-0.18072698350724561,-0.26902834458977926,0.28182369765688553,0.20831894691951744,-0.1893895843123845,0.35476636631624053,0.24845892886930493,0.311534438925459,-0.20646027997002422,0.09526020236231639,0.3993505870335996,-0.2703983640380938,0.48539024320692564,0.2970546835694948,-0.039420561497767626,0.15002298092478894,0.06886016917986634,0.43317014692537514,-0.43765650665101613,0.2524241590993076,0.14720664009939866,0.03766633791630759,0.2509191411360413,-0.11972467472207217,-0.16579450864157427,-0.3553124946250022,-0.2858787191730585,-0.19118159942974122,0.30573960863100524,0.46287503646700184,0.27741223686705785,-0.42366244401241104,-0.2879909887577535,-0.02490157381147528,-0.2987795080470079,0.24027722029445767,0.3749600052873122,-0.2979868927348586,-0.42475474641403926,-0.436815131681361,0.4963353967233466,-0.0747573173799749,0.14709774376604468,0.3189810668930908,0.4898459981398816,-0.4287482154515504,0.40405838686306494,0.48269624309394327,0.00907457597270117,-0.06281213701389853,0.14415143556106405,0.021771104725672657,0.4686906193967013,-0.47005534561475304,0.36267970738170807,-0.23215940535318685,-0.00603766592945935,-0.4160003971252596,-0.345635538220733,0.4548261222923457,-0.28769550614793876,0.35507011076343703,0.07905372466261694,-0.4003486188348362,-0.503774088820532,0.4460219258094209,-0.46291457661934765,-0.300808013653399,0.23833049330969594,0.04855401092681604,-0.39633248843037916,-0.010073292885143248,-0.2468587111669609,0.17340932531388042,-0.0873809515565908,0.323076451504169,0.45577415516754816,0.43844298193810244,-0.02518143992807507,-0.2937882671893674,-0.2538966143133203,0.1446065710247636,0.3451196593620752,-0.4739303709370116,0.2983061920549235,0.05165522057148586,-0.038902763331965524,-0.4036362752280556,-0.3940338500297652,0.5169909578169573,-0.20878789071110584,0.3686142818401608,0.1961981045972295,0.07791463125932561,0.08681138642555038,0.39908065901171463,-0.15978989760821533,-0.10762738364983317,0.19756446671996275,0.17192778113724339,-0.2299700045967674,-0.13481056877718656,0.3846759086918941,0.30871248260886514,-0.44055495884244233,-0.2930087777368261,-0.05876623596611297,0.4396013851746848,0.02709669389461629,-0.41357344878288005,0.41718855117789333,-0.3548326081489894,0.29957147463758177,-0.1299833763972909,-0.039777511568689514,0.39569351550540866,-0.40816183282993374,0.0018778123398987916,-0.43988891851831996,-0.05613166870068798,0.2741771489450948,-0.4285179692691373,-0.05944929883738789,-0.17298067143973297,-0.46710825970089065,-0.05146257371560938,0.2526042706323066,0.3498596040581523,0.2101060204836237,0.3809675772902802,-0.36112150303220086,-0.28953734711485435,0.07314276298522433,0.5198386183997556,0.38264404725567847,0.19028617310268964,0.12331845843738024,-0.3163767259109045,0.4142744151433777,0.35773586129604645,0.027195156845374293,0.19599993943975996,-0.2126026919982144,-0.35891006776959666,-0.11919333044411881,-0.16716943999966727,-0.4503470054068398,-0.3423882469156999,0.38485108712156507,-0.15468360816876495,-0.19637434769248263,0.2809885689762364,-0.31430483048821406,0.24820844435733877,-0.3009419236921851,0.2683101653740416,-0.19573996393710041,-0.13751308715300678,0.21751047485341163,0.5032901422703955,0.35240072941979744,-0.017544383308494352,-0.07469024849339859,0.03747911615507564,-0.20243912905628228,0.21005477532627673,0.31322403811062544,-0.272310766092377,-0.2407290850811684,0.23153630522093616,0.1462176021693251,-0.44917274312125255,-0.18914820694383322,-0.03634220372397004,0.37231938917506724,-0.40193931930720306,0.3325055189484415,0.4704015603411885,-0.3393212883000638,0.04196419039348397,-0.0092646330097373,0.30319559327193063,-0.253896047425963,0.45830899419254445,0.18481668914841448,-0.2662889452155604,-0.384417250132313,0.45604923894828775,-0.3694768950606112,-0.22715018296614825,-0.15220000363493222,-0.18790285131002285,-0.32327637156172473,-0.03320321166000022,-0.2984867244245628,-0.3558631000189767,0.2947238643204339,-0.062481041522183846,-0.03752130275606515,0.30014809141447196,0.21202804774564715,-0.323036130058829,-0.508117205262507,-0.37278956175737454,-0.20172890936470786,0.48209406200836413,-0.38338213237785423,-0.4253941095196608,-0.1518321341422554,0.3113048657546345,-0.19190445038631151,-0.10803771099796422,0.08101102244243107,-0.30969720401968853,-0.04544789190039588,0.4197426324519583,-0.3983406228776745,-0.23264271027750238,0.26142867137705084,-0.38926024137468945,-0.5070612796741221,-0.40351467756120096,-0.45780148090777756,0.00016941408440068878,0.034844390464855726,-0.2327518688204637,-0.004800936527933237,-0.3933880955045063,0.26197019285472367,-0.16846057172238357,0.4037224492254176,-0.09095193905123664,-0.43544430750900726,-0.4419116376521246,-0.3073282030808177,0.12598456296402102,0.08772434826588034,0.38728962730283845,-0.4135256409670329,0.18227700084045373,-0.407981139233358,0.0977045946437465,0.03850301275666231,0.2584235938676921,-0.08200397615030863,0.05673006404925672,0.38074526817332294,-0.18406998849278022,-0.14761247677290718,-0.5139098807667485,0.21533900169458792,0.3110759249393248,-0.2026847717705459,-0.03295263149380059,-0.2640509447293891,-0.15052848120180223,0.20700003933990227,0.34448745768952715,-0.4696719848583175,0.07430036907009578,-0.20525293464101307,-0.2773520097584494,-0.2513209917570672,0.3335660975411011,-0.389946935876244,0.29698072770652745,-0.46875444485985485,-0.25417311965512157,0.4896040884091438,-0.10226450424350242,0.1827033538595935,-0.01633874609209401,0.0529612875294893,-0.4937967225275843,0.4045174841386018,-0.08816499936556214,-0.11273457896795985,-0.16952294456242475,0.029396693951709338,0.2665614098632576,-0.1678933453579987,0.004484080100009106,-0.25329983424063623,-0.1457111159922152,0.21346354301251216,-0.046496282890042186,-0.19161150479479408,0.21986930191224707,0.46345386906722136,-0.3538388709136018,-0.3440496772643507,-0.18532892879337545,-0.32273782011197627,0.3243904646100009,-0.3039654684676544,0.14250874533171431,-0.1437782884616169,0.21725682642062102,-0.3076940783092695,0.22686210552535022,0.10893786646738124,-0.33013959002235777,-0.06206211690078694,0.1434974874057796,-0.40469241148094337,-0.03771659403090803,-0.3655935707301252,0.12413139399750638,0.11547291005801508,-0.27737450918010526,0.4001789586311229,0.2803048200380217,-0.1812640482536941,-0.26130947124310894,0.2788973198934671,-0.381318440097413,0.2025722318744694,-0.06622389317581863,-0.4080568496170497,0.48117636783082085,-0.4369898707754261,-0.005082043573792223,-0.11542116091974186,0.15568501226201958,-0.09574893200948842,-0.21994510482217755,0.13352068157714916,-0.40694553273275075,-0.26136715992557835,-0.2081259296805403,-0.10864003341035472,0.23173816579036713,-0.15000087684852956,-0.3935735322511379,-0.14174172069942734,-0.4452473255368121,-0.0802479667347399,-0.021695052643400967,0.45579597972897495,0.3589985695167845,0.24981845882077497,0.1599551117309151,0.2483229832867828,-0.17156278008191084,0.15131455209881278,0.1485840305303556,-0.3295770936267484,0.15569595161051974,-0.34538112221095024,0.42754819218202667,-0.2746989964395159,-0.0041575580943304935,0.06813778970446327,-0.3029973987432464,0.4821582089993911,-0.35223296424326844,0.38284355361159317,0.3411140350699922,-0.30924900542490646,0.4201454761524894,-0.4005852778667429,0.4923323079609734,0.06811897235960725,0.14948292028853205,0.0733813041807448,0.2720647543861084,-0.037433216158052264,0.2001313090150175,0.20434941018024463,-0.48657810469282686,-0.14827981730153184,-0.05330644274057824,0.3915987757250197,-0.276137251147839,0.09542963803893587,-0.008093301350981704,0.1836666480369511,-0.4944372118536017,0.34207841209092205,0.1515091813923356,0.08567403857011646,-0.417316437992835,-0.1354209390095502,-0.3562335483669643,-0.02077373754481303,0.49231182310400784,-0.4870728594135256,-0.03698508080569591,-0.3439160551042173,0.3556623498875786,0.3511477807605047,-0.18070269493553517,0.3187460680238665,0.2702791340449654,0.0322010376258679,-0.1638031576189166,0.035165759700869756,0.13488124264231308,0.08587842187169786,-0.16820707225800718,0.11860174122699141,-0.25301241103360395,-0.3836862455121952,0.04930486964993286,0.4353181176545,0.030316308079594068,0.11540424150102824,-0.29469885827992215,0.277821313451045,-0.16074064404608335,-0.09263536628445868,-0.17518000505962406,0.18365432154475814,0.28346261865371736,0.4353122308363465,-0.011724554452821612,0.41082462440561407,0.3682654241760911,0.19531403879568954,-0.33383687408582763,-0.0581143668330637,0.10470875319253348,0.016846337813429924,0.09240562961698384,-0.24779008605358033,-0.44715405732699987,0.3364877844535227,0.1755699394350011,0.46227970773197047,0.19658086803615293,0.06259983275616199,-0.4767208858961389,-0.47230630296967646,0.2080717109554877,-0.2593304155237016],"bias":-0.02358960603183265},{"weights":[0.016695969951277534,-0.05345699527489256,0.367811655416184,-0.29253713668925285,-0.36275323454291175,-0.4282260138466131,0.010691658050718922,0.1621820783723198,0.2768751427560425,-0.2647026242760915,0.001520151697107841,0.34214267371381446,0.28841093357276926,0.18032191571132916,0.13907683097390022,-0.16962307030123158,0.3229088536189587,-0.32854955809026476,0.14621860150835364,-0.3527474222355811,-0.48778253795093796,0.2514414721696139,-0.2603167240204376,-0.4655450325904783,0.2981235928620434,-0.07638236649860408,0.03316240480927046,0.3816221133264467,0.155422813144813,-0.04017485548238642,0.34930859195084785,0.26621230135096774,0.08110101651467228,-0.2911180271733363,-0.2404413278587339,0.002358301869518401,-0.21522420430326522,0.3713499013470221,0.3918197942376339,-0.29919108797286414,-0.15323775912509016,0.16841934313918924,0.016549434132808884,-0.17560574525957656,0.09154973957031934,0.04589338671640039,0.15644851106818475,0.13309446333873728,0.4879384876572205,-0.22585142496657118,0.41853096769090226,-0.40642904676996916,0.3718792291056944,0.4690251265449453,-0.4477398046467156,-0.48115348264686975,0.13760291575940786,0.32347854373766216,-0.3583770774552645,0.08688033034271381,-0.2432763376469853,0.45589371281250934,-0.03903711685018729,-0.4584163983654743,-0.0004538437372618765,-0.33584055844111377,0.4574445232682132,0.048640120116503975,0.09949317501803481,-0.5342966381792068,-0.014244639821177088,0.007320857273959309,-0.4583615862293105,0.03917827633619391,-0.4635102613283372,-0.02415002792004496,-0.36819382040646187,-0.33361986040251873,-0.0638174002617749,0.38478284581654226,-0.048468661273025494,0.33224527956253236,0.255474122311823,0.017044111524408767,0.05908490607485095,0.15594101449589748,-0.28706104279318956,0.13977879349703204,0.23186238363033426,0.08348248351627731,-0.48660927435195067,-0.020189464868054882,-0.2548698006797008,0.1351004163552821,-0.39906358649753765,0.2915282555008745,0.2370907529121841,0.5299733981032418,0.21977751123180683,-0.32406776904212853,-0.10099870237702496,0.0018344219787229882,-0.5605719927233515,-0.22582150322654335,-0.47958625060832527,-0.20053282686996524,-0.5632211565650972,0.19529568062062463,0.43767151356529,0.4652079273022433,0.24760492240517668,-0.13125092028256635,-0.3079730189012365,-0.14801059773326264,-0.27617809678911864,-0.4857037821716998,0.05573690918920709,-0.16478440370062952,0.34267116293864514,-0.14210807796575337,0.41155594934087414,0.038438794117641936,0.26695180215183806,-0.3979496268978277,-0.15584338904133743,-0.15019034130765888,0.5740017994419161,-0.062426164813465454,-0.1691467186036119,-0.2955691406639127,0.26633569744993213,0.04654554069589357,-0.27357634558754396,-0.2977842780021864,-0.5428540239983691,0.20385357321246977,-0.2989064902698274,-0.3796939053088484,-0.04439207970228794,0.4550477147421075,-0.4751189069206956,-0.3164338735535821,0.2928792136632477,0.3303696069596183,-0.37546709358111424,-0.22045734279112308,-0.38746426765126174,0.20997654313664804,0.19746041780967824,0.32472109279997136,0.0034219687399681996,0.32514396627149766,-0.0014446088361953675,0.4311795434766004,0.17053589207713785,0.3150503854895077,0.32148265555900707,0.17876889028132717,-0.010844617757684335,-0.10077963498699784,0.27981527366100467,-0.15173154883778733,-0.3820250813116646,-0.1594245669238612,-0.20426130220869282,0.23342797682383196,-0.31903029905387725,0.38982307588419474,0.4531956304240323,-0.45212974086170876,0.10026113613512905,-0.2283352389311972,0.15281764399249817,-0.12027006625808662,0.07855156112969242,0.1100094448420116,-0.4014165191346284,-0.06429861396944475,0.06897556056007259,0.45796103886354445,0.2540194612092827,0.27386701340241676,-0.004444067621000749,0.5417338953634551,-0.2551550143799847,0.27554942422810264,0.2324729252809953,0.0018686409910390052,-0.27093363043645796,0.3055578559429536,0.416082286057658,-0.3949905026285102,-0.24294350925667996,-0.42527965379678945,-0.36524089837541357,0.17652821752434283,-0.2168451535170124,0.31456799977361105,0.15508394692471883,-0.0909009264756329,0.3149691194504364,0.41871068142767637,0.009374816380493478,0.16618499018949318,-0.3207486666426171,0.20909892431760663,-0.25300080413089504,-0.32416169089478514,-0.07997408245474666,0.5923503398746227,-0.013186487862381718,0.4185488708221323,0.2449889259808883,-0.12336943562952062,0.39198086134884574,-0.036061672619343295,0.4330156211956902,-0.1643189297388816,-0.1344055666942866,-0.35946202192820864,0.34626064529529627,0.042827382201282155,0.19581775656080896,0.3716129826996285,-0.4318054017818289,-0.1993914585592379,0.48301725713585564,0.015434380944122611,0.2109899901459006,0.0018062584439199909,0.4021303022815905,-0.4120546950378955,0.4322580906031979,0.1686698712164298,0.3424933289262728,-0.13097071321198292,0.25905847716319863,-0.015369270785608674,-0.005636068757470674,0.24972631798101783,0.49615011803182874,0.4500993341848499,0.022865616299079097,0.22048416720385952,0.06505992294804587,0.41369752143731725,0.13632136217052943,0.2522963722303346,0.2665494092055246,0.07430754049930466,0.29572576461751043,-0.4632397186277785,0.031051783660336896,-0.21492140952074618,-0.502423308317998,0.314322509200479,-0.13098033552933322,-0.2287705220952229,0.2735603110728108,0.35149393941795276,-0.13976618827214957,0.3562321063996695,0.02258329529169633,0.03692847665488121,-0.19229468388566717,-0.024160746145881665,-0.10476188778247626,0.6701143823786225,-0.1604609291925083,0.19458629168935426,0.11432107209882916,0.2699937489605067,0.2302072695836345,0.47786153932467673,-0.3330991142578599,0.5251597587246872,0.04560189545606025,0.45311826246498904,0.05033188657026049,0.017716856381625623,-0.40884945762581903,-0.475568975951839,0.2749828619526037,-0.1168953281679523,-0.18848175523308933,0.4769887614292939,0.45567163210060185,0.05061857193162166,-0.17140318094173954,-0.40806129464740326,0.3916204610669832,0.117723398312712,0.05046144169469245,-0.2554783792424109,-0.12419148983432127,0.4440843007453365,-0.18613536989754592,0.5542377795032434,0.10268799272441848,0.32744759810758856,0.28853133784077895,-0.228026949911681,0.6058741763685764,0.2441280457458496,0.5325634145551839,-0.2865829997860127,0.11249961016634813,-0.17329531078139374,-0.32239501360639977,0.4472752115260296,-0.340126301828602,0.02609864132482732,0.0038866806063214327,0.13821728879728684,-0.295338664126645,-0.44073625266866273,0.20015375484209974,0.18801171658188706,-0.09496191939726462,-0.24630131085124066,0.09638832650108688,-0.47982935662454435,0.3164731656998874,-0.4158179972732492,0.11286716244264688,-0.1271382706789598,0.24796801026321555,0.03616315874850356,-0.02226270451981897,0.2038116010533768,0.38339156462163076,-0.08466916468235477,0.6258592120354521,0.015765923926051674,-0.03004913750398531,0.3292213206816704,0.20233525112732076,-0.032745008772273036,0.17413301700862754,0.4704105015988016,0.22012538501548862,-0.33550762397309486,-0.244358806273706,0.15110512969615578,-0.2362001419004859,-0.6683591618092544,-0.36183558800390336,-0.28882469128220234,-0.10711839432514102,-0.37058503097506573,-0.3968863983709223,-0.14095051820972263,0.19462624734626482,-0.42501125375411236,-0.22312392380228843,0.4514965624876346,0.42106282693075286,-0.49001373716571395,0.36985434757149294,-0.048406054011854265,-0.2840456926845377,-0.37819183311378085,-0.4491725319562235,-0.3853322090567842,-0.17605672517302706,-0.20409744931250842,-0.38261309226739454,0.08226705692215265,0.3001038887872073,-0.47772351300557975,-0.43508752102738396,-0.039668632791943,-0.5092321741624534,0.022920027775725015,-0.07893104635201767,-0.4923076219515812,0.11072550620961963,0.3462080051168624,0.22074009356237048,-0.14213385677690438,-0.058753072838279685,-0.42554063370154765,-0.10030946652564401,-0.24155190217536077,0.08106207926587627,0.19311448028196573,0.0258755244269181,-0.3969287939374832,0.4111225721859724,-0.46871830898143246,0.11825412046430446,0.13457639109778963,-0.4627986763070062,0.24833244995413406,0.39106342720944826,0.2311905920409586,0.3688882040274563,-0.24712841306954836,-0.45207215906596576,-0.6878889447539756,-0.10714785795289634,0.02531382389417924,-0.09613888864310183,-0.0923400539913653,-0.0073862895868920826,-0.2777857699429105,-0.3692826425878092,0.21107607142612653,-0.14807153447245852,0.2392892660002519,-0.3989339201167348,-0.397335088097375,0.1488698421240714,-0.1847102803835777,-0.35736323000672066,-0.0618174308690187,-0.4600149155290117,0.4297613771755512,-0.41995010272640326,-0.33765384624419525,-0.2891856790850934,0.3074086164798243,-0.07379481634663265,-0.008297891559993324,0.33823692251454296,0.2311381017106159,-0.36249859611843277,-0.17255864043887859,-0.4410817429685912,-0.1407738625910074,-0.3768844408935458,-0.3558347175350231,0.5687547518232052,-0.10064478080333271,0.3598124951731024,-0.6492322834384663,-0.2540516290725012,-0.07843798419113772,-0.16651184108019493,0.027348056324503964,-0.07806183418488818,-0.533317609093455,-0.18211726258168204,0.1834380890663265,0.08696635750455849,0.2319987957947506,0.11843024131943004,0.1600374897923779,-0.024803223900410676,-0.22387138761001912,-0.10070481923301931,-0.18986288357121836,0.0515374222324886,0.4549710466525474,0.008191463341934203,-0.39565348191931243,-0.32523495250056267,-0.11371309638862459,-0.2313494889813488,-0.22586206787292504,0.04865758515493804,-0.3494467072210943,-0.07109598165178659,0.03934413403240239,0.1714276568877055,-0.1894763879557516,-0.25063265283441194,0.30929438683764704,-0.6096324320214501,0.1415925717951652,0.13266652505123827,-0.0652217493282088,0.06049150524901012,0.17806834994353166,-0.23994268932237045,0.28762456699522493,-0.3202671576124976,0.19491484127291092,-0.2613300202295004,0.35976251134101783,-0.07908427160488972,0.5561218407568019,0.2919706547922481,-0.06858058429362758,-0.03659692456982622,0.10044183492016606,0.17540185544088122,-0.2451040966740913,0.1980731630896806,-0.5293622515558055,-0.4666178499046022,-0.24180017212406418,-0.033699422875699755,0.002616739812997652,-0.32402540968838084,0.36905297178126306,-0.1157343516897065,-0.09329421988469784,-0.08756935428131458,0.23911795898435276,0.43741130436296155,0.04032042738846056,0.4084019230059339,-0.4451086806759437,-0.15393830892160176,-0.14719871638676646,0.39391607149586655,0.44527317693310087,-0.32551980230149163,0.4583704285563512,-0.19842554118249486,0.2940460608964189,-0.07233578646772705,-0.021198611942968102,-0.2452683101017713,0.22512636639585865,0.12297987065147675,0.195944302712256,0.22020672144954578,0.18154172808130062,0.015583921505365611,0.00823226380547508,0.1553659426641571,-0.37367777973988575,0.24082303375803218,0.08855981842201327,0.42545506110925035,0.09652223286987881,0.30426596714779547,0.07103578568603092,0.06953038044969045,-0.3659314754918832,0.19357334075763932,0.08660156534900566,-0.4736530332383305,-0.45480835630140726,0.5208057780719485,-0.14649933907462556,0.7191014809998997,0.4284089775616208,0.5627584332106964,0.336578093396865,-0.27631079963506605,0.3709418641802231,0.0729989845207418,0.38378485740827795,-0.09894160316035137,-0.27442376423708104,0.24594472043923907,0.1207944429566389,0.3821508591243463,-0.19252518333999097,0.0025104921010136285,0.14212048830662516,-0.30957656076035045,0.10233259587261946,-0.415824652580549,0.050446274599868376,-0.19230881897606034,0.2877390269821358,-0.3990047265863763,0.0017609676513715884,0.15897484025847192,0.48264616005613625,0.12499796968949356,0.19490455086055997,0.5009292436604942,0.33453207646494304,0.25595681729595315,-0.011549706233193893,0.28766941102125787,0.11175200213773595,-0.33536460801888346,0.054717322423932006,-0.23508820935130853,-0.5112566958006663,-0.19511939334357853,0.1404711271782011,-0.25565003435156763,-0.008003229838803983,0.05790238459943315,0.39455529129102,-0.05808535779383669,0.02585782794263863,0.39431680655289636,-0.1026081020793817,-0.4240198432495133,0.16535457346962157,-0.11769720726088062,-0.47661862022113455,-0.1263727538170775,0.12205187342368166,0.2440641272556106,-0.07855333805800471,0.11432347797394972,0.473750254175658,0.04598666487311693,-0.16806487002563694,0.25573634375222054,0.0713839074597503,-0.13661071942020828,0.23065847687435062,-0.3471659081681722,0.1809797074315998,-0.32883212165665765,-0.32473975436596897,-0.25171481035496857,0.4669516144818523,0.18315957760164134,-0.42841506380150407,0.38369433326874947,0.40355688802966977,0.4975599078955822,0.2876645628571629,-0.21665939292049163,-0.2624858896661374,-0.08873682540868932,-0.09322346241205703,-0.06666314464188672,-0.2725112383776018,0.3217678266516251,0.28398048313195945,-0.07247830630998994,-0.21353008047933372,0.3821529352342026,-0.01574060994816355,0.0964608021044371,0.2863897017697094,-0.34208312747204495,0.4182236053058246,-0.3459486188925133,0.3599408494601714,0.20213716411347374,-0.13615873183133342,0.22204555693129216,0.2545786608716822,-0.32795525472312836,-0.0163797745501884,0.3987660739423586,-0.18401016326722283,0.497554134817235,-0.18657855724833103,-0.3509795724908033,0.015387804351310708,-0.1801244183371773,-0.4657990474111572,0.3007288442785743,-0.35907548442535864,-0.060032548559513045,-0.46373046810157886,0.16882253049515641,0.019819649317137648,-0.21004346806262647,0.12211515733175414,0.2595478561536358,0.09467834032228722,0.0788210029245243,0.690112172261379,0.0884864446964185,0.4136197737848503,-0.25492945954723156,0.3851171535904523,-0.19895729695370304,-0.23814969647025583,0.3523178513038984,0.1886462735820347,0.0320267117650548,-0.1088115295492025,-0.0610196802564095,-0.40646446095736916,0.002024045858692356,-0.10190196675214624,-0.3051225487390131,0.4052290737930784,-0.2770003933748697,-0.09360677405438951,-0.029581413872452847,-0.1511299072549525,0.10130067124661651,0.2019908937063113,-0.37662000313716654,0.12676353691354958,-0.0007567761060000665,-0.4580304401005284,0.3435360180815266,-0.14139934744694163,0.06011868016226463,0.6269476041528758,-0.04267962188146436,-0.23433050645181672,-0.04031778294996841,-0.1357429984723593,-0.006241083989924024,0.4330252885672586,-0.31314876609538245,-0.31690759440028404,0.32433182439615116,-0.1596734894604871,-0.32371791028109953,-0.3901912792513864,0.030591071220469224,-0.392064432035238,-0.4207625621913206,-0.37603853863307213,-0.24530131543582745,-0.47696298968814205,-0.0037346167493303314,0.2220918903077707,0.08583021798634603,-0.4119912767928847,0.1982053966513835,-0.5008121512749185,0.06576615882003152,-0.03571707189652474,0.037734553343625056,0.06684229998874902,-0.1350400074862787,-0.1466806510903914,-0.08618895303903715,-0.42277800023070994,-0.39415843637388936,0.02139601094581389,0.49045020567690256,0.12833929362634314,-0.05041797823616935,0.23997345044791696,-0.2627802701201012,-0.21161557918109153,0.3551161748294702,-0.0838567067946443,0.38956539163165294,-0.07926673159219855,0.3926989729971688,0.4476024310756605,-0.19277289573239603,-0.40706175642973375,0.05280589518564894,-0.07625500834399042,-0.47362853008100464,0.032098892293906736,0.2538141047590965,-0.005930265377029611,0.36610583758929816,-0.32021358779943176,-0.06717067171247529,-0.14609211750190712,0.43567537092600944,0.44896870807859834,-0.015546115774613508,0.1670811049387224,-0.2156582561592466,0.26294867331080574,-0.4185081186911762,0.4698912799949272,0.3276381947299494,0.10489896141370614,-0.14035315768387713,-0.2908812589494646,0.2242524991179493,0.13458882186586163,0.3642211999395578,-0.34047499345735666,0.1754305141680097,0.2615729723095861,0.27817610474577836,-0.36667371152059014,-0.10732119439756826,-0.27057293924715997,-0.23903180574306282,-0.12114520775793025,-0.002199163674631799,0.27730210870971805,-0.36934645430384816,0.41473002209233645,-0.09106593609573654,0.350266659997733,0.3814079213516193,-0.43756200377365684,0.25848374379421013,-0.17944402867871145,-0.2118052786621739,0.08792392151521511,-0.04563753295214401,0.047568182841238316],"bias":-0.04515953142136841},{"weights":[-0.07945658367888664,0.1602601611626625,0.06125760221475174,-0.26353495137014316,0.18686442852835639,0.34864128848348874,0.10699964536751949,0.3400931387180496,0.3437096901926987,-0.4616749209260279,-0.1086051529949923,-0.2084220813332356,0.3394552710369064,-0.24978554804873265,0.19879684310360357,0.1485859475508039,-0.2932409706107484,-0.16394314787998954,0.3537773718806957,0.46754230589489343,0.3464443087184722,-0.2434050271152005,0.4125524225580802,-0.4424470792908871,0.20956592064071156,0.07144008919333678,-0.27778287182022865,0.30811523408467545,-0.2841660101472251,-0.16617273577026725,0.36256583679112686,0.21042298310179852,0.15078531867974976,0.3705452632834106,-0.2086835735211445,-0.48818556867720264,0.1105816214125529,0.07429389216562327,0.36053528077710656,-0.31846459846396064,-0.005530139993913349,0.10161431214606159,-0.08037734537343127,-0.1430978928710007,0.3245903515958274,0.3171707650337096,0.4991637137885694,-0.21428411332897151,-0.2084056491431113,-0.42006875333316995,0.3048193787329432,0.09189265887239095,-0.43334963137700666,0.4701147787820613,0.22346858621138033,-0.15599176492546607,-0.2485655453489396,-0.3185063081423126,0.4983546568480366,-0.1188924991634609,-0.24756041574081644,-0.05730255698607543,-0.13190253940794014,0.06422906155798429,0.045039234739791184,-0.1875119535625002,0.4047462364376419,-0.41770331712827435,0.2024830097260493,0.38068473554524723,0.3211611828120751,-0.2282720169808335,-0.318969463513071,0.3226475531988338,0.3891251085293468,-0.5011700379521872,-0.2794388712305662,0.3506100349489505,-0.12672481076100695,0.01708704622475282,-0.17113119539025856,0.420792300676899,-0.050151271386934426,0.4322942433790806,-0.4071072879527926,-0.17062658854491575,0.2743528542796638,0.08445372143180008,-0.182368908284205,-0.10443680825662455,0.4552570170946076,0.1024757231888445,0.04046583395200608,0.10557100775516251,0.37134593278629535,-0.07579754941944297,0.08322354430434956,-0.01293767819214838,0.32101934527591647,-0.3008536295707637,-0.27492232964561036,-0.39004697021010015,-0.3934660624232248,0.28455694377576746,-0.41370282499493743,-0.290011765472036,0.43025579235037104,-0.03221437701712065,-0.13173237347191585,-0.11931020768666271,-0.43062977740020447,0.48785019967146115,-0.13035522963667878,0.05486828949327338,0.49984572835209995,0.3700709429967647,-0.24323677839816887,-0.08673762069779682,0.36298682770074076,-0.09185891690249799,0.4218283019005485,0.43069008470125225,0.40531995714243996,-0.43052891696928275,0.2124471232364191,0.3400669567308023,-0.11574780871138483,-0.011025908932301329,-0.14018864471201264,0.12736150538195326,0.3066767122541036,0.2166329591017942,-0.2573332724624702,-0.32151251908040585,0.15674600388618756,-0.2214176307831708,0.08236642489813033,-0.38171754007205916,0.49753048524134535,-0.14264143041215005,0.4355788152415815,-0.017760789054117265,0.10636954326621183,-0.04233022362481776,-0.29984185407284775,-0.44896478088106556,-0.4894230123076911,0.3261814118720504,0.2789348762442677,0.04806704095343398,0.026074214406641955,0.48116054156537286,-0.07438676618137591,-0.22169310001259582,0.2380617593426324,-0.3140125191067951,0.3035492428723544,0.1267942183614086,-0.24401858373596919,0.29470515423792326,-0.2329261117852378,-0.18273901845465315,-0.40154603189359767,0.11325225214265261,-0.31565027929079825,-0.3229525402783812,-0.37456501152448773,-0.32507634416773246,-0.2362342096515776,-0.4342628362184584,0.4645695041437592,-0.27086377222819236,0.2828347624632614,-0.05830086932145511,-0.3453614055538801,0.34817314670633626,0.02413999192579153,-0.4320283896338264,0.22407583689136013,-0.26935216775831083,0.33702778545622475,-0.17117849522700126,-0.05023409764699879,-0.32009312776943405,0.026584398366277177,-0.31012889524260795,0.053642801292337075,-0.06947553212201764,-0.19530179771688483,0.3038907784784368,-0.29125171546106027,-0.09554610506329804,0.23558322103137982,-0.3570885570231725,-0.03438197089515877,0.46083031053475626,-0.4620592100365727,0.3413237834479207,-0.24172206430479387,0.4883521007503552,0.3893559758732695,0.36688407073650714,0.3010165630416677,-0.042528008717199174,0.020508469763060908,-0.347849989750542,-0.12379904682111961,0.32697287817913634,0.3642086532028708,0.3556639381394743,0.321223063864492,0.25193577280107843,-0.4571347436173632,0.13862354048364098,0.3421114280689177,-0.4517095556176449,-0.18087978717494518,0.3222113548300941,0.2568879451577335,0.3594971406598139,0.17739515188520336,-0.4155658249943776,0.443451363578813,-0.16642173926992054,0.30309840894822626,-0.3105791977600316,-0.3477969190948868,0.09958697583044514,-0.25618382332940054,0.013887061902541338,0.17109585438242805,0.4567829559647291,0.16272842225200915,-0.15655431301315154,0.053608136617950324,-0.17082843465525174,-0.20998921322678665,-0.13660188163448328,-0.3962317116815574,-0.07767872704483286,-0.36616458528983203,-0.07256429253589464,-0.2305523774711452,0.3063658033719652,0.20960668393970258,0.20724561059528387,-0.09859352439917714,-0.3422954592492304,-0.1824954486741899,0.0026495683583661863,0.4598027543129395,-0.0605823167576518,-0.2833793946751699,-0.41324311705859645,0.21723445557786533,0.29849324354589724,-0.1976979226622991,-0.11864140566182216,-0.2486737744249261,-0.397746972551359,-0.3951041283329098,-0.09884197349409639,0.22053479547331878,-0.2678894129392981,-0.051333455898440766,0.28221887683357066,-0.5410690890631943,0.007706592930062679,0.3022753897276689,-0.3825439260652441,0.3412729350610312,0.26570184853006973,0.1571170518096274,-0.11374098852885609,0.0852197392309687,-0.02634893472059705,0.17570119550160762,0.15247617002115793,-0.2869793924390624,0.012622628859294339,0.17019859263126313,-0.010803118848773304,0.04688858213301528,-0.26601740295582865,-0.11708401392625217,-0.5394523801911286,0.282740174310157,-0.017531078235068883,0.29129271464627143,0.22919213456892115,-0.39024730075155667,0.19644055774167893,-0.5680965770953401,0.17003096063589002,-0.44603910564777416,0.29457336744846585,0.3212002924451034,-0.22716320376527777,-0.2073291662925244,-0.40001391505682465,-0.25119486178471795,0.36532345670940375,-0.04578179201046309,0.4324722091695097,0.3330338976692961,0.32201388197976005,-0.466642582143898,0.34588666440179505,0.3220916529156279,-0.3836134732558974,0.4167143885625917,0.37193729858761326,-0.15533103151794483,0.06262913991747622,0.3271308422963047,-0.5005064056381202,0.10252543184753596,-0.13463790918851284,0.3248747223051515,-0.42348836915820554,0.11376042432302207,-0.289432703774952,-0.4157524443013061,-0.09962077526526182,0.0004935838623910434,-0.2013737634766143,-0.11497519916181788,0.2684449989395463,-0.10354015868599609,0.1031686883222035,-0.31205581073705724,-0.40810888219431984,-0.4644545970405033,-0.37709535194997695,0.37085375383418784,-0.33781985444807144,-0.41367082862589166,0.17822741436077866,-0.49698434741866204,0.20531116282668055,0.03352986646319613,-0.021881250823227144,-0.5790564815203335,0.404083989636326,-0.3987617138150976,0.15273688626688825,0.06269189651464578,-0.36130176599247954,0.27972060990685504,0.3160345264280808,0.1042504924465107,0.7273736947543433,0.47993196597111754,0.5668371151505485,0.07062186292113141,-0.1910513738724124,-0.17893211465747708,-0.41072060409753014,0.12180446534876704,-0.32103727872506005,0.17166042013280608,-0.4177626365069766,0.500022436304794,-0.4024482799590182,-0.2725892828336085,0.49692767039478913,-0.08124447407311808,-0.3955753607094437,0.38727962924479964,0.18866293204406098,0.3244819406120482,-0.23995230263650708,-0.15265069280248383,-0.2512713264056549,-0.241563934123569,-0.5312031456320712,-0.11901606953240795,0.7183142341719453,-0.003552141291137694,0.19987530580040175,0.017110083321225423,0.555449920988542,-0.39093696779800735,0.05662901227752945,-0.06308699646045443,0.2255123399398232,-0.09897629486154094,-0.6317460244517782,0.3564458614337998,0.1522739381414803,0.1541583613292744,0.06840856549156149,0.42667772998876263,0.25566670033335104,0.11229948336668456,0.0915227326939702,-0.07616309340864295,-0.1540132955004353,-0.45203520217225035,-0.4231333005986309,-0.4802794873279568,-0.005400811216908536,0.16426728202711285,0.39560874968758764,-0.16306753289614961,0.33621184297990697,0.08856470199441291,0.39554842749916946,0.4069716963254937,-0.2781676653488201,0.006333376648493926,0.1046885671261367,-0.15418764556144174,-0.35867018367186626,-0.16977411479131232,-0.2027490738995421,-0.3312279245209017,0.14966762090738275,-0.49415683739425337,0.3298547801595053,-0.26986455687762245,0.3450341248924965,0.1579193698918422,0.3471321115385635,0.3519085871905644,-0.4813196074886406,0.08547305608748296,-0.36063170176658926,0.1746612645663769,0.3081222806242635,-0.09075308655099651,-0.04449701208688137,0.21635705114693085,0.2502378869712766,0.5918996070864917,0.8043533219810735,0.02593209403808283,0.21914154750565346,0.45818463764926987,0.13083865904546163,-0.40839276997785173,-0.0847728976850296,-0.2645599441033412,-0.23302765766269126,0.18191286032528448,0.3855214936149701,0.42792520984614757,-0.28224274283225154,-0.32200373055905696,0.42817653268021233,0.2058390113889374,0.1659781767998722,0.384868224552137,-0.2976640533952742,0.4196281116479024,0.379495177778671,-0.41375175540358927,-0.22540243690190162,-0.4933399339938942,0.46658339361529283,0.6442474241097673,0.0796735339030224,0.3897215204366699,-0.2540106350299976,0.09541943724799938,0.39203929371998525,-0.3208483750641481,-0.2370172699502921,0.009123407475190118,0.3948407421529647,-0.38536576857764104,0.4008648062321574,0.34542100979945944,-0.31895099548119304,-0.15636488027234932,0.3440946892036175,0.20959451968492904,-0.4271175300064276,-0.3905011666685936,0.12837238475665735,-0.33411992060275414,-0.3121238284454507,0.10695086576312,-0.18811146506986115,-0.012861744709614938,0.18545486857563478,0.3913432420264781,-0.3889548270923448,0.5812258180618203,0.44838773119044545,0.5963246957314546,0.18369417303469981,-0.19061964004445847,0.19212471694664573,0.34585101676568397,0.07952390404895289,0.2817190404644313,-0.3802655080245463,-0.3453029453813275,-0.13447628654248775,-0.4450255838223809,0.3248346597323663,0.0701609171564589,0.47168629118973526,0.04026649211296873,-0.09317180646494001,0.4191797674447767,0.19865972144691088,0.444921393621019,0.5307219767723612,-0.39864832331175226,-0.2282557844639906,0.19834012689281383,-0.0652649542164238,-0.04364864409811515,0.061778629318661196,0.1966377878411227,0.017254815766295502,-0.09077833287253975,0.3867973275059784,-0.07494597561089714,0.09889177227806271,-0.1492832855713614,0.05619492169319948,-0.11864838532478182,0.2436949789483073,0.5056701876411134,-0.303091215485333,0.5190098903558136,0.2838941260563337,0.14508218979039597,0.19166492198305413,-0.4320243964314473,-0.3452850561059674,-0.18026729776738287,-0.18081657561843767,0.48570300827905816,0.08648349834262381,-0.21267201556254847,0.042320038810749194,-0.37187124153953444,-0.25042049967397917,0.10724832291352121,0.17663548022880857,0.3995857531355813,0.2769624079030023,-0.3844328570890883,0.4365198376131258,0.06752859779115619,-0.09236265916814101,-0.18732574471186225,0.20552568742250307,-0.03249980512189672,-0.30133513402635764,-0.1955276469287817,0.23999041591158615,0.2544426576506862,0.3666167675264484,-0.21334655551460882,0.33655831945482856,0.3795070848261961,0.4579278585591015,0.3322036282216116,0.34937356446818874,-0.007530443790420866,-0.04781449947597176,-0.14169789632509,0.10563124291408162,0.04247178424984823,-0.36948927350851757,-0.11338632645670102,-0.5401602040677123,-0.16273328698598855,-0.4735653293728566,0.27467473189722263,0.2495419009457591,-0.44734309417033624,0.16472909865739704,0.2562364736238165,0.16329071787858085,-0.04784251954584093,0.42738840519468124,0.2994023505115827,-0.1026266234566925,0.2711356920206675,-0.34446883509839227,0.010814584610980088,-0.2463769652977288,0.22139255027224514,0.18072257361270105,-0.11147489077024104,0.08527107212396638,0.37822724501653016,0.40922590329391406,0.4193292320567513,0.2045685720300652,0.35795752024265365,0.3289335710369022,-0.032626969641617536,0.17601736907487062,-0.4113026189738966,0.005061777090999886,0.21067375376659536,-0.07379387766496376,-0.04523788660072939,0.004755992009823708,-0.25271655083688005,0.526358831812503,0.4421036376141431,0.1272439328758183,-0.15955756413167846,0.004820608457039951,0.4038098332513463,0.36735054143203644,0.023848553928430643,0.2806790482528094,-0.03450322684468399,-0.33001417039359304,0.15387343877260629,0.44174963534785083,-0.3040290571827896,0.15575705611548096,-0.2657395110400276,-0.055727076948111604,-0.008625172405938176,0.013873022238272316,-0.06726387485378861,-0.05551731599053861,0.03799615953904812,0.11186711092191338,-0.27075220515520954,-0.05115555514049942,0.16769976631285688,0.118262636897139,0.26911227500716184,-0.30309181752984443,0.5019027361122532,0.015034790848329304,-0.303082014521941,0.023541094873871852,0.13860285029790373,-0.09647301370962659,-0.373719862505174,0.0041479038534737445,-0.3858739096262175,-0.25728875301398024,-0.41091954837248146,-0.11021671284615671,0.29668892905643296,-0.22992856797807215,0.170592217950982,0.25407223027131987,-0.04460038911704133,0.22536631479908195,-0.19234855812664248,-0.04881079331773573,0.1586962180835346,-0.30265076770206145,-0.109816989389775,0.26521138266391453,-0.34553862154204074,-0.22047526939799325,0.09649760565534043,0.535809520235554,0.520690422849918,-0.09447728850959611,-0.0922149521470148,-0.4315785973020142,0.44917586665234194,-0.14601375155585616,0.16202109260200684,-0.4634262756362494,0.2274351218788221,-0.020892277499363066,0.08940277605658042,0.49427476951027777,0.06007541521616253,0.16397969224978112,-0.4374750909336459,-0.18342616064338294,-0.369322131858089,0.16924016569274644,0.33551197831639173,0.3857951339015106,-0.43782337391949544,-0.012904883956086044,0.2767436745872461,-0.07636946917569754,0.16668212883232716,-0.33283623340613283,0.35714669307022623,-0.3358108487986707,-0.04232582538508212,-0.04892840089977601,-0.10571669286321829,-0.04122356549720268,-0.40282832576300676,-0.28128267397972356,0.41328773546289743,-0.20277610522274658,-0.304824768559093,0.1454039921602226,0.4704994354865931,0.42420451112115254,-0.09640223012536994,0.3632676370008445,0.20162570608126085,0.28283038001021577,-0.24626526246148941,0.42809557230106193,0.060142766780538634,0.48859887835545013,-0.016669366985175446,-0.4270655343999894,-0.3558331572654103,0.40416183603047456,-0.4290212970177585,0.47199730964096503,0.007172650116180466,0.4328892732223216,0.0614156286797844,-0.12448065475671943,0.15599140093853817,-0.3912550171954437,0.16544493820772097,-0.41920815202309336,-0.18572012723616094,0.3368945417441749,0.18907592346467483,-0.4033844208347265,0.17078811368923275,-0.13831388225632968,-0.13621587013159764,-0.3172187643998952,-0.2628108099298986,-0.1618331185295339,-0.05700046377691195,-0.4877221105581109,0.2519753981838523,-0.07582385569890016,0.1591196563463531,-0.1625217309352622,0.11062682824096025,-0.20756289575941153,0.17464614409053902,-0.04411430002979642,0.23019886681024337,0.18973650871030492,-0.05377218312687722,-0.45552599228027646,-0.4675901573621053,-0.4746781895679144,-0.033002622066182874,0.1876749556518561,-0.34467319965185494,-0.4042674203039499,0.10519582106006808,0.09827659819438095,0.006433108234727314,-0.4274118396601032,0.14279095387923235,0.1855934089637612,0.20436330097280764,0.11876055454363166,-0.45746428554424157,0.21615747419965292,-0.3908144114730604,-0.29871479675882906,0.24901828218925426,-0.13148899098183997,0.35274546564264275,0.3924089754513578,0.09451446636964589,0.019217644929305333,-0.2756313672769174,0.48421032484236903,-0.23919759781224692,-0.3149326100591603,0.06681934226477693,0.09422481663957938,-0.23357855469138444,0.21909669461913062,-0.10343835731501616,0.3893735249018675],"bias":-0.01080424548673871}],[{"weights":[-0.5955516523658173,-0.2471409629170448,-0.3021495978720642,-0.9482651988562837],"bias":0.20016170167239888},{"weights":[1.006264887323063,-0.06150964071025775,0.4315413635893428,-0.5925629963754587],"bias":0.14829452186580538},{"weights":[-0.22782481535413096,0.05997076225379779,1.1474691497709448,0.08898507732441645],"bias":-0.07588042735781031},{"weights":[-0.06085764249288265,-0.30063332654235486,-0.1996766077339241,0.5492623653120723],"bias":0.13917984853654924}],[{"weights":[0.8366138988979214,0.7506126951545063,0.6914638949890339,-0.5225155458557433],"bias":-0.15525700376446586},{"weights":[-0.2650002248904776,0.21150311102258884,-0.11199603433377991,-0.28724650466752255],"bias":-0.3015572222726168},{"weights":[-0.3581930721745988,-0.9220860580968295,1.045093641553381,0.2271423433642529],"bias":-0.4305800636293726},{"weights":[0.18324810485673068,0.027140995344342167,-0.11655636242924895,-0.36510282149971535],"bias":-0.2941991212068207},{"weights":[-0.8434131537289702,0.39122446998968824,-1.171592014203167,-0.09375980265608726],"bias":-0.27234487567330457},{"weights":[-0.2834794377652335,-0.27188756017608146,-0.09936918384598413,-0.3709092022704388],"bias":-0.1696425959546314},{"weights":[0.9437750027307477,-0.7188498374893192,-0.6270347555736462,0.3005206284894978],"bias":-0.11881134400617147},{"weights":[0.16611856314293905,0.0931031313785054,-0.2026746152368988,-0.3114198832327105],"bias":-0.3581833100150478},{"weights":[-0.6583795380046171,0.6743224357921921,0.5531184937373868,0.5654974543282083],"bias":-0.4899994857547709},{"weights":[-0.1710444129757577,-0.3527253281936997,-0.05402056337872661,-0.4619709749475704],"bias":-0.14271791635897976}]]}
}