function preload_10_10_10(){
  return {
    "id":1707193714385,
    "layout":[10,10,10,10],
    "layers":[[
      {"weights":[-0.0987291348419808,0.15030765887233846,0.039444167701644085,-0.406953464014468,-0.17912040354498532,-0.40029416754041175,0.41326287462540295,0.30405640581449417,-0.25836811103465374,0.23989687652136085,-0.13435510030594913,0.06418034246977354,0.013137675486986378,0.26831643670791494,-0.17738565753118002,-0.383919856569863,0.3124227879899886,-0.023256961625341233,-0.26576445546504107,-0.39114818728162326,-0.3451392494356817,-0.09722090491346928,-0.06232657163623079,0.047254389517559725,0.3212226674349798,0.23494212415754934,-0.3108768903270555,-0.3870693700751108,0.26580748845870295,0.18260302280030988,0.007905113102623096,-0.3698979119245214,0.07021848037153973,-0.4446823686209575,0.230416990406319,-0.24105757280862464,0.39070984105208756,0.08429313409672624,-0.2380811627666768,0.1557214910426744,0.12554440151055185,-0.38156178103101585,0.0987300933000024,0.43297368513630846,0.4225355319405359,-0.3579713280076583,0.3555750345953986,0.3586045591785284,-0.30044204889825094,-0.009988634362085446,-0.1329369503631289,-0.39894743168612745,0.37570738317726043,0.154718950593152,-0.33034979175432544,-0.13142707668383088,-0.06625464403954129,0.30330649215641037,-0.0406532027740398,-0.3163952806331761,0.3475584374580112,0.4373867346895661,0.26649872501069566,-0.3675062343006633,0.2640659451654503,0.08940661269371512,-0.43551659440430446,-0.0928484138387623,0.14704091216898024,-0.06359761159965828,-0.22475656539608965,0.11026538476903446,-0.10290114553006645,0.22384152846877672,-0.12242944643117265,0.1276908936797908,-0.2525934799047488,0.10267755289008813,-0.1926983223351803,0.3982309005473481,-0.12400431706878534,0.18973077442719263,-0.22830308168946864,0.036450261781369064,-0.23142064296333698,-0.20654459807374992,0.22581306094331602,0.15141389601097896,0.17284364231126842,-0.14065224693936682,-0.13552493766634305,0.33056752757865304,0.12803234643562839,-0.2088519936506886,0.14184688365913534,0.056588969938434985,0.3094765299885044,0.3679189351239452,-0.02638457888746938,0.054198968147966986,-0.02636296320390541,-0.10599300778119727,0.12814478579680805,0.3636618236848072,-0.19858147793380218,0.08508243654743469,-0.161188561423306,0.41366755297084945,0.37295056909172924,-0.24337001336400554,-0.3485618862196096,-0.12092763468443356,0.4203945355287742,0.3087799183509292,0.4283069075680619,0.18440376479940288,-0.09486829047412146,-0.08048333772782604,-0.13999916596428155,0.02112523128490254,-0.4069977800421979,-0.3097720304050453,0.48749198594892273,-0.17718578246902725,0.01090038813559102,0.1265111742896687,-0.10828030910065556,-0.10377892109485162,-0.18195558787979796,0.11407874829569678,-0.24844787957427086,-0.08849032694244596,0.2751282515594355,0.27735265688128746,-0.4253518438893407,-0.4632597110055522,-0.0134780168254039,0.38265444004654225,0.39623206992985804,-0.212836737026128,-0.2491636962883631,0.2682037565632141,0.09246399773688012,0.021068170559349605,0.2648468777067049,0.3705037669879535,0.2584186757574897,-0.008130286449840275,-0.2870418785063458,0.18781396024315244,-0.18428570123058755,-0.22819324916253192,0.2599180572699992,0.3409700287051461,0.3507601371971008,-0.005699502402357053,0.35528594807915936,-0.044037385508297354,0.24734361515107953,0.38239369508797993,-0.20122813691288127,-0.03943329890929808,-0.3294801955844591,-0.30133713452574623,-0.4197716687024006,-0.39827703627477073,-0.06265349908146259,0.33815360794816063,0.032750352233431146,0.018258993582258777,0.03184087825046802,0.273280038237149,0.11791768634589328,0.10238208075834235,-0.08955912101848279,-0.06724710796923047,0.09902099314844152,0.0701387055840081,0.23165613164772655,-0.13230317186831636,-0.37879728708212107,0.031322878896415385,0.03084021428560758,0.28059855831310215,0.08117367273723039,-0.2757638735380744,-0.41890099639934175,0.32221886705842345,-0.05623695993428946,0.13791541631870136,0.0996040931636726,0.2142616454894697,0.08700393997679214,0.2540077523001679,-0.26116683487765996,-0.013249676046684842,0.2065258420450041,0.3262499072488328,0.007940071468665377,-0.11423744886792601,-0.18554312373980586,0.24587848641095453,-0.22250879495956052,-0.08902970428420538,0.4471082300473452,-0.29762205721300705,-0.3380673554318804,-0.020508526248861198,0.3447643766211326,-0.32455084066401246,0.5521983452777587,-0.03098006439424054,-0.2086328309007597,0.33083002875304723,0.39867097437330107,0.4632460510825265,-0.32381448940109625,0.3738578534456313,-0.4058671591199722,-0.03865148660095522,0.34498676103960446,-0.03797450136617943,0.01482518516521849,-0.15436152671170786,-0.3607474209792534,0.017561349003578464,-0.3717076476238219,0.10279152395331788,-0.1707107862340047,-0.01852635941931596,0.3401402273828336,-0.22492948922604972,-0.4492246515305195,-0.07215239072114984,0.3599523605689236,-0.3070250964692576,0.2599444794388155,-0.4366915078868988,-0.14561451172756912,0.021743764223146996,-0.12515447212912287,0.4317453296846791,0.0074437776017029795,-0.42136942631282637,0.2732075825965827,0.2535935361455155,-0.477108823403428,-0.30929876926091066,0.16742604214103418,-0.06156535792925161,0.35340880453642415,-0.27837305475097224,-0.3682835677599192,-0.36791748340485997,-0.39325308527329,0.1027288624798786,-0.30612207726537993,-0.25047189295029904,-0.315656405296595,0.07282276740784017,-0.048443666454887756,-0.42112248308700706,-0.5442479987963964,-0.004437989963337832,-0.4878530062672424,0.04102489842666688,0.10292790158879062,0.25496050797149455,0.1139872546333368,-0.14566698258672015,0.08687336477738976,0.28329787513928717,-0.36405353257564593,-0.033332311279897484,-0.4077497783103991,0.3198305067472045,-0.35494875474026777,0.22544787128403776,0.4079928734180724,-0.3155558340449423,0.2869079386961524,-0.3937658255667466,-0.2657373262671249,0.11553073464794994,0.07938860777649018,0.34769631344011,-0.04332329342165592,-0.5394237357212217,0.1595664492967533,-0.1535346880031181,-0.036590697043577126,-0.5870440460508771,-0.37762584829186335,-0.49716027683582287,-0.23322904376494044,0.16355409741638932,-0.40084212694882054,0.36676038070567,-0.3765766016735928,-0.41644917078088917,0.35737695931645824,0.20026147604945843,-0.08049719625013303,-0.45606332040422687,0.32428968888889925,-0.36565064652262347,0.1895917364150615,0.018056089274717156,-0.4067961305086456,-0.3297551184626686,0.21009291023126125,-0.19666695553959826,-0.4303789953374707,-0.1899080521483048,-0.09424530399951753,0.03607235810567147,0.10850760123766921,0.029915372380522273,0.24120617994120047,0.13937921728953956,-0.35715527291261395,-0.393468027874979,-0.32247929254613555,0.22031746664721838,0.3573641507214521,-0.055255591239999395,0.0693254778785219,-0.32184314484951615,0.41692183731163246,-0.14568077528243645,-0.39989410304194606,-0.06233406841318326,-0.3594671290297495,0.3106882764931227,-0.4185150466599306,0.11618815940220613,0.04622238926045832,0.17086716721034606,-0.40733071049310177,-0.0743315842749098,-0.06655633441264057,0.1978679635286983,-0.05864162113626483,-0.304967873466545,-0.12711738516989693,0.03622224977682285,-0.3379129592736659,0.44372350379174946,0.39247026952193,-0.25230504462856074,-0.20358446232269053,-0.08786224026470969,-0.19596191612300778,-0.2885306841228562,-0.1946807650908614,0.16221736670529624,-0.24493620552970144,-0.3335076922304632,-0.2677413237294842,0.46997763704410206,0.07269037250946231,0.016428398637381308,0.3244284091181365,-0.1371227773654006,0.06493155008043422,-0.3090160342032025,0.16936316779049712,0.33332079948152443,-0.11267612304150848,-0.3354671774899899,0.3769645800488671,0.0446421025928486,-0.34277228954050565,-0.05800806562328975,0.04388341739670422,-0.0362269060674436,0.1415068055631267,0.2426429944477605,-0.021978297348371947,0.26072316059682354,0.38224411461299773,-0.2470491026945108,0.3536502740510027,0.06928159710661341,0.22853654551991276,-0.2289541160874342,0.1636088662634689,0.1584058978573812,0.15920891164374545,0.15158393238931028,0.3171485819535707,0.040461053650150104,0.05690210705690462,-0.19084746363877655,-0.21132301692308517,-0.2531922648363284,0.061397230639942554,0.17819107995470515,-0.24523575763801994,0.07491539322549329,0.3407128582872966,-0.05388996826012405,0.3172936493292233,0.02141245108449955,0.40456682591812176,-0.04856003491672721,0.46181717125336974,0.24830827670799172,-0.22644465241575867,0.3846567712347829,-0.12671053546447852,0.3461408592441097,0.00563914886205885,0.04594907719973034,-0.2463197785770208,0.2894212863688093,-0.38743595031926414,0.19786424922200957,0.0071154053311252765,-0.08847056837811633,-0.13563809597450346,0.08659065837737115,-0.29034594813180975,-0.3771983622695195,-0.34679357619429413,-0.06364135006628603,0.19961826088267343,0.09953847206948763,-0.12857231559662696,0.10352026493326762,-0.10346910017053798,0.07214189944658472,-0.0245505750447347,-0.08105796330448031,0.10991158475955917,-0.40625457015099803,0.10414060170307589,0.17210295842010995,0.12172368736677158,0.2774575175793871,0.02952883467153866,0.24681097754156925,0.17595375370559213,-0.2975653283526934,-0.050940589542440136,0.32496208280905337,-0.3111196279756191,0.14161087908084513,0.26764098502703343,-0.2752274550338142,-0.2220121101300793,0.17783426223135504,0.28774928222275514,-0.21996957827968922,-0.16390389634400043,0.2165691566771364,-0.013108968888595564,0.3482979312060483,0.22448238705722992,-0.30306287518656144,-0.2857192465696231,-0.2756320080999819,-0.40580461834736586,0.34133624424169884,-0.29784146009900453,0.261051356177968,0.3053717185216809,0.046034879004430505,0.2621358033027689,0.12042948992323167,0.30064128119791866,-0.41667184686892045,-0.12493909627797412,-0.18977794281982466,0.002626020717171411,-0.04146588354101501,0.08316576635383915,0.3554590589717971,-0.2824309520957438,-0.30283848886834847,-0.2660343322132111,0.36477493692946733,0.4232329637204381,-0.005853579955774464,0.3470477267204315,-0.04745561985166575,-0.4267828282845501,-0.18508366729296255,0.1329284253300308,-0.0060897861548274,-0.21294663322947244,-0.13585714629306075,-0.3124957409881774,0.17846624780489548,-0.1361789815369294,0.20373025258159708,-0.30965160151483934,0.06212203797102755,0.046804834374652965,0.2157816547883444,0.2745730092454171,-0.36810381256864105,-0.2979544749944536,-0.1246828817215019,0.2753236680548858,0.19692678930365426,-0.09676252657393856,0.32461991803828383,0.3079339942481054,-0.26539058324772347,0.23753552757416785,-0.06564154189075566,-0.3778609370035202,-0.2634798776105417,0.02522470154828479,-0.654308164253051,-0.28351350429127964,-0.10348321530268009,-0.41117967570617947,-0.15826625285618226,-0.21337854627039826,0.13281612033586013,-0.14141130222465254,0.06197243682216397,-0.27243707842303233,0.21964881809333753,0.38976648557043986,0.41660651791793263,-0.23777193153162934,-0.43874545830645983,0.007842965045970733,0.3041495311524334,-0.44034880048221253,-0.11612420226113866,0.3937290779521684,0.22299010094463545,-0.16676328484770245,-0.1195932619646009,-0.0035366046090666717,0.3092375002474465,0.3343603410870675,-0.04723157767945566,-0.5879889178974671,-0.19002542635353994,-0.5565731811666722,-0.09901073915002875,-0.4486563842623747,0.01914788002514717,-0.3455356130205291,0.004966243605758841,0.038105526602454205,0.38229781201156526,-0.05777648204499594,0.16192637259530873,-0.11083710772891621,-0.18445984424648035,0.3591676268146375,-0.26773365975697333,-0.12631314631946347,0.3394330242998517,0.16899400673620799,0.26355721428280515,0.3707802068793997,-0.12370195588074329,0.15541570203597524,-0.28855447143359303,-0.2971514510678227,-0.061075660717926944,0.12013720749466866,-0.24760803682648533,-0.006056710970038161,0.21038847980776781,-0.3162972434132963,0.16721197799368753,0.22831218475305803,0.09997019961727986,-0.06235918587978222,0.0812373429857341,-0.046440507338411215,0.14123703485452338,-0.11390894620081453,-0.2781542918205835,-0.231268954441412,0.11448280288185016,-0.058250148486202136,-0.37984541080323875,0.16659379413983713,-0.23165106276064099,0.0014999963785089277,0.15120221156117034,-0.26806827019349855,0.26713529758824067,0.49665052810491855,-0.12399685381538204,-0.04579929343548929,-0.08119232925522106,0.4907270740541278,-0.1840852715639554,0.012182267758353951,-0.07930849529726146,-0.20346622362553404,-0.022087857073753565,0.2465182431959976,-0.2962334596943956,0.33641446500175026,-0.010539731233971292,-0.4308621210411728,0.2528466489841643,-0.1804830263465255,-0.26103908455759406,0.25112537547854275,0.3920823529234513,0.27288596032895984,-0.15031380094485033,-0.04329692158794895,0.12310915183072635,0.3237479976425419,0.1623340494347894,-0.3050974117943457,0.036916298058471006,-0.3895936689991339,0.3368975024728718,0.13060626849242418,-0.09033402206868232,0.4109506977612481,0.12251221657897036,-0.13925897900907327,0.32303773068787733,0.16590612001297875,0.16091505578350598,-0.21041337427522772,0.2026486696587127,0.09625554430764566,0.10444129192896032,-0.06022664972753151,-0.01586742258234274,0.3521070496101029,-0.2776843281329815,-0.3320929851710924,0.2820273365783656,0.20654842229342904,-0.16192315649952077,-0.14421708771030123,0.3406430449142888,0.39933949136889774,0.20679285901162625,-0.07384042799212868,0.25984748843429,0.004896503541612917,-0.3004648898382664,0.22522289952726562,-0.0455255130064881,0.33796193880917547,0.03946383541044717,0.15444057122448251,0.007270925894737098,0.10318459247116152,-0.20159184554906429,0.3880951346963745,-0.24592046363128225,0.244542594126611,0.19494883608265398,-0.1918644903171868,0.3728860942090871,0.41420091404330045,0.34316030678680165,0.30222601022845075,0.44620700967703586,0.020988358715345233,-0.04551113472338357,-0.2683030522136037,-0.24732977239804863,0.09367274829642008,0.3961122601789276,0.035364138392575864,0.3859828705122176,0.43571361520244073,0.07819208761877779,-0.11904698533083671,0.2014305374882291,-0.037435739115130755,-0.22645810867805266,-0.3025780325885856,-0.2851282938648555,0.2702825706032186,0.05969036342797751,0.07721974441113277,0.2551810736486064,-0.32474794890291286,-0.14746199650643202,-0.33841827870083385,0.19594353990843816,0.35628053288740924,0.08832220711729777,0.19043901827333826,-0.10576888726578877,-0.29551087786726515,-0.3972312716706,0.20969169636466725,0.18214444627574328,-0.2825898390261675,-0.3918503089352049,0.18360461744813011,-0.2465244080094221,-0.01997136554223676,0.11084947892104538,-0.09080955684674302,-0.20370331433697822,0.40974413587221875,-0.06791878066252213,0.307929343940099,-0.13638489990525282,-0.1885593141507967,-0.3019714014764065,-0.13496934320693496,-0.16725080096545197,0.3681625742110513,-0.20439824580635238,0.25348048828142494,-0.1875520900213324,-0.28895294154699747,-0.04722062540674843,-0.3883099761070784,0.11488525562556115,0.2876888409800831,0.3950442887592644,0.03446753722493282,0.050385556032682244,0.1515142404711416,0.026771007103873614,-0.032621822183044026,-0.386830114286662,0.33059859631403216,0.24173782582880612,-0.2546639503560114,0.25632656662751124,-0.3996466786876279,-0.3309327371580476,0.3690041708792405,0.11790128914518003,0.12132248653255927,0.232923510265121,0.06472351948113958,0.05518006775783498,-0.07736980151832129,0.13060719642957763,-0.43458600415323595,-0.40896395575719263,0.12721171349875263,-0.06327907168353537,0.19261687965250648,0.2409218872093115,-0.15991887075969047,-0.2479676225358147,-0.26590599202048487,-0.25994764593883296,-0.01203925512721129,0.3995750542319862,-0.050430369707055014,-0.4025459244691334,-0.028245254122001528,-0.2860260624583616,0.3914944411567978,0.34932428528142584,0.12159583853261345,0.09281184571066438,0.024170238214802103,0.36829191354064905,0.3058448852745865,0.391388452030167,0.07160160737922343,0.23331697259042802,-0.06584926506716864,0.20088619098134045,-0.2607338335947502,0.2682402890332674,0.3320753373617125,0.26914973664106595,0.30275706761635524,0.34987246378151504,-0.08955922664341064,0.20913603528760563,0.2985148197059716,-0.24799044612044932],"bias":-0.0929011637571607},
      {"weights":[0.04745728554189967,0.09111598895342385,-0.42875595621905177,-0.4488383940054313,-0.3315434178028998,0.36083367417311474,-0.08385458039795528,0.3099850243733046,0.42139900151079507,-0.2553480314468695,-0.1170835984726439,-0.17913182254271232,-0.29451082346335994,-0.1531003905499441,-0.1601077458252171,0.39512064020468973,0.29539524096122793,0.17021055791477654,-0.4131848830181398,0.24973023236216815,-0.04857946640458516,-0.37845808598145503,-0.28338473227037214,0.2393241769842257,-0.2735047454565799,-0.056694244495729074,-0.22612399351797946,0.4297187847913681,-0.3537657918821755,0.008343224063048216,0.09221769702851333,-0.046772066219285015,0.23616081528896513,-0.39696811381711966,0.40856666324978885,-0.1181900046255683,-0.06971157013153739,0.08713412012538257,0.23196500085976227,-0.42542754698255225,-0.032461868932626224,0.1264742330896831,0.11148995454216,-0.24221975338306762,0.42707499852774033,-0.25081016319362065,-0.18671193719373477,0.2070691777100252,-0.038675990158574966,0.13969689582283973,0.2924871609314988,0.0947757142921802,0.17187964869773306,0.2927910395097799,0.06744947066576489,0.4201386871366496,0.2393045673198462,-0.2775242698150488,0.14890218124276378,0.2073118209620071,-0.3544025605724068,-0.31265929243343205,-0.2140030729042378,-0.11787266656508012,0.09031898313658919,-0.16477235631267112,-0.07588781012969271,-0.13354464446486297,-0.33907545099839337,0.4016932268428673,-0.19200365360701643,-0.2476915843816946,0.02623552187156329,0.14653666587077976,0.2729662094739042,0.039701529471806114,0.37845611888654324,0.038501226699905904,-0.13182679218426643,-0.27021591844603154,-0.25588200597247274,0.21436063614107426,-0.11934097266508682,0.1810616260280808,0.29449443617887966,-0.4164263764096124,-0.3367747375651526,0.4415211432853452,-0.40383389920006085,0.23943325925386955,-0.26475436557469345,0.11709814217164828,0.3774161726981302,0.028106258059695726,-0.051138228724359865,0.4616152639904607,0.3965636755398289,-0.32421062226267383,0.4319178680232546,-0.4167092808653515,0.4625177314368476,-0.2695049205654554,0.08368300777388159,-0.2102622269356895,0.3232778452213982,-0.1778507492494752,0.316050681474084,0.2231400713498362,-0.3893657763740515,0.18532470431344933,0.44729283149301985,-0.04500803194125613,0.18313355533183992,0.10161173702157478,-0.25359158124517117,0.12276582160250964,-0.4343541785908967,0.3285816472742606,0.3567722042886877,-0.37378073212857754,-0.2028834542370705,-0.1364496817660825,0.1903918524646656,0.4472551661929437,-0.26453076666084074,-0.13268437914177061,0.19909368401942013,0.28208201372921193,-0.048280364579383596,0.11326130425193688,-0.11170919679199635,0.368118033954439,-0.21461323452051084,0.21473910691624998,-0.28650118205853214,-0.3205354265283818,-0.2815438878273964,0.2346236731546584,-0.25056093482560887,0.3591866322106967,-0.22882970147753326,0.2493527530163642,-0.11899644744956231,-0.03510814441655585,0.22019913198327584,-0.25084549072535056,-0.13440017615049019,-0.1292426446985752,-0.05395913030287274,-0.005951975963194654,-0.25877541719804187,-0.37786479737351636,0.39854763772516216,0.223536722321646,-0.0965706108532681,-0.30212180240933856,-0.08381824745989115,-0.06254534670913958,-0.30400782809891763,-0.3679578039067259,-0.10517308339364409,0.06781483989202484,0.06931907535629543,0.37315686462773606,0.046683667489937936,0.17300622688031544,-0.2015764217234865,-0.11218087502067452,0.42924340969096425,-0.3177001155589962,0.19923592217341576,0.18662756193654959,0.097653128468172,0.085294660067177,-0.014881237124518477,0.25388082762568515,0.3791666399510072,0.27749332066066135,-0.5223954180094179,-0.32880783631121985,-0.06068214765388739,0.0622703039199285,-0.21497187973506515,-0.28863324351353403,-0.39253083598369254,0.28181527411768786,0.1843746172799952,-0.14753534840463703,0.11109238349665163,-0.15759373273277263,0.23370948365796226,0.016693392703997483,-0.35327674346868637,0.06917646367428211,-0.3248423575829144,-0.3941181908465021,0.12208133308148221,-0.006605694797726854,-0.11887410152270893,-0.2564383705183323,-0.3156013181775689,-0.15128042921854942,0.08148316152398666,0.12298162413881442,-0.09451250578959355,-0.35183592758924065,0.0961835140166569,0.28090380590768776,-0.203914510196353,-0.2203738475582975,0.3137039677873138,-0.0340902407264271,0.5232701412460325,0.1272762145612516,-0.14412234034831134,0.12330897830943176,0.4892014255022413,0.4025048864719788,-0.18356393119422096,-0.126838220584266,0.10820497640916536,-0.16389234055843444,-0.33342144542650104,-0.35997699809449984,0.20020791892309378,0.3474523740491753,-0.1367171770351989,0.3017339301050106,0.29596881200715763,0.19415126753140668,0.07342879550471064,-0.05536061583267648,0.22906510445087255,0.21326975581036783,-0.1577779029294962,-0.24276231249325997,0.09835033025869638,0.12052290942742776,0.5563603267013735,0.4832358957846295,0.07898495146886858,0.17844276831868827,0.21547861351202247,-0.05018971918825219,-0.17283224738359373,-0.17212136191210348,-0.02821406434827731,-0.07197412019036131,-0.1648554069406709,-0.06111904073894314,-0.25783486157815716,0.31613753678280204,-0.1639208844568003,-0.04242060742857546,-0.37680837516184057,0.21813176965033138,-0.17592369210922176,-0.4137582106854989,0.24067663792958716,0.1513609280927757,-0.13425649101227177,0.16045923055721187,0.2788292439128318,-0.4341525110706999,0.10852797487928745,0.1523877396331647,-0.17987848291651193,-0.24300496342407218,0.2237343048723387,-0.29294097517209156,0.2069235829922677,-0.147197174724023,-0.4556565488396525,0.03766790047774758,0.3943971719504886,0.07001858434212531,-0.4924630105167566,-0.09397611739045528,0.014920866413885217,0.3498934509494117,0.17104505018144628,0.0058543124414530455,0.21428997851604623,-0.4242487983881239,0.18580104238319858,0.44837037203584207,-0.27980813734905213,-0.03171213000880661,0.3083157382319932,-0.5730921004448716,-0.4215078399068173,0.1686421750716237,0.2030094118890655,-0.08607486510935404,-0.30419130497529034,-0.029892903643205765,-0.004314100761883166,-0.08982483995686415,0.21144639729051995,0.27592262282338686,-0.4017090240542493,0.294464404196776,-0.32986265499420014,-0.1783056312118951,-0.3841390591393104,0.04213945330083486,-0.4164747248481318,-0.0901749607834645,0.2917369812319512,0.09967616694175196,-0.08798730816476238,0.08431528599320953,-0.18314150840097612,-0.033463567745740656,0.04018012597099552,-0.17973901376541274,0.11350018716295629,0.2844619269321639,-0.21055275209782118,-0.4971334469228355,-0.24827758882255224,-0.37699191240243546,-0.2465616205817192,-0.004595527908648492,0.12481719581806734,-0.005348194706575831,-0.3594162711215919,-0.20795125852332635,0.09814304694968447,0.3789517308016619,-0.09144348842055688,0.2601819021345316,0.20005840901347174,0.2438210759391479,-0.10740060106195164,-0.2754592216232232,0.3990387566248338,0.3202973090956112,-0.2672945558866401,0.34538681873845256,-0.07693934857272304,-0.17013356160476995,-0.1174416536949839,0.4625676020677184,-0.107778678489459,0.163937271441071,-0.48187910819204427,-0.199417981084239,-0.4503418367468488,-0.03898700643550908,-0.0047714946214521894,-0.2450252575956955,-0.23961773387961505,-0.17929264917968477,0.24991244321697115,0.313654482162981,-0.05446502613712102,0.14800959555037205,-0.33604429519872303,-0.306472382463149,-0.37084023557915125,-0.39184374823478396,-0.2883732721051801,0.25243080133912893,0.00901082194243379,-0.3516756394485916,0.16520273388978016,0.310807463694383,-0.15729148274444682,-0.1474241746241718,0.09925911378733648,0.49632801108749847,0.2015966329708413,0.28389389614655214,0.4265833370516935,0.16143275947949326,-0.28312891925443945,-0.23523322135254146,-0.3047900563574003,-0.07959023229546565,-0.1904713212372546,0.11048575743898617,-0.03737583303584462,-0.08654351092671485,0.18456417850533136,0.051555824263779124,-0.30859803866400665,-0.1738951584642502,-0.20533142635272902,-0.07473620672851622,-0.40214603694472806,0.3327712189121828,0.040866338379428414,-0.3529511630578908,0.17541819429279834,0.33331850472094937,0.19539752304146915,-0.12358547127088604,0.4583908340256457,-0.036238138070011264,0.0777157588437152,0.3367495797096833,0.347027618882097,0.5223482680807829,0.04364745483202781,0.23184450580270904,-0.38902189900610995,0.18841702214357772,-0.5594796727521238,-0.33441997051629935,-0.1514582857072223,-0.2478684865659224,0.042811077980094266,0.25404747343011963,0.29559081707715734,0.431204533296002,-0.05455961437279243,-0.329882712373572,0.17182731120016048,-0.4118606100557491,-0.2714537406174088,0.2660865817844215,-0.12006608220665858,-0.21100780320864745,0.38139315365211296,0.0038097848172046664,0.012129393350358744,-0.054333287271075996,0.5703114539355518,0.46878265282816534,0.344666622761827,-0.24893248039322427,-0.26198378344590195,-0.3314020814547302,0.12454226809168069,0.16555007648596226,0.13476578633067834,0.3266151022796884,0.32212306221801523,-0.09519181787822156,0.17063073646430035,-0.23619792878824283,-0.2823867987925976,-0.3133858974393573,-0.07620958228762523,-0.3040013524858269,0.2282847428215949,0.24401941182050466,0.43314625288177944,-0.31633768785293537,-0.14101386718291545,-0.1719561056501948,0.39959393667475557,-0.04949660157055605,0.38000032019021224,0.2795728559537181,-0.2851301242687709,-0.11981742293226864,0.36027245700041344,0.04712500588366649,0.4365184450140437,-0.2414500601377659,-0.2752520304446784,0.2805918037131258,-0.19201874741928587,-0.5460057386929896,-0.11943377833358271,0.12103349112185921,-0.20629867882144184,0.25383327811393736,0.2746001703880288,-0.04095043986652839,0.31077936826445,-0.22078863910591298,0.3839888035037095,-0.04645207728114434,-0.011323761645493813,0.23914122508923077,-0.07759983828935356,-0.12849735161629894,-0.3786997408032887,0.4494438763992332,0.06614225196862553,-0.05962772509420543,-0.09829438306780548,0.4134883059232322,-0.038327518937150945,0.5961693270493209,-0.1053297905887224,0.23248183792021362,0.11372460502767974,0.01442718500866647,-0.3258808376668491,-0.1871255479589555,0.13406918579062715,-0.30324359092971376,0.2552154059824472,0.37043058639375204,0.016028813690328193,-0.3085912508113213,0.48406390738387345,-0.15688152125104451,0.32375894883294193,0.3022107659116131,0.196827757912691,0.18682983642664655,0.1516441137459014,0.30831884284880295,0.30636852748278653,0.3522823601996145,-0.02014158260427023,-0.12315826339446308,-0.0965883195945784,0.11942275195080358,0.4715978480439772,-0.1401291092005761,0.3188933946023334,0.19611886529318762,0.32124890033751785,-0.362512583501702,0.41289622573984874,0.23650165820399927,0.13406665794728664,0.1661533006919017,-0.35457480088156407,-0.11321502650376279,-0.10397373601529326,0.324728545986967,-0.2474143185653887,-0.0898477936806962,-0.02752348532638194,-0.0494312055111643,0.05137718008247299,0.23769292883230242,-0.2388983464873782,-0.010110537262337278,0.3199549164801655,-0.19074993085345818,0.2850347709400178,0.22427776942239117,0.03742250537948221,-0.14114626750273734,-0.0760059437534837,0.49051237358470884,0.5452824100922526,-0.19066566778652783,0.5538959210741891,0.11009231959214504,-0.10072962270594626,0.02745367392215812,0.019918037365208613,-0.03084370998846475,-0.14131768438018752,-0.2863433216314189,0.14850294045797732,0.22696469692562066,0.2526523135409289,-0.09866560032521862,0.24793280249911304,0.13601340918194058,-0.25758242804032694,-0.13860989973488397,0.3218985262341205,-0.1954784757854541,-0.3617432509940604,0.21327714272610473,-0.06595580762310709,-0.42879603021989854,-0.1060012752235689,0.07296242316459613,0.2798191686393494,-0.19570790447921954,-0.036327713096948704,0.11610132106400796,-0.10359185210606968,0.20961147424621385,-0.04693235640738647,0.07411874566415733,0.03302694113942083,-0.05409246462712191,0.20316949134321624,0.30659231916968527,0.1754097507293561,-0.06829771522368441,0.15064469593578989,-0.290525417810565,0.3212906347984321,0.39247851843306586,-0.11370985275516651,0.2381717043753572,-0.013044458615288067,0.023264545191172502,-0.16978735222618616,0.10733801102681127,0.16183474806600262,-0.291297093189815,0.0719048738296426,-0.015316738948537701,-0.26492389067058586,-0.3751785916997335,-0.11149425680730071,0.14325860097501678,0.3456728298165025,0.4662227796853445,0.4106834049693822,-0.04540397987213359,-0.13544396745168577,0.2782132158946939,0.2832641405917179,-0.36187041575623224,-0.016919461717805232,0.4853423042839301,0.19362980052525602,0.13975465709433382,0.20031681480178684,0.0737901594877562,-0.4465572762290618,-0.22624313411335617,0.18818274994783546,-0.11808568699447654,0.2740884739453739,0.31755215600903847,0.26309496551234884,0.16355652302748971,-0.08770274537897338,-0.20266540892706625,0.2956132318207554,-0.1844016835983238,-0.24881785950036384,-0.1792226173241229,-0.23479490895624525,-0.1930890853772612,-0.23142165915568147,0.19060993235539828,-0.24759406699047984,0.4372530758525522,0.4768727829564242,-0.15986603264848584,0.21378615946628157,-0.2795387924910428,0.193818591128478,0.3646987117098512,-0.3671395748283003,0.4363106085811381,0.29594811462112675,-0.026731348407744313,-0.19199019503099507,-0.19188539752974135,0.08946992842084775,-0.3830149320000483,0.4372753675849685,-0.2672330207908171,0.31284227027019723,0.09301309604363617,-0.2650980922536088,0.15944265056229137,0.06766191417384641,-0.13490613606124024,0.25117409991405865,-0.16964505022706938,0.15915448352964884,0.0014270945972360161,-0.3061629078497733,-0.3261301685416959,-0.35511063060426057,0.4652282170007293,0.15401524900949193,-0.012462483643897553,0.29766835811243175,0.3859307491981303,0.34621697102569354,0.12418668683451749,0.3837754413017182,-0.35557195307952527,0.04732199047239356,0.11820217771222209,0.35631318515710786,-0.3017320668588783,-0.3928652704519226,-0.40554698338509676,0.3093691728816015,0.3714864746595107,-0.07192564044179509,0.3745139641702754,0.07971245205064614,-0.27970372413248246,0.37127603027670225,-0.2492451157245663,-0.2085890925018233,0.10189873301604938,0.12361169681596026,0.05535654250142215,0.24045148293132268,-0.3522713003747138,-0.3067411763213772,0.0714758968867736,-0.3485889109057296,0.37088584532358587,-0.3195342216214303,-0.09603832125036547,-0.17736673089201402,0.33511130717192533,0.28790955026372034,0.19188385784718018,-0.08980781309636761,0.19033238152348214,-0.2507209890487081,-0.3774421248151507,0.2788041496883877,-0.10771522634865369,-0.382291859403193,-0.2430679911019599,0.2689912169298383,-0.1340496012437115,-0.06105540578639059,-0.33647264821806155,0.1126954144939527,0.07277420404517136,-0.19402779880963042,0.12034659230108301,0.35135478371272116,-0.3558962750960657,-0.03505710235672373,0.2426055981884943,-0.23919944015803088,0.1174622191111844,-0.28012249655449706,-0.11231843000807296,-0.15405902020283838,-0.4090244602484588,0.3493459294609086,-0.34535302552119945,-0.18036307242109464,0.1679182915152514,-0.14923131143052626,-0.20247014580509673,0.3817649220919982,-0.10599362048731718,0.41437341571289726,0.09307689367358198,0.18345239817276163,0.17759163306264647,-0.43327513455486977,-0.45047441639954217,-0.2940222162112891,-0.3184603388568989,0.36372981854067277,0.38624167866852005,-0.4239427015646082,-0.3753140455825296,-0.19137134440029235,-0.3767125162100664,0.13039833716670265,-0.4126303119127712,0.08941677546480463,0.2885014985789403,0.426474725834149,-0.2401397187538614,0.22598047201829807,0.3873289816103605,-0.03681289957578112,0.2745196048300967,-0.4449610311459231,-0.42908401370875626,-0.21497919822733197,-0.2119978252261444,0.3026517939297653,0.06717006962237719,0.2893292873298998,-0.04358371980608941,-0.11223233410929893,0.38080056514319,-0.34649353880092476,0.20516068341796637,-0.20508104508958405,0.4356760521859817,-0.2133068700411298,-0.010086213187042874,0.24868103219587054,0.40518940958624133,0.412612880832402,0.3143375105840619,-0.24655544211627042,-0.12621991134844826],"bias":0.3698517095575664},
      {"weights":[0.3224181138049167,0.14377609408795688,-0.0736674257793133,-0.3688434850284603,-0.36440107284031786,0.12546863803926656,0.33568864243919555,0.2351973502914781,0.3946714950521704,0.3278756670318918,-0.4454123092685357,-0.0691984836325557,0.16529988066340098,-0.4492623472970295,0.23346957656315656,0.3063909677378307,-0.2222451183754391,-0.35364943338090093,-0.253386568541262,0.22899512199126698,0.030466954131092985,-0.01764916392247411,-0.12455515130936089,0.22691182160514006,0.04558919774181313,-0.2048191624368033,0.09116616938167851,0.02865834681705387,0.008950763788593153,0.29870470858455517,-0.060799871481297056,0.259667874185487,-0.018476832471597093,0.17593537350700822,0.14213542682373356,-0.1450454895013872,0.11777714543576517,0.3506103966942577,-0.36956566024886295,-0.13847747357605258,0.2349635991250913,0.09509123621664071,-0.14256181191446227,-0.17209482244523971,-0.2305169198854243,-0.09432055207903249,-0.1871272362463313,0.32440656061000306,0.14672838759477716,-0.108357393856197,0.17282929682331846,-0.16397700736244267,-0.16674598892950085,-0.027676821985735435,-0.1330676239942909,0.08922137312900896,0.4015192000832903,0.43042327690479587,0.3329499179726241,-0.2955163643633654,0.07281278998640418,0.05956288138867057,0.19609434809344156,0.26941078454262135,0.3976356618366084,-0.3724226751862016,0.11463824073605042,-0.03635084119474181,0.23278299473381303,0.35374448627083716,0.3016507307636083,-0.14971203496513222,0.23939603221803293,0.36297421926812473,0.06449450945660065,-0.35227250086851,0.38641554782368087,-0.458444681945139,-0.26201680575744973,-0.3692116028631483,0.19527709260890114,0.4435525502869004,0.3711991555055034,0.1551134765109567,-0.019074676608005683,-0.09851831870101661,-0.42598302490443585,0.4360370154011894,-0.09204993528897319,-0.32111861727543234,0.23018426000424955,0.20220991297122848,-0.018601906370707806,-0.4106141709613824,0.3555624134960821,0.3392731285553111,0.302473297193908,0.21326333470237033,-0.4841081800567566,-0.3888252056181065,-0.2384896959436596,0.3373538599317143,-0.44539293687757203,0.05250530817863427,-0.15126702956081517,0.2242754151673999,-0.18640989901225755,-0.27583446341837276,0.38706673565799654,0.3196056022814106,-0.32571428796026325,0.2693697354003901,-0.28614112915557893,-0.17498677001060417,-0.2168500957757565,0.3318998262377592,-0.24126272610627003,-0.34231328938283323,-0.08160624555068993,-0.04495287796162342,-0.34511000795611524,-0.11448136235589622,0.010789157757897336,-0.26021787962300846,-0.3482922247694115,-0.4427504272970807,-0.2316436193666551,-0.06079634022476151,-0.34556387648690456,-0.041142556505219544,-0.10358260720582259,-0.09511491312189549,0.2382262234536608,0.2460226907447778,-0.06487623739387867,0.2647755207694174,-0.09267279462415595,0.3998951313064387,0.059262651528646286,-0.25700322534451736,0.3479219806952398,-0.16803605825817808,-0.21220091530363983,0.005862024075105164,-0.40524364135666807,0.17751487269120422,-0.11291285625825498,0.09471475495849502,0.0773016411846439,-0.32735981660296276,-0.24010839612248422,-0.4556878314955864,0.2682753614831642,0.35239438904993164,0.09357921065116355,-0.4337306922952801,0.048988450223229785,-0.11378939485172176,-0.08037573582541455,-0.06269891170561125,0.10634864981704156,0.11408790108944909,0.27177477194119287,0.06317622586459253,0.34052773509477274,-0.10229745767016209,0.22168765321135966,0.19255923671957684,0.19182487307996132,-0.32321359888184636,-0.1482165045814858,-0.37061769405000317,-0.14600640427032016,-0.27115318210825073,-0.16911723054768443,-0.11494881096410052,-0.4956005825261438,-0.2635472215171731,0.23349390721837518,0.2046106783611235,0.01857174966670709,0.15109168244890958,0.4162803978929326,0.3482172306276806,0.1252212820882718,0.36006904305077114,-0.0877282757709443,-0.0414741859969428,0.04938117684011197,-0.050764678228547945,0.23376151482820642,-0.45326661372177535,0.3579730732103157,0.16306907245318422,-0.138943960082808,-0.2467382568565132,0.2644053376542902,0.4060279982264451,0.24888540890378918,0.385337990620851,-0.1778936808974596,-0.08006315620066971,-0.4564030406691757,0.03244573433843788,0.29322507008700155,-0.19982213547718755,0.10968402438802236,0.5419945984945382,0.5699114028860188,0.029692611107966494,0.3586966528541921,-0.058209387204346534,0.5234708993425389,0.2434211473361947,0.5710874796679543,0.4205917448379567,0.5213596291589307,0.34441251593189276,0.31380575709389086,0.18615331885348188,0.4111476761921875,0.12085870666623551,0.03497857775386467,0.2068601529157603,0.3490878546104503,0.17487650690395778,-0.28739756019649493,0.3502442926474681,0.34150418610625993,-0.010188842739143392,-0.26247578067556343,-0.101767755757561,-0.04948170047091795,0.07580301579708174,-0.20027175336509112,0.015055342979714594,0.23074263787816252,0.5672625262954296,0.6684762832652903,0.33894525241249907,-0.014059819565525886,0.42308041155216697,0.24222510020061583,-0.1245722816060531,0.08430825306415372,-0.30177118938473324,0.11131978115491237,-0.02277466109903457,-0.2832834774876737,0.29100066848053896,-0.1453999815854002,-0.22698128449309563,-0.21815265305577095,-0.337939454625055,-0.35157604686316324,-0.17575950986549674,0.17632131814376023,0.028048495663838414,-0.30945217953819554,0.20586851531116215,-0.18276473993093065,0.3025469983786885,-0.1508673490345102,-0.028852312446333298,0.05341935535387351,-0.05201554107441793,0.32839484638883354,0.17082134499216114,0.46048898503215585,0.000979000737809598,-0.3260575322745649,-0.3292800495051948,0.035009882431409636,-0.2712378288968962,0.15866249055891143,-0.2729659931143742,0.2536115912003952,-0.1665145980491207,-0.001617306281995811,0.36463735912962925,-0.26401610658643354,-0.0421675033393132,0.19085497594337372,0.24916237935892174,-0.512150282055359,0.27825980270093087,-0.0895114614776655,0.44693050481081503,-0.18276521189895248,0.13880602347537455,-0.3144464490323879,0.17585242508529217,-0.27378223090075476,0.07306053993186029,-0.009144337605789761,-0.1568662469453061,-0.3153583718162442,-0.08624037342894576,0.19775707851497737,0.02035318959757154,-0.10040603965947176,-0.11052609703200264,0.17414336769095876,0.2903573459161688,-0.08757815884070413,-0.1032247379527587,0.38818578290075073,0.013818869971924969,-0.2410759322008783,0.3007216933327651,0.08110818235238608,-0.2969173021143199,-0.057773741650781266,-0.3710986574011545,-0.29324992237923564,0.07662246123985497,0.15517917975826626,0.13515815750487337,0.27898438419028543,-0.33149107961096974,-0.0878243157772225,-0.06569270668777397,0.2788455438961047,0.23578020319883936,-0.3136980057532655,-0.059473581688178505,-0.06981008115028287,0.12093378444883153,0.1373989976404363,-0.18894785190451246,0.2309572096124521,-0.16719032461250155,0.08396987680879875,-0.20584486556225784,0.02538098822501627,-0.20403946926069966,-0.3310774642061162,0.3241071750879255,-0.3534706571128523,-0.23229443121011684,0.08667781405011517,0.13158498177713782,0.11235218666157884,0.2780247933210337,0.21236527197209606,-0.023482158037323213,-0.06281475091515122,0.06439389720117551,-0.4651154070697518,0.364118350680581,-0.28168576935419365,0.28859091159772954,0.11323730747245048,-0.18800295406544917,0.22995549828060685,-0.15912483040309652,0.05583984445007791,0.5054451236512678,-0.3345867850869988,-0.08209421032315936,-0.015293568101107961,0.18431996032646536,0.07433897870847933,0.11393850946960643,-0.3609985576375561,0.09394071707200005,-0.4006122368577697,0.20766741360604524,-0.22290864448969056,0.05624104817444106,-0.4858570244700775,-0.10261135214159761,-0.2645138198388281,-0.5903105470459556,-0.09822199243525498,-0.4858951999946117,-0.24756652830107467,-0.15494447356181332,0.7500960198914943,0.2558572084430769,0.37663453210840697,0.345755184025895,0.4462021698528614,0.0515819072674937,-0.18221347126404652,-0.3620110679175309,-0.4370387015864655,-0.608779399752874,0.170503710805907,-0.35983056598186425,-0.1670922846755984,-0.4219846430172998,0.43898546359491064,-0.4499260092822238,0.3882056014088081,0.1422495542594472,-0.32518722236623054,0.3623733274702515,0.1963541353776282,-0.4418020325338462,-0.14580188499684668,0.037143254836495825,-0.3969619897861641,-0.3885898568824135,-0.08107231339080452,-0.07104384357013743,0.2835769538625583,-0.12655281438890803,0.26013811838353273,-0.518888451887311,0.1397675417977644,-0.1408194741024505,0.1222488186486124,0.009462095559433111,-0.28606445585322704,-0.4853224817756288,0.11814879549041662,0.408108442032487,-0.3063893155056061,0.12253501108932456,-0.28602485073548267,0.11918418493557058,-0.186452193134428,-0.4283693355957626,0.2565835030349751,-0.3919536424274653,-0.543590215051493,0.15991715733190673,-0.42810709691686133,-0.4574698985306974,-0.1952743168930888,-0.2800171488588813,0.003891310322598512,0.06712504574485534,0.01516126732324225,0.03126203835216036,0.19469487419286183,0.18889469909466503,-0.3703179353010619,0.3109077784094873,-0.24850305844345622,-0.25924914053259485,-0.5026308852419514,-0.3958176976300394,-0.4762124596565085,0.2655216932918142,-0.18327594905290148,-0.31768287292230485,-0.02763511940939586,-0.19073353744566515,0.28696618183893596,0.08777627834639652,0.366320159044737,-0.13340452047756168,-0.2962920030764933,-0.37192486209752784,-0.04042727657905123,0.048216138167586214,-0.008452344096708697,-0.013348236078803182,0.206913190275624,-0.1251629393747661,0.1841542604976604,-0.19129823954212677,-0.47799692670748245,-0.23246064067277755,-0.20160869961639483,-0.44225279538331597,0.13080158379338108,-0.46607972573268225,0.02087903595102919,-0.21430775266563254,-0.4301699057060033,-0.4219452485087448,0.27084160701358245,-0.2790608817834705,0.17324466359749902,-0.1472532231627041,0.421437193112716,0.08508098322904864,0.17770132316256676,-0.4555676799116266,-0.1859488451649732,0.0370351750989033,0.14596925016313658,-0.30944582084579014,0.040348999827816964,-0.09469375085539489,0.2319291447309833,-0.0419594008592007,-0.3173790263290972,-0.3666117234280091,0.09540796960048509,0.2682666329405006,-0.07051867228077702,0.24344518227293957,-0.3420368920237686,-0.21052773919700038,-0.25821242937656297,0.21254668539956936,-0.17376836072161192,0.34571952208322476,-0.09363265684679938,0.11747297896207765,0.20518967690992673,-0.36558322521339454,0.4242775451378884,-0.09297324464046966,-0.29336762555181545,-0.011944625099356513,0.12055225124385338,-0.4156842588928867,-0.04877627683700841,0.20221426308203538,-0.07383711138289463,-0.23818291163468175,0.07439487830341238,0.4753491365509446,0.03402970788535124,0.029967670600464222,-0.041007525698853256,-0.0065289403580074306,0.2772729613369863,0.10034111845173894,0.09868795489009995,-0.18262388033861665,0.014601534902370806,-0.20131349333984255,-0.042825618874997466,-0.312326161477043,0.27646223597523334,-0.10500151166518508,0.16861940201844597,0.017694760471436942,-0.36278168230759417,-0.3627068858848281,-0.41317353268348506,-0.03561172047300251,-0.1954568484203334,-0.08791855477702462,0.18333790639601238,-0.31691991552319215,0.021263987742668914,-0.40837084811607444,-0.3117788071192276,0.004955575963820981,-0.21327384601428373,0.02819087267480494,-0.35171494562508954,-0.16133789061823314,-0.13736542537038307,0.133014487432938,-0.40698110416310385,0.23595345752998212,-0.42332923793847915,0.08901074320259776,0.3009326399437721,-0.23603958206525694,-0.1627288515186777,-0.32199701670782227,0.25877978724951034,0.20879580137567835,0.004909468828443153,0.4423615086814717,0.2729108800019272,-0.21224646355180934,-0.14993671875188885,-0.09045068272292114,-0.29147772662870663,-0.027595956190977454,0.10565764016374406,-0.47139971592585017,-0.44203762035670924,-0.043517632998949264,-0.1153627848541281,0.16215239187825395,-0.15044139264284184,-0.1068699215512936,-0.13780497867432132,0.313895866337988,0.015818765615181148,0.45298464541819067,0.2973459125438893,0.17758321207819971,-0.13093414585643154,-0.2764773337161597,0.43136880042593867,-0.410407575353201,0.3392135242973127,0.4033549332492041,0.33374663099662444,-0.10681236075788408,0.02517889226367625,-0.3192615778641416,-0.21524480093337042,0.19765109591617488,-0.026966889661466636,-0.11095475963492116,-0.06394784233437485,0.23529228996265608,0.05298588597166776,0.2507681106292939,-0.23817478714943455,-0.2716247675662514,-0.25846407561257184,0.0547059900200914,0.12066204812967547,-0.3027178300854252,0.3456711049045173,0.46196810002218813,0.356778239783685,0.0916895828402838,-0.24119418034217416,0.16677867644665523,-0.44166956792169765,0.3664335321478341,0.31509165541851064,-0.3369582754524371,-0.07112368167276925,0.03185519186215631,0.17846008342398248,-0.16788186849948686,-0.39760888954352214,0.23319518112166243,-0.005403838711237726,0.11272340347803388,-0.14208512445730853,-0.13320276517116808,-0.4456797213549608,-0.26711793995001615,0.2856898431355046,-0.147143581416145,0.3897256312405446,-0.057452350035386374,0.13561074627407557,0.20626529712603725,0.2125302055586532,0.19165381181886554,-0.2112483082329484,-0.0803656557045996,0.2455162758575116,0.13993716404821116,-0.05269445139255604,-0.04233501087577914,0.00012408116779459856,0.3900825466461739,0.37946187993374947,0.012511402145409627,0.09707823429882792,-0.1788817580743611,0.08418260847956378,0.3554768119162503,0.15908443295204874,0.39934820797714615,-0.20167630254958444,0.06679186471720067,-0.0036406120444965532,0.027758598338909157,0.24132749578996654,-0.26614975138799396,0.0918428322698502,-0.18928818575560896,-0.1802639767408961,-0.012871347157496578,-0.15286448488234863,0.0762735235192984,0.34080828997469287,-0.4004507917802233,-0.4059070356195262,0.04979161993217022,-0.08901460694277477,-0.384875754762643,-0.0536248586561105,-0.18461751794034595,0.34912315085732476,0.10601876090349786,-0.14939591219660917,-0.008123516071649009,0.20304361115748973,0.217273012780324,0.2992973547281409,-0.021056404575974887,0.07191557186125574,0.5673194083324595,-0.007449221470132606,0.0033228232007530647,0.20209136372159175,0.2600377214110904,-0.02786071492780776,-0.2555091085420001,0.23543541189025563,0.22470093627889143,-0.11854645115522497,-0.31465062877359423,0.12245062141553908,0.4015306028205328,-0.06295691485370213,0.19634929950833344,-0.41879672341897795,0.2932524343635766,-0.2989704878188937,-0.21283784904072328,-0.414961327863422,-0.23036161566811417,0.09558783149111091,0.06651693419457512,-0.05146735178772261,0.069431716013303,0.43522843240236714,0.1557970777916566,0.2879757930175178,0.2052217249922519,0.36695529103304775,0.24164309401219022,-0.07511593545610758,0.5553754090024937,0.19590629803728615,0.5733757762653273,0.1908871334343072,0.3126825923689001,0.1517764790031416,0.27990166465082666,-0.08479830659622062,-0.1986628888770437,0.14853610527219682,-0.10627038689777041,-0.1735831866095473,0.3032792550477011,0.4248761933414878,0.08991196478115836,0.14653082358822253,-0.16613360030692711,0.3480558553131602,-0.2937006622074359,-0.25311633955573004,-0.2701645139916542,0.1603745462169082,0.01592011197581829,0.10203294189184842,0.30475445693610864,-0.14265654484552875,0.3799671439778998,-0.12331641311466715,-0.015493217298414652,-0.18765794784898404,-0.2483294279803929,-0.06109326581568192,-0.27621618021081057,-0.030606608366422722,-0.27150016337502725,0.42741022109898447,0.26649375895957755,0.3686348376498733,-0.34177083230455246,0.02103101898736767,-0.05467695703644757,0.20454176678539104,0.4395708660960759,0.27158915388696414,-0.23191168915620902,0.038441513313163415,0.16992838528893398,0.24063361323455368,-0.3001372542590567,-0.45089161309399484,-0.050199917778897124,0.04139935700129012,-0.14973585560913305,-0.06999965666263133,-0.26373569345189285,0.34641724354725667,0.27337660702605526,0.18391066034802359,-0.21566127827087705,-0.12079139906584133,-0.03071226254314814,0.1514317082987793,0.15887320889685877,-0.4304963331246143,0.43815860232214143,0.17011012250039106,0.14795693231256143,-0.32012151247142007,0.37925013765499715],"bias":-0.44380154408794875},
      {"weights":[0.24710155674310733,0.3630015303891787,0.40346837195561214,0.055774133393491236,-0.05048195836936984,-0.2232776614577177,0.23311905687948775,0.13182021242123687,-0.4101579913444951,-0.3827473196680195,0.12579174217307604,0.35630706226088366,-0.1702600756627338,0.34906918060791636,-0.007282497320242532,-0.39557780244977114,0.22655576391964924,-0.403978440563306,0.060276543882352755,0.002067915866288761,0.29148764072483513,-0.2676700412273963,-0.3598831528725367,-0.22076742359447435,-0.22237082009703005,0.011047473936823416,-0.0056602320862835015,-0.3898705102576544,0.21611561889265576,-0.3264259881652097,-0.3723100636621375,-0.22147543474319922,-0.021933490578485138,-0.43955034206055005,0.08511514103740606,-0.07016669423572101,0.02751154961779199,-0.001876861027299563,-0.008469079340932991,0.09002106354430033,-0.25629333232905926,-0.12985903610843424,0.009147766527871894,-0.3862711729325255,0.29811934513301186,-0.31163532430296964,0.08723567500420332,-0.15151772099460695,0.0730584301635813,-0.06418311459632065,-0.3684905016157633,0.1938335333905489,-0.25121994647756335,0.40589715149075817,-0.3380584907536372,-0.43381863115427954,-0.10988476193514683,0.0647297791190124,0.023586535966397103,0.16260446700689016,0.10041986610524642,-0.07469161192123441,0.28364626707830043,0.10999217834861545,0.27669831923761784,-0.28624103705405746,-0.3841328951191967,0.521741725632545,0.2816407543528871,-0.3036948289890445,-0.25527597779699535,0.4114753242034737,-0.17779831351749478,-0.16626954838824143,0.03496415419420517,-0.32734438025705487,0.31288616440727574,0.03548949994735835,-0.3141968335556797,-0.35463828130521974,-0.3269260309486196,0.2512503817266727,0.04037805787462103,-0.1284872072642444,0.23196005807062114,0.40581858872855636,0.1195057099018911,-0.40914305459143413,-0.13276632362032345,0.167488533882857,0.19809890602919983,0.3365858892610791,0.1644845367720395,-0.2359287319731696,0.20422261703159003,-0.04042820844167474,0.5635988819979832,-0.037995649618840374,0.43969926719289676,0.49330719229507997,-0.09169225737614484,0.011552156864492628,0.47759824954691793,0.4654191024835753,-0.3731437652488233,-0.3365160961065894,0.0824224292096926,0.3130259655481393,0.11635399257755229,0.1487449234400499,0.37666759257408977,0.2227152006051389,0.3263657822808376,-0.23585063814645363,-0.2655970622380568,0.23592439032212684,0.08774523761074551,0.3427816308299463,0.06093553983804719,-0.27088985537667515,0.04045382788011438,0.17195091188949344,0.3566383265406035,0.1517111596303762,0.39533988554133864,-0.11849170199530272,-0.025752972183093102,0.013498407051563575,0.21805418656652745,-0.04675839241688078,0.07646374089827464,0.1794735003891264,0.10220466504869115,0.20725722172896704,-0.5380587968464048,0.16262793943910703,0.006660400301315752,0.21276115731476497,-0.19507135091987182,-0.1090502181964458,0.29872430269158196,0.23120814344783222,-0.33174917522073205,-0.10211558354929488,-0.10390853299567275,0.0018352347835675583,-0.27804442275701113,0.002836449329689162,-0.013929461955582792,-0.11918440607119171,-0.26256151638905956,0.5790603414877197,0.046931836241383126,0.11108427156817519,0.16945365394315884,-0.028413943477264853,-0.24664920281454022,0.4779834856123131,0.3091833237606287,-0.0748479285219578,-0.421950475326152,-0.06612528565162948,-0.17280337819576186,-0.4282719329271971,0.010721718870960462,-0.4162773094694951,0.3205263449047022,0.10242232667874349,-0.39775909855827873,-0.29606680974658256,0.09560718710174396,0.30037318997307844,-0.33496072006331346,0.04948357108209696,-0.34193035676203126,0.030387096133380434,-0.00032757164529833443,0.5224649825783454,-0.13445976532132237,-0.20913714234522948,0.3203930920138522,0.3229146931561383,0.3140594310835534,-0.04839180909015067,-0.12888991328982138,0.013101208997157615,-0.2203401894220291,0.18759991703810944,0.07183206114978141,-0.3826745449272223,0.1589642687580246,0.11265026080325162,-0.3052066493631922,-0.24922327596246074,-0.320568595179705,-0.27758162790342766,-0.283287014249224,0.13470356210777784,-0.44692153880539026,-0.17997756514890925,0.21819635709894344,-0.41882716420124244,-0.002103050393453647,-0.05341681009732588,0.2380940082155956,-0.046912636453941135,-0.2108106930854392,0.24267812940550254,-0.43424983526015754,0.021067707913380362,0.04172169520926979,0.33438702180181645,0.22561445118785228,-0.2116822636730041,0.13952197162284477,-0.06777869244362035,0.18407499253119403,0.3578901163149299,-0.07876752795012516,-0.16074359690865825,0.33873862212877126,0.056042875798913136,0.18519891059231017,0.3536494437795407,-0.266292312745839,0.4079914153510317,0.42936861225700773,-0.25199074373288544,-0.3856856317433877,0.08051700028347791,0.11740485908552112,-0.28873661191471556,-0.33733458844704856,-0.053528823925829576,0.27316524812061105,0.18420211881235143,0.22076402021070302,-0.3499244702303831,0.050193421748782156,-0.3656311427355276,-0.15636085625405297,-0.2693801928631057,0.11993067388398897,-0.2537168238374401,0.27576520564775414,-0.15135682869485256,0.481645894426599,-0.2517107075259168,0.08249480162826643,0.07323798104478156,-0.05020547459463785,-0.0742031941092298,-0.1670160761482804,0.22009021411125362,-0.024995478091634625,0.30501842930012846,0.02832675448192791,-0.10710963351657195,0.1969964563151507,0.20470479183686208,0.22503310495374382,0.01622440934528264,-0.10758020998233724,0.09394723939046926,0.0672878991123247,0.09636546391005503,0.0042925615202033494,0.2374488059954162,-0.10714424176409788,0.03471037287571007,0.20045597138154808,-0.007753988439338776,0.03297001416557616,-0.3559006116355918,0.17220342190826518,-0.13480615376618038,0.3248743272195538,-0.22493266129448425,-0.05273614605691479,0.2113534355061784,-0.08116313534661003,-0.2500262051127617,0.08986076963223043,-0.2860194553079056,0.16137607683103866,-0.022125766572573678,-0.3873782776426572,-0.15729204797431667,0.22451466783268387,0.16008408378361388,-0.38540746330281467,0.048275400437280985,-0.09962095109926378,0.40247115158066216,-0.0530441917948307,-0.4503520425523969,-0.43571283343452366,0.10329920450750323,0.043670461811194564,-0.36691959480566605,-0.032543162084990605,0.03092240885017522,0.4967194560067288,0.38384172049018955,0.04667617569953707,0.4135099055622485,0.043901590844757275,-0.31974395982775916,-0.17025305168924118,0.08340980434511862,-0.05676835643693719,-0.03503672879826397,-0.16659067620852827,0.027810491063558387,-0.31881454222379046,-0.07003008280761777,0.22966827498355505,-0.3580439605341207,0.13111828818335375,0.2673534793111429,-0.23508486701824405,0.18859260602275515,0.010035444145436884,-0.0987376204733597,0.10032976216462461,-0.24724953221556464,-0.1561451515255582,-0.16913138767348312,0.2514806430332837,-0.052096898042311365,0.12195089248678248,0.020655838301161297,0.43988928722686277,0.45092608810720114,-0.38127645178070707,0.15631247820062869,0.03884687284723278,0.01261333425505919,0.2845440714817132,0.37067000502866837,0.1562085770615617,0.1849652012505298,0.2991546699812126,-0.0956319269813437,0.014458674864288878,0.16561469419014455,-0.010301724624814053,-0.001707529696242151,0.26288032647004017,0.4375930634484835,-0.3350762398248447,-0.04578705104605251,-0.3296183491527631,-0.37940958793350044,0.1870332895953214,-0.0342007460470947,-0.3272885391140147,-0.400120080644574,0.33177311794821,-0.0204202948376471,0.0074247946286156415,0.3660997323635704,-0.3054220508507651,-0.34269785467067604,0.15070373934031214,-0.3885660116865089,0.42722727837517144,0.3697416793103152,0.03892217495185031,0.07803918135589626,-0.36192677161428566,-0.28886162890236117,-0.17308956441429052,0.27206448913560455,-0.15171033583854474,0.2748064808030191,0.014126068222317564,-0.027563631635236882,-0.057754326567624734,-0.015880556585122475,-0.42187984484943475,-0.3203146487641991,-0.05725224868550161,-0.3401911847002345,0.14444998124766506,-0.30841470715844693,-0.08660413381782159,-0.10469534194603504,-0.040951271024612795,-0.021996778471256872,0.1761043187387639,0.1402270949714279,0.41344387219437784,-0.44889225359314655,0.29267635845361906,0.3930498140349243,-0.3759961712553643,-0.35138754369323316,0.20211038381846164,0.061190341874171106,-0.35746124302755594,0.15579581575855672,0.009703521596504137,-0.2302195583615201,0.11319825544357956,0.17213128116624068,-0.38305770825009067,-0.10937473661177795,0.07324089280456707,-0.26654354980834005,-0.2450734464399315,-0.3949416379663295,-0.21777363968918856,-0.2713735598185365,-0.36561947098507297,0.10823323344598712,0.24354007170184253,0.43435239503475936,0.2810032438223118,0.33549546734219243,0.34821400506188316,-0.13652473882861602,0.2313848779350592,0.17682554515184837,0.3990642506092201,-0.33686825537790527,-0.49124511807269616,-0.23017347163006627,-0.16710484227005049,-0.198074265159858,0.43294550560981826,0.3397976107464056,-0.04271430630181313,0.4096031743705531,0.020187630806947226,-0.47485043187616616,-0.29800201110352703,-0.40522850202651906,0.05814142693577532,-0.1702546905812222,-0.4768148457016679,-0.20380103688084308,0.4642131326138925,0.025531522031843622,-0.25430374050412863,0.44867037547992533,0.3941830178092746,-0.2532164666301873,-0.33878731433690124,-0.0172116068106615,0.18932053275738678,-0.371029779793803,0.22274754296799182,0.16337164631298767,0.40294553231525015,0.1413164528157285,-0.019502443557144606,0.31714240206077043,-0.2849742906485499,-0.10938922086271197,-0.23928126039185507,-0.15485051684040924,-0.31226451589451576,-0.04593649822252639,-0.183300816563578,-0.4342267204570057,-0.37134437142416754,-0.530621002491542,0.06632856998387754,-0.12548432708607862,-0.2857227810557963,-0.27500965280150913,-0.2601135893953584,0.01632960031631255,0.20349129325547216,-0.08220893557115756,0.4192539261708683,-0.07219881665807233,0.08771380922594041,-0.07225278321324995,-0.3179081156384515,0.37104866516863844,0.28224644799850396,0.0027260874089986512,-0.37582808972957127,0.2631676500673578,-0.1686273994261328,-0.019978145438104403,0.17737587074886943,-0.1970242347447668,-0.24651455237171388,-0.3641624626574593,-0.2897755887193717,0.13278742341286015,0.09924134854146813,0.04274880990915825,0.14736102490027045,0.27151706948351456,0.09382116921601664,0.35173073639095875,-0.2090798717400213,0.007437377896954898,-0.24545370710063663,0.09181764860542575,0.31516378925390387,0.39265046422301325,0.03532765622326801,-0.018429829773484,-0.11096012076733448,-0.11584241292949495,0.3762531345877062,0.17874287271829556,0.03855878389627543,0.20042752210140508,0.21832475715695632,-0.3378608205074987,-0.0226106354921111,-0.3835418913061132,0.3398231930585952,-0.039607503622346885,0.09527633854888569,0.37660095532959653,-0.13370917763582177,0.27512631713126523,0.37323255974102015,0.4578819109502639,0.14071140520411823,0.4746040632962906,-0.0075485303237870765,0.27260277221991513,-0.3078096960118879,0.2220088019481083,0.09475923253895838,0.4457778771270079,-0.1629107146285238,0.3134501054473306,0.020000436234616007,0.06076784954915044,0.10343421502879523,0.5612936929232472,0.13432798570688562,0.2839420664597352,0.33347219129629957,0.6109746347892739,0.11809882426350235,-0.00874386074465311,0.04509000513294436,0.27030701143100955,0.022471609955849913,-0.06349087095671535,0.7029968772400921,0.23276433860822032,0.18882053057836085,0.26556586132090537,0.2228254137636025,0.46173502044183795,-0.04978660756795724,-0.17031310366125416,-0.2770429594158419,0.23270555106421897,0.2890849269315336,0.1316136563669639,-0.09513272977027519,0.09186429400247587,0.02371674872092383,0.013147708821984546,0.5117662450730885,0.4542443973490213,0.20672360367106912,-0.13571711521692298,0.48236899960473756,0.18799309955384103,0.49734780991873967,0.48334299615150533,-0.11859157353274367,0.17694103980746698,0.2180361856639182,0.18370607197281932,-0.011851631726935954,0.3516000581888974,0.015106812296432503,0.1671528813836489,-0.09715374829939466,-0.06424473464575345,-0.1327561431702866,0.27635551562146904,-0.41100982555122195,0.39313889057254203,0.056989196583637415,0.07096104723493002,0.3991088515762147,-0.08692018092574016,0.4625052008957718,0.31132437955717607,-0.037500343441053616,0.4015986642286248,0.1990451348217656,0.3139674859325931,0.016274452320665208,0.36746507677306794,0.008319107371892804,0.2094619996409742,0.43242630824094286,0.18169386039790425,0.24747980332990813,0.5598191841178115,0.05170526665704004,-0.06919664480837755,0.494095827194738,0.32756563242339826,0.2859901115209202,0.09015513799586039,0.4175077004886333,-0.3244617686496414,-0.3183332025527045,0.3827845130273405,0.18817931518731265,0.07258256345325474,0.1860844567048267,0.08543754896462794,0.025980860643915867,-0.11199936264907603,0.27920456958280365,0.22378367494785478,0.19178184217234792,0.3458702807011224,0.13288247160469596,0.03253203596680963,0.23474990878636212,0.08880534953909443,0.13003579922954697,-0.27323364212426476,0.4648569809307059,0.2590476615466328,0.025116919360135433,0.4127398219839625,-0.08578159378976616,0.24541447127197016,-0.1364850057261286,0.4262732035164403,0.4233962548721714,0.01628864749984551,-0.09964220701194673,0.2923325871432496,-0.4402914076248793,0.44686375512499893,-0.12752665218263223,-0.11221818400011546,0.014462725883861506,-0.029284348541055716,-0.049954553610592256,-0.027647267145117498,-0.3937363758267474,0.017816934466956865,-0.18550306637863784,0.3862782996313203,-0.05261971455810834,0.5257813990899713,0.02340194965825561,0.28751777552327723,0.20265687571385313,-0.09296463927859638,0.21832421657909454,0.26621243863299354,-0.010807114764941252,0.4447241393276679,-0.3400656188016379,0.23925451248376262,-0.345030782256388,-0.10602229408846904,0.36638556083623236,0.15738077530849495,0.17735587936423966,-0.29402042906338366,0.30270916329332814,0.4358986581587395,-0.20055211342035947,0.12500763705494683,-0.11279005613008512,-0.21100364827860413,0.09502592457107985,0.2988314605977227,0.3090549922334305,0.030419165129853497,0.38868053528656393,0.09634596943705408,0.10289046237737577,0.19614054202438125,0.05069904870839317,-0.04648922413247061,0.014801564438896055,0.053754402805532925,-0.4254460004339342,-0.37169300779142267,0.29388058563189146,-0.2253078879238684,-0.14945307181074025,0.20907349790916332,-0.027451244500660398,-0.265106387505564,-0.140253886433586,-0.43368857124099525,0.1264726327645042,-0.3711878810944755,-0.14926094151358166,0.40630332574906197,0.3275286549000451,-0.309561537264342,-0.16190347388715748,-0.049840585533976786,-0.35693257533537265,-0.30694362398342345,0.005814242911083753,-0.10842058100530713,-0.23850302127561795,-0.3161796442887942,-0.22337239938155504,-0.43629723102138807,0.10644407543215434,0.16167749173945337,-0.13414941759310003,0.335656890475051,-0.1553359942298439,-0.03360965356952994,-0.4081998628132144,-0.44135017628249207,0.32365694610970924,0.21549536206853545,-0.04525174985704015,-0.15440722036873514,-0.44058593308760097,-0.2004831997198944,0.2925061501561567,0.17050553927947568,-0.28979544276948144,0.17689279427389337,0.1524755280182921,-0.243597029328024,-0.3345143019903486,-0.2290176528334169,-0.2660599170954295,0.006406753780622803,0.15381173459453643,-0.3997472173663374,-0.09283323851388121,0.13553455826635938,-0.4760399249917658,-0.31856001912623233,-0.13225286633067618,-0.2144191648693725,0.2145707588720145,-0.2244616496076093,-0.2053949555624656,0.3883664264732674,-0.3616706567441297,-0.3007819404291208,-0.2448814327028476,-0.2811518909402686,0.09208462818356582,0.4242874487197312,-0.06716197283872131,-0.4030865158727871,0.078642040188371,0.44139357853321415,0.014546153704749841,0.36794990857857,0.3553841359728236,-0.11310534647113883,-0.17036203064778369,-0.18644710292330943,-0.33919338152306294,0.33827888177762644,-0.29014449757803,0.1294019694765912,-0.16024050465252843,-0.3404132530086704,-0.38172848323782543,-0.21309821724671268,-0.1707017762503307,0.37980988622192813,-0.014354789533583923,0.26349595151388666,0.41720713743575827,0.39954333772077844],"bias":-0.3853663165903785},
      {"weights":[0.23418231308048673,0.002185353198045037,-0.10573394074370378,0.3701764965874795,-0.21876535748588652,-0.12205890815401825,-0.2903234000765765,-0.16197359924527407,-0.22403877797681818,0.2617767524961229,0.25903747183288955,-0.16401611729720392,0.26134478140407935,-0.032032010891353234,0.22443330645835077,-0.21312157501398254,-0.009294602438581157,-0.18352453467457308,0.30486902886926476,0.3999421348788561,-0.08484762248674235,-0.1570703097251915,0.24245049677751185,-0.18015467612962496,0.41782805545787705,-0.43956634518352716,-0.17324114083854716,-0.4316797875713668,-0.27238546275357234,-0.039548186107286575,0.16361925346439823,-0.07717795521472563,0.1899231632149431,0.43148515746380595,-0.3844705758267288,-0.411936828996836,-0.4110446053762106,0.020677430831419787,-0.2908136967461982,-0.41345864068498855,0.3081288755161713,-0.27940552189584444,0.15590008713791095,-0.130624027417755,0.4481954265503141,0.1372798556728444,0.33773263886041854,-0.37208493368201173,0.31218393090660246,0.07899879183425282,0.12572064823690363,-0.3139400832767897,-0.10915177822056184,0.17688417856770497,-0.0029656492849150728,0.24190306142757736,0.09472336921117838,0.29061029532199284,-0.4059917397544019,-0.4357927797633276,-0.22808427920829102,0.3047199894790902,-0.09750916433156664,0.2622017348737747,0.2744604614643951,0.043398084537835425,0.24211520404315084,0.1852995723846798,-0.0624193219914848,0.3843877716963374,-0.33069458618744535,0.3630872051514018,0.3946097833877858,0.08224027566880816,-0.23917759608707717,-0.18315790139434962,-0.39005687591860344,0.1243665970699408,-0.09335863192315642,0.29282240518254327,-0.36647970968189003,-0.16804279417688953,0.010728933745393243,0.05304141594949801,-0.32459535366255965,-0.08051533985100894,-0.23626775066060515,-0.29271838065812095,0.09208050182369551,-0.22953471723447558,-0.10311467659635694,-0.3246758575159186,0.31977243722762894,-0.398640885191074,0.23837668280504232,-0.07209579939329015,0.16840005212271011,0.14755229971144024,-0.01633862097480143,-0.3201884613487553,0.0835295582729528,-0.26105641587007866,0.4297683436399492,-0.28346023888790717,0.1675847427345969,0.4130976508447714,0.07238740687162747,-0.09139273864561455,0.13039942816821576,-0.20369302201182943,-0.29689785891250453,-0.02724563575470691,-0.4027101441443525,0.27616912822771866,-0.25775312717077986,0.44793505075458995,-0.40964473148558594,0.10340341228459808,-0.17186576760232436,-0.13985813076791417,0.2698850103598499,-0.08837284781993074,-0.31681551464310925,-0.20133373621636833,-0.08119357525719316,0.12659529548213005,0.044558923188187986,-0.37614749497058353,-0.026039165139698367,0.14814824879820368,0.05273077992728633,0.3964572435699831,0.12826359249456454,0.38149010525911814,0.2908617525880113,0.4518180492478603,0.22769074148227705,0.13497178471376656,0.2170027276597124,0.2889636921716326,0.01673002968687545,0.3311346459719574,-0.3132260906365188,-0.38262272881390424,0.2577471173894327,-0.13943018976189295,-0.30704760304599293,0.3473941741192065,-0.2359010787949968,0.25981332266735163,-0.11620191093076818,0.048875607643518414,-0.13638700159325512,-0.40018971800614267,-0.0831279417413638,-0.07473297184234894,-0.030163306767712776,-0.3307750780324505,0.10077300483983563,-0.35741574062822085,-0.2880573307473499,0.1059891375470757,0.33153114233868797,0.34315075782537824,-0.18330007672889992,-0.4159176831840106,0.20291466065614255,0.04864370175876213,-0.17147558263095525,-0.13427421869566183,-0.37165465775417905,-0.32081634914329693,0.17908695387359264,-0.18881079508359888,0.20814618469904023,-0.13283199568984505,-0.08457130357693972,0.1751364527234693,-0.3131030761893091,-0.4273582276224723,0.08680769373024456,-0.4316685112538545,-0.253283007495335,0.004647337212613999,-0.2539875334402099,-0.09992247257868192,0.05280766983413037,0.054683680711258294,0.2642433779162977,-0.28264999451536066,0.008346635404876067,0.0107150478703961,-0.3982656482774238,-0.26165108102997675,0.23797529795967937,0.16460057924898325,-0.2689762392238418,-0.17469147703340673,0.3122479020612291,-0.38285412398398017,-0.04113766977997929,-0.23333369855745054,-0.04462448568463189,0.3246203654674723,-0.29619602541056655,-0.25580159294622823,-0.41565966125077297,-0.02028672592212891,0.09852131654110292,-0.40454908825642183,-0.2753370744139431,0.06574344484472748,-0.3854399736678475,-0.13088948681222112,-0.29572484408793503,-0.2239990308345187,0.02889375073167153,-0.017373912827759033,-0.1044018934092908,0.4047503304127343,0.1445811425999566,0.33500958405378967,0.2871348713778733,0.3637803321236233,0.2455839939724384,-0.08906727623029997,0.3153474720519258,0.293454162677064,0.1141416502534958,-0.39324306347240223,-0.25053383848826444,0.3183161833999003,0.06426092413283033,0.04234710310081419,0.22816902267384223,-0.48902820761787874,-0.07847751572472708,0.20883031499415122,-0.10169961178444377,-0.47793245245006105,-0.082790066741679,-0.17323112506604488,0.2875737926962718,0.31975133793466926,0.19069324517360212,-0.24696430284468915,0.33931026416389387,0.27949459819992534,-0.00048597018475036953,0.009430226810370632,0.42103413427111935,0.3514813001607557,0.07213211799268832,0.21438821366839408,-0.1312665783173907,0.02926475714387811,0.2606556963538646,-0.32760217019417653,0.39369158560033696,-0.15028544721085899,0.2755403232555903,-0.023063978484192168,-0.1700317779942107,0.258055641816263,-0.20079138524229032,-0.13425446538692717,0.09990338734273933,-0.20556459989737141,-0.0442508947404881,-0.23261532647106214,-0.19016507629279503,0.06044525259082616,-0.4018356072244256,0.1726177803151282,-0.042401884517454254,-0.3214074044629423,0.2667881383270178,-0.23908556593948876,0.2406032476083945,0.2125731854418408,0.1693323605221095,-0.003452662673779603,-0.420491502571028,0.10253855157054412,-0.01658152093182803,-0.047862958997682614,0.2891926744163612,-0.1088282910953851,-0.1280393363975129,0.06713487407966194,-0.21770444953312015,0.3937769105629999,0.2970646275147647,0.0008231062446961052,0.41372162777861343,0.28007364012686875,-0.045526610149608085,0.2062021114154044,-0.09077311623430065,0.15828391523524302,-0.03650776439038719,0.14128706389631418,0.09740522167906795,0.16121659433347718,0.014445601174980059,-0.32484241736893116,-0.18950992234616193,0.0943469116858263,-0.28957916628044755,0.09463724048932742,0.36351850140136005,0.2285184640597474,-0.13443263456608606,-0.04489033270987807,0.4733209232906727,0.5022029614329275,0.35786898231627323,0.6568382041936389,0.5696953335596798,-0.012124775812226546,0.7104657912832697,0.2898165622312653,0.24830348826789778,0.18314835579544936,0.15035024094801663,-0.19252773623449626,-0.005141093404385103,-0.05363740796051999,-0.041080839104051796,0.07357789801193435,0.12759505567083948,0.3139209605172308,-0.3640233071048273,-0.24538465547001034,0.40866204970354614,0.20867366938117468,-0.32572767564087807,0.28511974098766024,0.17582352771391938,0.002680678637507453,-0.3239794897121393,0.13882209642453883,0.6269003975163315,0.7248040399622206,0.09857809140298344,0.010426528515879848,0.26266189695161113,0.3320339070791736,0.23984881961836593,0.547594773412158,0.38375918602106734,0.3663388449111962,-0.1014009304126248,-0.2241069463651161,-0.006893387706731503,0.3295646177329486,-0.1294888679672585,0.3092716196318749,0.07825555289224445,-0.04847692700299336,-0.44366550369699675,-0.0408853325629011,-0.4184276273180965,0.10663745121149873,0.15929012828862302,-0.38481198631043084,-0.4426686994174701,-0.19930580937197775,-0.27789115323667746,0.07431112074371067,-0.23308168614788538,0.1366001910017348,0.20949380364730677,-0.016954121341706662,0.5788690965831261,0.3552041723987888,0.07525794385935883,-0.16489405837033852,0.2638652673417858,0.11772561774040126,0.029193983003364826,0.48196588504980487,0.2953962862273768,0.12822409596652892,-0.030823093111011203,0.3870857751387281,0.3264765950797036,0.3522486419726316,-0.4043631312699615,0.14072947842829164,0.3455811662016303,-0.2515894968362229,-0.2164313793268097,-0.35132571751516223,-0.289063662067013,-0.3485294239953159,-0.18527557836977546,0.04621166919326933,0.4745102085469393,0.035834126006166596,-0.11171474758761377,0.39130867550508663,-0.23410030058197678,0.4012084625844989,0.22659625207843714,0.36638734901866504,0.2672657040889524,0.017840911289075473,-0.057364546073580255,-0.045495517561288515,0.13017030798180537,0.02488466543747969,0.5831483883632156,0.020195285176389254,-0.14338632299337387,0.18540027507600113,0.09940744593035786,-0.22775081910823836,-0.1725937432990295,-0.24888837705228772,-0.2361594576151918,0.2928236712286758,-0.19936468678239636,0.3477083392199125,-0.03827441399499357,-0.3465238120104271,-0.32470327067240046,0.3295607321971949,0.19496396955001524,0.28717483218154444,-0.09343145212260157,-0.371583608819275,-0.43222496422299533,0.014200333566464315,0.35816956583058507,0.06569463370627167,0.5494756619026228,0.09228052852962482,-0.04701890805592538,-0.0019021245968696228,0.04837817770139368,0.28944742273981566,0.37685443088094167,0.5111072166360182,-0.3523996635047068,-0.013161237257121624,0.3100406708975565,-0.3612380189475605,-0.31737186979201587,0.016599362525943174,0.047486796383853044,-0.23866815932868976,-0.23844135441706465,0.2400898434160514,-0.05925849880553784,-0.3537914709443725,0.11157054955130323,-0.47348061207542974,0.18010845241936446,0.07969206978000107,-0.3683881552206307,-0.35174010821312185,0.2453413232341648,-0.28333253161317806,0.005686444779145753,-0.25991912034487313,-0.004404009860181605,-0.10009028503553992,-0.07456031579268943,0.16903798363562844,0.33796243255942465,-0.4042827962520743,-0.4798977115179541,0.09398386606778496,0.03295020956019983,-0.03781150002425735,-0.43197640734912185,-0.06913093302274302,-0.2705273903703222,0.2331905562870326,0.14239230249527868,-0.2314179952127491,-0.4312093910315883,-0.057492016716312176,-0.1649476278247921,0.4247439681384592,-0.3354180543507262,0.22567250864845137,-0.1736496926449004,-0.08048075442896055,0.11825093862546868,-0.2769907165320936,-0.3847096205429081,0.16732164633181196,0.30365813504285105,0.15021564509581997,0.17246015299541054,0.03061727821336887,-0.23283169274806056,-0.4168772474586062,0.12030826506838233,0.13599524493670465,0.12354599942742434,0.21275898430489398,-0.4202812355646795,0.15210212507888018,0.024553031071731016,0.3540956022658573,0.23267159332002904,-0.0875585485595137,-0.1612734329225856,0.12892687007605905,-0.12145086332244626,0.05994581471496443,0.113118919814107,0.058645422051166206,-0.17441077161533214,0.014321913494591079,-0.2863919108215344,0.01552792273548704,-0.28594042979105444,-0.06332834592430579,-0.2315590852928546,-0.020863196061985438,-0.17651032648950998,-0.1881443204081292,0.1929286247041837,-0.07538831102886423,0.19235567611422563,0.10902480423377667,0.22834297677330925,0.0032043047333228914,0.05944503841274933,0.12988302512869793,0.3459802505474667,-0.14243261004486216,0.09010527701647826,-0.4358543062742406,-0.389053934338623,-0.25297075891861764,-0.1913772831115886,0.21889974056453215,-0.22014330264210338,0.06272691825035524,-0.32591051830205986,0.09999164927183381,-0.09737655091984468,-0.07470512366806592,0.44323676506937665,-0.00958877597548288,-0.09043602895093052,-0.187835983437896,0.1526372125236111,-0.3369940616381303,-0.47412986227453063,0.0826640920618019,-0.3044901137475858,-0.21725502693538215,0.13717617158148301,-0.3792381968845341,-0.01825067254689493,-0.16168553885335332,-0.15318961849010626,0.25404638836520654,-0.3652073497245941,-0.02413826245459836,0.08754110901734478,0.1111948962255497,-0.046272312297443885,-0.2275874238366606,0.15101811620334962,0.13990974779008084,0.33739018886524874,0.26682838834467937,-0.12599327120164458,0.03680719232755567,0.35025205495846806,0.012916861352292773,-0.07806603456491853,0.1136247408364014,-0.10675953561756636,-0.2800099528048056,-0.04982847113336794,-0.2698696231311693,-0.2565480584672387,0.032925447749878385,0.37431933164322295,0.07979694874301053,0.08018936055216938,-0.028125211448077846,0.3393044553377984,-0.14116778030561078,0.18746657792114044,0.2969456510668616,-0.3023286836401959,-0.19899567013135877,-0.017344457303238758,0.2496580315070439,0.2167187284635661,-0.13406609076385642,0.37516077382578206,-0.19581621181924683,0.38721911502064776,0.07559695320644665,-0.5317462888735002,0.13617503518939808,-0.10044531208315467,0.05336347362138227,-0.43804258048413913,0.10209217428132156,-0.2288171949488393,-0.20038484689710648,0.19903432316785497,-0.24104634196011757,-0.3088478633904133,0.08808150526888603,0.012633110127903824,0.2577392577040365,-0.2504438256556975,-0.07644455655062116,-0.3537348000964367,-0.15982235547092222,0.49097264960771125,0.1866445512612611,-0.18187101151374868,-0.2684914333836318,-0.27527899787197846,-0.03680624194957551,0.19037553322132125,0.21675370157867282,0.2467570755240677,0.083672509315251,0.2735936507879426,-0.36223651309194105,-0.3237536775723014,0.4162084378477637,0.07137046738947925,-0.2958184745211302,-0.17105618445604345,0.1768050030905182,-0.0011257675831101294,-0.022719637289117547,-0.059752630588099494,-0.14320758451798435,-0.3134696699173028,-0.2140929682982117,0.19204577355082877,-0.0933549432525523,-0.1080867966939382,-0.19941848204666604,-0.3031475907256423,0.10768206387440184,0.11153919783713179,-0.010574613225843793,0.17906453226411823,0.2001520961148444,-0.21979790856906437,0.13126238683136524,-0.1152843542515826,0.503272664439459,-0.2009888459254756,0.5172286392710355,-0.0355488325319965,-0.36878948438900927,0.17806556583632713,-0.10037192882939655,0.2654952204315335,0.006399264549648684,-0.09214317250963312,0.11420053276850461,0.40040869246545613,-0.04208037215654078,0.32218961292063797,0.3620289687069945,-0.21763423405594493,0.3681666556536036,0.010693472894585321,0.20603190210377817,-0.2103229165754461,-0.10353660600205344,0.030930592584762478,-0.09519561734761683,-0.009679394596792387,0.3119219105716736,-0.13895762760079125,-0.29898413017105174,-0.04887884047166544,0.17812876908279945,0.18310202951371493,0.34849219318503233,0.09376611494417086,0.19105195369744726,0.19704159069705798,0.13050907510530957,-0.0009496564356669283,-0.2697011185527619,-0.21091522969014273,0.38886907413684957,0.24348320198630358,-0.19040380576777927,0.052543370342183815,-0.2468236038799799,-0.047482239066633306,0.4486311473318762,-0.37483256410000926,-0.389250486867816,0.317462115812532,-0.42169116011080326,-0.45551500077799517,-0.20923885157977387,-0.3633913063831751,0.07377984311856414,0.20529380329015787,0.10193663944395416,-0.2046545255157151,0.2178279764102742,-0.4227061154270204,0.1901355050465753,-0.16417468647238154,0.4656159603074633,-0.3059461475169655,0.24006273375078663,-0.20023221625721616,0.42531816824644075,0.0737980461924061,0.12421568500585116,-0.32410562925418773,0.41409516030480104,-0.30330827147017936,0.0555851909051942,-0.09048911180170419,-0.23090089109966655,0.4268112583561046,-0.44989079471521165,-0.2526723544707036,0.11480667977918572,-0.21172154027568932,0.16682419606246662,-0.07757280350748114,0.1893927232856447,-0.4684408432915223,0.38569432408716503,-0.06023916722463993,-0.36790610656306727,0.06952035326000293,0.07410636725441794,0.22722584198557771,0.3984764579140543,-0.3678631704549038,-0.17789434003136112,-0.21304989775984584,-0.17732345214242085,0.1229656391173481,-0.1419741753835789,0.18158791068474878,-0.34040167148821604,-0.06856860669992726,0.2376941977730096,0.09586837474777217,-0.14846574322684966,-0.09136379380217981,-0.41867816400344887,0.3176816455076978,0.12353914646640733,-0.03197305385352234,0.1550055241132119,0.38109981538889476,-0.23845559108271788,-0.2004816740473866,-0.17842279855374893,-0.42610868141538116,0.0923706833624893,-0.3581197537930556,0.039384269853488856,0.37266840889810676,0.4256473936770693,0.03597904545592269,-0.1058392910103262,-0.10487816064027491,-0.009959744700281038,0.039977605309665,0.11776093107854825,0.27196596449664656,0.09967513004190107],"bias":0.17327958481516348},
      {"weights":[-0.21376006101599296,-0.05377426429404771,-0.2205662163902136,-0.15108591139278243,0.3628878463440805,0.24327051169949945,0.4307825590517569,0.1504768196114727,0.30622590231342156,0.10620906767537985,0.44360695029543584,-0.3584122288595262,-0.0458891841443931,-0.05871544527064792,-0.4038343352089239,-0.4478329223000646,0.23080144948351236,0.07737271960725826,-0.20861845320037462,0.17694634447563226,-0.031041171792015033,-0.11804287826717752,-0.1399306069617782,0.30916254379463626,0.4377230013083772,0.37128141876742854,-0.3116613574580637,0.3788689246919904,-0.10743997089525902,0.3411435239346209,-0.11745896665429961,0.08309596937644043,-0.15218182840328573,-0.1757044329753796,0.038710822662458115,-0.3400920545760019,-0.26005402097299224,0.04543376211925113,0.2708212076543186,0.03785814131284256,-0.1433460791562785,0.35175403452761184,-0.025693807899408123,0.30931397739483996,-0.20284841493050235,-0.03273286286607141,0.005795384978108467,0.06171921421938141,0.386260584872318,0.0025873711447355063,-0.23772010109888636,-0.282916116545231,0.0042675019451747015,0.12487539691961182,-0.322783936676753,-0.05652948631892266,0.23224587836460966,-0.15285060693008914,0.4472038361773717,0.09852619592630037,-0.01645421628643784,-0.2710571677656373,-0.18370705369655002,-0.15409892094364486,0.1361865753014952,0.02670367968509936,0.41981939061035883,-0.06834100383638926,-0.4770855595751273,-0.09873386786989838,-0.03667085769988992,-0.43602752282215657,-0.06888702435353793,0.3330907668128594,0.22151146140202582,0.22204111116021535,0.36469716681398995,-0.18404933023456974,0.37662123666231423,0.029234312433104027,-0.3113661098331309,-0.18116397332404696,-0.424458967543489,-0.14455596432500503,0.4435859163388872,0.34958999171855554,-0.23675896392219517,-0.01741350951572688,0.23829327666710579,-0.011487142148020513,-0.24123102206084834,0.44286981816042925,0.251100147058902,0.23659204470752254,0.2798835719516094,-0.18133118834768386,0.2143352140679733,-0.16537774482166193,0.04573825575329235,0.06682749448593023,-0.3636502027176209,-0.08536893850394674,-0.13447068355875297,0.06108137490993589,0.24326429998507373,-0.2642438434066654,-0.004552406383970297,-0.3614796396253923,-0.30507180107663157,0.15643511713630542,0.2794687384827963,-0.14824884168183522,-0.0034930126852629416,0.019857903723324466,-0.20216990216941,0.32541075930991914,-0.09148337672705166,0.40855622199946223,-0.016686918410673494,0.2505816511427738,-0.3418195810535208,-0.22293163510818229,0.45634988854852565,-0.17025457359750715,0.534026902485805,0.16602283512203173,0.19206585233434822,-0.16759015750229223,0.11013106181975048,0.0036052159584864197,-0.2767498268645187,-0.06559368853627728,0.1972083327409981,-0.2595763931786743,0.13453824523493962,-0.12684565866672254,0.08591456542799704,0.062392297937750134,0.07421969739704515,0.30532214642575944,0.05930925415876,-0.05763738280631947,-0.05068536281549992,-0.1422950265545657,0.4015042497486955,0.1009125919446788,0.48311397127695777,0.44738366621442466,0.23208051837735433,0.11874675732235061,0.29230678319095027,0.3092836566297297,-0.12403192738517249,0.18736756719768843,-0.1571915114410343,0.269084909035142,0.16898182371504986,-0.009290237283778802,-0.4245891691397485,0.1558709359132482,-0.012660541574763455,-0.17628888781253252,-0.4345037310580972,-0.1193720102563635,-0.2709136589216628,0.06701261766724474,-0.04690579868736594,-0.0340422330487399,-0.3815486481040769,0.4331663879244745,-0.33688624366282516,0.04048561859854055,0.15449790789190523,0.1404773105024354,0.1324960961856872,0.20519669548535005,0.07058434526695505,-0.4214595779703989,-0.03390547528184452,-0.08190515126280674,0.2966833478661564,0.3254313974387993,0.11237659594347828,-0.25828084441231963,-0.30047516738251817,0.1298559753386173,-0.08391308005465736,0.11650415879865177,0.12546384300966879,-0.08211125085733835,-0.3659750234145784,-0.1418216534444857,-0.10426224596083684,-0.20719860769929532,-0.016176126984612776,0.20775742220123136,0.13549419056062653,0.30666264795414955,0.0482327024999545,0.275512821178997,0.1832371426687358,-0.06498996956896275,0.43512305422774766,0.30428188805836937,0.1806856296842068,0.10001733419370067,0.2882018082334992,-0.4237399440498768,0.011922802267823229,-0.00930845737706986,-0.03417501304254546,0.18336950074101102,-0.1434725918756585,-0.07678831368892378,-0.42683686165075185,0.277924549067269,-0.4012868502508174,0.15555894415665214,-0.4711434995487972,-0.11085072746217099,-0.49283097858014485,-0.12603236563724096,0.09594679661387767,0.21891034428749453,0.1783861352711042,-0.07755211376709825,0.003706103223648814,-0.3220906307323203,0.19737921845649892,0.2914563125243232,0.45657238233897857,-0.27914620562851405,-0.10638169985897321,-0.13372486086561766,-0.15842587767707125,0.07854935697360899,0.0656170905861236,-0.11352155865409737,0.25390006070976817,0.21618857926721252,-0.02108456817272099,-0.16968322650939208,-0.028713180180354545,0.1119782732490075,-0.4429281220826849,0.19978569203947003,-0.4620939131959362,-0.11169906855156518,-0.544971933353326,0.335358585589484,0.31913141148750646,0.10082162624131737,-0.14513257875453922,0.10601598011961133,-0.05980539922479592,-0.2908505282052845,0.4734700896698585,0.20555221419687897,-0.3683922930348109,0.2868844211491926,0.18149408842637282,-0.027812841381908995,-0.19280833537104475,-0.22077937320081015,-0.2055822457981757,0.11480380495903524,0.02191341616455669,0.26616167494150145,0.4009942022112411,0.4583343547137342,0.36220888068030244,0.05610078688112327,0.3008360685292456,-0.07062291968518236,-0.4150201816983078,0.14509527756864798,-0.19264770535704767,-0.4702736034707784,-0.12024961112486593,-0.3820179863616375,0.386250699797726,-0.07284509260211436,-0.14590365467205638,-0.11048986841573434,-0.11867309018278639,0.16874459200319078,0.09889689613300773,-0.24394331722240375,-0.500512455290734,0.0755014100104972,0.14305049710020873,-0.5748131472313616,-0.30916189735510813,-0.1509331613367547,0.37180428300631047,0.2662211725017198,0.2811159765409037,0.02742779771579933,0.5940326369003103,0.36474589744844965,0.2774008275562374,0.487082543337963,0.3802496783503919,-0.3062411010771832,-0.08595903248649708,0.31651576129544434,-0.3649274357987726,0.06403914616335257,-0.2927677458106043,0.24069481614896962,-0.2549723089409739,0.2611595717620794,-0.1369224564462785,-0.19594313636740104,0.050691413819452774,-0.1660055441474731,0.2426167349572823,-0.5153745012075929,-0.2423573115478968,0.15535281034481657,0.17698880484557478,-0.5325649718259894,0.27131125997569583,0.48008713982906426,0.3765526109425576,0.09488066429554906,0.4353518821714906,0.11578772378797053,0.60407893444894,0.6352876324218096,0.03827574983748109,-0.2425940227810004,0.012547125190564489,0.11902995999282709,-0.046328095921944465,-0.22486643222424746,0.3777774266808516,0.18758266523587677,-0.04452002542330146,0.1755938678967624,-0.14049459478022006,0.38809099163585475,-0.0012838804990595765,-0.1971215119365135,-0.10321413575574888,-0.46534898955431225,0.07189398597697795,-0.2590711753580492,-0.4302845933592519,-0.031462937441927054,-0.13153391486127616,0.35180585431149153,0.3360382840402084,0.16366608934495785,0.040012529686433235,0.10421202481988441,0.5279228844289084,0.14682648677463409,-0.037199505484868035,0.4874891499622612,-0.37457167055441165,0.3839861565161693,0.23310294557388275,0.4376746931368698,0.24955861982384328,-0.12180460544877486,0.11071140170665925,0.3250776429961136,0.2528999459846844,0.31043020334925203,-0.28653770840432996,-0.5180186560498213,0.04711672579493331,0.046718672473623664,0.30540457306237156,-0.3729319071872326,0.25489989486180303,0.1338397812250992,0.34834663645450126,-0.18459363444317747,-0.14106957889585048,0.42745868466442477,0.08619200326865108,0.16829684920383017,0.4532518043682514,0.06187321998469115,-0.07873270897051783,0.17678541226922148,-0.0038030062996518323,0.08805502275609417,-0.42407705705216386,0.2837083934532259,-0.3717047514117243,0.12251121344436643,-0.4286555751353262,-0.2966571874367246,0.07079186913665446,0.13601277887364382,0.02751458988077952,0.21818217054179237,0.26730151550630504,-0.4621057921119835,0.12654473082531062,-0.38242252658213527,0.11674748333644945,0.19363184889184057,0.22459132822961422,-0.23332369111455797,0.31934154514272883,0.410938025714886,0.10061341979516777,-0.09295809775217087,-0.1669996662257718,-0.5784820877564115,-0.3716194616603308,-0.45584697969914323,0.43534903785113716,0.28240285220596756,-0.04812395580171506,0.38243047595399043,0.02005576771173887,0.41876621794579333,-0.33411792844307436,-0.35244491319528226,0.20827663372002383,-0.12959507449856497,0.004851608839426922,0.29862787786939965,-0.31291881447662506,-0.27977939026798365,0.04847395059660599,0.1486985953789716,-0.24071547480629707,0.3693546793110287,0.3400419905066338,0.2405688531250044,0.1693509526697536,0.3368013762234654,0.0995793608841007,-0.2697562879137397,-0.47122265299461263,-0.02308043869797337,0.16850203793021698,-0.20421650873331448,0.265188314570397,-0.4058152956598565,0.4481511758114818,0.021740321308807282,-0.29207494880974905,-0.22877283845143248,-0.2359869538043377,-0.27791234773570495,-0.05754288821744599,-0.11511651267246123,0.3406526278875425,0.03505315977069029,0.1349345688677537,0.4433679689987292,-0.19297882969330357,-0.08370323685840475,0.10560407933703637,0.3139029116759288,0.29744768487913814,0.096075249356497,0.1738254112482851,-0.11439881444906558,-0.2895319364010724,0.21188292731211583,0.11462882429790573,-0.04641611974554649,0.21961758781868923,0.4120199339764891,-0.23728240792907732,0.19414506750203062,-0.2892364636531518,-0.3012800757472559,-0.22916220122264555,-0.01975586795654446,0.29396012027058754,-0.11404175230102354,0.47698151730211696,-0.38932960045198245,-0.1818722654784715,-0.08573029379304045,0.46152276917973906,-0.030415215412435824,-0.10379509802669713,0.36800784896614647,0.015966212679155007,0.5429296575110096,-0.056891685393770215,0.10843933078356734,-0.24208672354560218,-0.10778083177669358,0.01369433971578316,0.1228726064666742,-0.3658592750368073,0.10177091450171871,-0.05262005403253824,0.2592470322866417,-0.33447209849593496,0.22278044768969293,-0.3240184375371771,0.3672873458508959,0.436280440040922,0.12230360020947453,-0.2493256766823027,-0.23513204079674221,-0.30077285890222305,0.40495426361138664,-0.21482509073615288,-0.19643885098679903,0.13638393751392117,0.27434170012831616,0.005394947424121974,0.3585537356951042,0.0606684411444367,0.23562525744816823,0.27755611369824623,-0.1143568614693021,0.396244649183562,-0.1648732734601455,-0.05545810744130817,-0.053449718717617854,0.17751927392459962,-0.27666039726730024,-0.33720595119355723,-0.3619940605750978,-0.237759165298925,0.39860146961568427,-0.16168305563641214,0.3233750837714767,-0.1221133352418746,-0.426109429582967,-0.10547840366901468,0.07517414123259643,0.07672153733348061,-0.04055082395351633,-0.29816210344881316,0.133014465254965,-0.47321402740157575,0.24883152458852859,0.14005915850425524,-0.02210970371472404,-0.00390242350060202,0.07985312929565254,-0.47285151349723037,-0.0034522890239450633,-0.34692294872587937,0.3179708702573566,0.3153230491634714,-0.24751035384609574,-0.28905615362785114,0.020739415548812427,0.1838511077852796,-0.043951304384496626,0.3184841770769945,0.17501181098925395,-0.29282914469865184,-0.11995531287299255,-0.152484930680885,0.36489739639193414,-0.3369573429335548,0.41912120672063796,-0.3450972569506649,0.3235897110879046,0.10120638682289132,0.11359341156127577,-0.05837596665891501,-0.14953351526540326,-0.1497299063564321,-0.0555620196053445,-0.19429832092343047,-0.23110991559229652,0.0740771645887054,0.0054623245982749705,-0.25294731996822845,-0.2878128285217341,-0.199729417646673,0.457149626068223,-0.26803293342893336,0.3615416068749283,-0.21654066974531216,0.34885396357840015,0.05698606799381504,-0.2133598402453896,-0.20688633810303134,0.15349364289281045,-0.40225805519887997,-0.40129725499462693,0.37487508327803043,-0.10296404111697297,0.404746990023594,0.2107082595610145,-0.28193754770726664,0.16690027751198827,-0.27098694613483987,-0.26129966313546676,0.0031270805559559783,-0.22372366134704152,-0.1771665417850865,0.34142922352708815,-0.44661986455849106,0.1344147725451515,0.012202101329973087,0.2054357111701721,-0.3726624296006431,0.08578569953957528,-0.3340756466636307,-0.49368788908792516,-0.20279179677713235,0.4230427631488757,-0.22140706922333764,-0.4030566097106809,0.3017547200402255,0.29038612254217844,-0.16002329880670188,-0.15769314433983309,0.21747279963129926,-0.4087776520573848,0.11479992913115038,0.25478744407795006,-0.07484793179171954,0.22883833611551807,0.07453376763649366,0.16020340201130506,-0.12246908962419295,-0.15483766803618274,-0.11080690296635845,0.2666718150513188,0.07434568471578255,-0.16715321714280437,0.1385255946641522,-0.12844888109599115,0.25875205105487414,0.22796143328974708,0.28238346849383444,-0.10537027023972563,-0.055994409619341524,0.04773416444669694,-0.17317173660643687,-0.1332138111208233,0.11453903498331844,0.4479558606179363,-0.27432536527040363,0.40114865692068613,0.41695021825636835,0.12941496289874108,0.2783935106301434,-0.2034420512306697,0.030499582127796073,0.3663966280539297,-0.4387100358678747,0.10962867092759412,-0.2545775901544951,0.40699349533526713,-0.14944824370408583,-0.005691197729074873,-0.23369549676911597,0.10692382662287567,-0.22129946488782068,0.07637720929065668,-0.29645270758784703,-0.13324490144507392,0.05096569067885143,0.28715324790652474,0.08754328709993721,0.062406020023233734,-0.31186984451900435,0.14241440066014666,-0.2227209873833758,-0.22614827295115822,0.1928617038715846,0.24525087680578164,0.21788481580645255,0.28951984026908634,-0.4279502708792428,0.2765347232931581,-0.1371768007523726,0.16799733292841612,-0.016702193436421174,-0.1766894737065243,-0.038867206613844976,0.18684800871774096,0.07849340067848345,0.043961596570570804,0.2793446456229418,-0.20441761182613538,-0.295154548141201,-0.23828048436676044,-0.14023969715344714,-0.20942688985131075,0.08138473648808678,-0.3905125090807517,-0.2054587784133653,0.14517481995282455,-0.27074614649178147,-0.3433097584854817,0.19366461578234467,0.09464709277593109,-0.366796676285211,0.018131656473153814,-0.22999770351722673,-0.04147775876454379,-0.25100334376877403,-0.08739912675498573,-0.09490525077287332,-0.2815001072251337,0.2475520406862142,-0.3333869891127461,-0.12165176523009394,-0.11294660401653289,-0.4284029874189997,-0.3467864337077787,0.023390399221223122,-0.24837729815385612,0.5375028306122647,-0.03242874919977517,-0.3353821245689728,0.10218361187507695,0.14272467177782977,0.4265515964314322,0.34771985552762447,0.05839204259180742,-0.341261662423405,-0.20142941450583388,-0.16892167364919605,-0.40964229440839406,0.23305604593012072,-0.32821935483122816,0.08887769329425303,0.3067565962906972,-0.0787988914732153,-0.31762548619245545,-0.43457477015128787,0.33319554360446474,0.201372152683987,0.18924591604856908,0.1455826034911606,-0.4835109790074475,0.13125252622423708,-0.2446185928964786,0.2879398547852978,-0.3256441411825279,0.1465654912420169,-0.3907517358950301,-0.10095008572017855,0.014606961492485958,-0.31850893731120755,0.3936813340911311,-0.19781891699096862,0.44737479303446404,0.00790675429416136,-0.3941722273816903,0.04974769083616194,-0.3943745885744699,0.023145335513630527,0.3254074765919998,0.39314363286776005,0.05038688855867579,-0.12513231690798768,0.19503217085690963,0.12462462349384447,-0.15550439138994784,-0.40859997782300506,-0.32056028182884083,0.2468256316101371,-0.4435528723120415,0.0011539339688973684,-0.030250611867954427,0.026542931640130666,-0.2179774888824734,-0.3123735917490444,0.032904134679443454,0.12065111759194683,-0.35011493605380273,-0.13704189871432718,-0.1500351308052626,-0.044738333002338725,0.04662312482240939,0.10023597316260768,-0.38773454214065034,0.013482353356427513,-0.1425456392079091],"bias":-0.42145452160373814},
